{"learner":{"attributes":{"scikit_learn":"{\"_estimator_type\": \"classifier\"}"},"feature_names":["hours_since_install","cycles_since_install","wear_pct_hours","wear_pct_cycles","wear_pct_max","avg_vibration_30d","max_vibration_30d","vibration_std_30d","avg_egt_30d","max_egt_30d","avg_oil_pressure_30d","min_oil_pressure_30d","avg_oil_temp_30d","avg_anomaly_score_30d","max_anomaly_score_30d","flights_last_30d","total_flight_hours_30d","avg_route_roughness_30d","unscheduled_events_12m","aircraft_age_years","is_pc24"],"feature_types":["float","int","float","float","float","float","float","float","float","float","float","float","float","float","float","int","float","float","int","float","int"],"gradient_booster":{"model":{"cats":{"enc":[],"feature_segments":[],"sorted_idx":[]},"gbtree_model_param":{"num_parallel_tree":"1","num_trees":"400"},"iteration_indptr":[0,1,2,3,4,5,6,7,8,9,10,11,12,13,14,15,16,17,18,19,20,21,22,23,24,25,26,27,28,29,30,31,32,33,34,35,36,37,38,39,40,41,42,43,44,45,46,47,48,49,50,51,52,53,54,55,56,57,58,59,60,61,62,63,64,65,66,67,68,69,70,71,72,73,74,75,76,77,78,79,80,81,82,83,84,85,86,87,88,89,90,91,92,93,94,95,96,97,98,99,100,101,102,103,104,105,106,107,108,109,110,111,112,113,114,115,116,117,118,119,120,121,122,123,124,125,126,127,128,129,130,131,132,133,134,135,136,137,138,139,140,141,142,143,144,145,146,147,148,149,150,151,152,153,154,155,156,157,158,159,160,161,162,163,164,165,166,167,168,169,170,171,172,173,174,175,176,177,178,179,180,181,182,183,184,185,186,187,188,189,190,191,192,193,194,195,196,197,198,199,200,201,202,203,204,205,206,207,208,209,210,211,212,213,214,215,216,217,218,219,220,221,222,223,224,225,226,227,228,229,230,231,232,233,234,235,236,237,238,239,240,241,242,243,244,245,246,247,248,249,250,251,252,253,254,255,256,257,258,259,260,261,262,263,264,265,266,267,268,269,270,271,272,273,274,275,276,277,278,279,280,281,282,283,284,285,286,287,288,289,290,291,292,293,294,295,296,297,298,299,300,301,302,303,304,305,306,307,308,309,310,311,312,313,314,315,316,317,318,319,320,321,322,323,324,325,326,327,328,329,330,331,332,333,334,335,336,337,338,339,340,341,342,343,344,345,346,347,348,349,350,351,352,353,354,355,356,357,358,359,360,361,362,363,364,365,366,367,368,369,370,371,372,373,374,375,376,377,378,379,380,381,382,383,384,385,386,387,388,389,390,391,392,393,394,395,396,397,398,399,400],"tree_info":[0,0,0,0,0,0,0,0,0,0,0,0,0,0,0,0,0,0,0,0,0,0,0,0,0,0,0,0,0,0,0,0,0,0,0,0,0,0,0,0,0,0,0,0,0,0,0,0,0,0,0,0,0,0,0,0,0,0,0,0,0,0,0,0,0,0,0,0,0,0,0,0,0,0,0,0,0,0,0,0,0,0,0,0,0,0,0,0,0,0,0,0,0,0,0,0,0,0,0,0,0,0,0,0,0,0,0,0,0,0,0,0,0,0,0,0,0,0,0,0,0,0,0,0,0,0,0,0,0,0,0,0,0,0,0,0,0,0,0,0,0,0,0,0,0,0,0,0,0,0,0,0,0,0,0,0,0,0,0,0,0,0,0,0,0,0,0,0,0,0,0,0,0,0,0,0,0,0,0,0,0,0,0,0,0,0,0,0,0,0,0,0,0,0,0,0,0,0,0,0,0,0,0,0,0,0,0,0,0,0,0,0,0,0,0,0,0,0,0,0,0,0,0,0,0,0,0,0,0,0,0,0,0,0,0,0,0,0,0,0,0,0,0,0,0,0,0,0,0,0,0,0,0,0,0,0,0,0,0,0,0,0,0,0,0,0,0,0,0,0,0,0,0,0,0,0,0,0,0,0,0,0,0,0,0,0,0,0,0,0,0,0,0,0,0,0,0,0,0,0,0,0,0,0,0,0,0,0,0,0,0,0,0,0,0,0,0,0,0,0,0,0,0,0,0,0,0,0,0,0,0,0,0,0,0,0,0,0,0,0,0,0,0,0,0,0,0,0,0,0,0,0,0,0,0,0,0,0,0,0,0,0,0,0,0,0,0,0,0,0,0,0,0,0,0,0,0,0,0,0,0,0,0,0,0,0,0,0,0,0,0,0,0,0,0,0,0,0,0,0],"trees":[{"base_weights":[-1.9942587E-3,-1.8853261E0,1.28146E0,-9.869566E-2,-2.8712375E-2,-8.9999996E-2,1.5472562E0,4.1895196E-1,1.8570758E0,-5.936508E-1,8.325736E-2,9.6532255E-2,3.2632877E-3,-6.912134E-2,3.1650655E-2],"categories":[],"categories_nodes":[],"categories_segments":[],"categories_sizes":[],"default_left":[0,0,0,0,0,0,0,0,0,0,0,0,0,0,0],"id":0,"left_children":[1,3,5,-1,-1,-1,7,9,11,13,-1,-1,-1,-1,-1],"loss_changes":[5.154927E2,8.6527405E0,1.06601715E2,0E0,0E0,0E0,3.9993713E1,3.469744E1,1.1756836E1,1.5834755E1,0E0,0E0,0E0,0E0,0E0],"parents":[2147483647,0,0,1,1,2,2,6,6,7,7,8,8,9,9],"right_children":[2,4,6,-1,-1,-1,8,10,12,14,-1,-1,-1,-1,-1],"split_conditions":[4.79E1,4.188E1,3.2E-1,-9.869566E-2,-2.8712375E-2,-8.9999996E-2,6.238E1,2.21E-1,9.9E1,9.95E1,8.325736E-2,9.6532255E-2,3.2632877E-3,-6.912134E-2,3.1650655E-2],"split_indices":[4,3,6,0,0,0,4,14,16,12,0,0,0,0,0],"split_type":[0,0,0,0,0,0,0,0,0,0,0,0,0,0,0],"sum_hessian":[2.1123837E2,8.545349E1,1.2578488E2,7.95E1,5.9534883E0,9.5E0,1.1628488E2,2.5627907E1,9.0656975E1,1.438372E1,1.1244186E1,8.695349E1,3.7034883E0,8.726744E0,5.6569767E0],"tree_param":{"num_deleted":"0","num_feature":"21","num_nodes":"15","size_leaf_vector":"1"}},{"base_weights":[-2.4623494E-3,-7.085949E-1,1.5306649E0,-1.5335463E0,1.4185123E0,1.7965115E0,-7.874289E-2,-1.7978915E0,-2.0490661E-1,-5.1601296E-3,1.598283E0,4.2287793E-2,9.201981E-2,-9.4305865E-2,6.42924E-3,-1.3116723E0,7.927821E-1,6.8519646E-1,9.200304E-2,-8.017982E-2,-2.8147696E-2,-1.1088091E-3,6.5827206E-2,-3.192092E-2,7.963203E-2],"categories":[],"categories_nodes":[],"categories_segments":[],"categories_sizes":[],"default_left":[0,0,0,0,0,0,0,0,0,0,0,0,0,0,0,0,0,0,0,0,0,0,0,0,0],"id":1,"left_children":[1,3,5,7,9,11,-1,13,15,-1,17,-1,-1,-1,-1,19,21,23,-1,-1,-1,-1,-1,-1,-1],"loss_changes":[2.2814622E2,2.5553864E2,5.769986E1,3.6150345E1,1.1484573E1,7.489319E-1,0E0,1.5206421E1,2.1564123E1,0E0,6.5749664E0,0E0,0E0,0E0,0E0,8.9446926E-1,4.5664015E0,1.2342814E1,0E0,0E0,0E0,0E0,0E0,0E0,0E0],"parents":[2147483647,0,0,1,1,2,2,3,3,4,4,5,5,7,7,8,8,10,10,15,15,16,16,17,17],"right_children":[2,4,6,8,10,12,-1,14,16,-1,18,-1,-1,-1,-1,20,22,24,-1,-1,-1,-1,-1,-1,-1],"split_conditions":[6.34E1,4.966E1,5.06E1,4.809E1,5.6E1,1.4656E3,-7.874289E-2,3.01E-1,2.01E0,-5.1601296E-3,5.825E1,4.2287793E-2,9.201981E-2,-9.4305865E-2,6.42924E-3,1.781E3,1.5615E3,9.95E1,9.200304E-2,-8.017982E-2,-2.8147696E-2,-1.1088091E-3,6.5827206E-2,-3.192092E-2,7.963203E-2],"split_indices":[2,3,11,2,15,0,0,14,17,0,3,0,0,0,0,0,0,12,0,0,0,0,0,0,0],"split_type":[0,0,0,0,0,0,0,0,0,0,0,0,0,0,0,0,0,0,0,0,0,0,0,0,0],"sum_hessian":[2.0881496E2,1.4337971E2,6.543524E1,1.0354726E2,3.9832455E1,6.0693333E1,4.741909E0,8.6006935E1,1.7540323E1,4.194733E0,3.5637722E1,3.672834E0,5.70205E1,8.231028E1,3.696658E0,8.21391E0,9.326413E0,8.350229E0,2.7287493E1,4.992135E0,3.221775E0,3.9488502E0,5.377563E0,3.4720697E0,4.8781595E0],"tree_param":{"num_deleted":"0","num_feature":"21","num_nodes":"25","size_leaf_vector":"1"}},{"base_weights":[-4.8658613E-2,-1.0754839E0,6.231094E-1,-1.5876528E0,1.0208842E0,9.7668254E-1,-1.3876957E0,-1.7288904E0,-1.0141494E0,-9.636435E-3,7.3889695E-2,1.3585724E0,3.4085667E-1,-8.5004784E-2,-7.090668E-1,-8.994868E-2,-2.3873381E-2,-8.261012E-2,1.5909433E-2,3.8086984E-1,1.4792992E0,-1.4979341E0,1.567911E0,8.583218E-3,-7.21637E-2,5.1524222E-2,-2.7832648E-2,3.3556517E-2,7.7262364E-2,-8.475737E-2,-2.273026E-2,2.3625294E-2,8.836507E-2],"categories":[],"categories_nodes":[],"categories_segments":[],"categories_sizes":[],"default_left":[0,0,0,0,0,0,0,0,0,0,0,0,0,0,0,0,0,0,0,0,0,0,0,0,0,0,0,0,0,0,0,0,0],"id":2,"left_children":[1,3,5,7,9,11,13,15,17,-1,-1,19,21,-1,23,-1,-1,-1,-1,25,27,29,31,-1,-1,-1,-1,-1,-1,-1,-1,-1,-1],"loss_changes":[1.4472064E2,9.0783424E1,9.144867E1,3.4094849E0,9.765066E0,2.569983E1,2.6514778E0,3.500473E0,1.4110451E1,0E0,0E0,7.196739E0,9.74076E1,0E0,5.489526E0,0E0,0E0,0E0,0E0,6.002923E0,1.9116058E0,2.5821724E0,4.573368E0,0E0,0E0,0E0,0E0,0E0,0E0,0E0,0E0,0E0,0E0],"parents":[2147483647,0,0,1,1,2,2,3,3,4,4,5,5,6,6,7,7,8,8,11,11,12,12,14,14,19,19,20,20,21,21,22,22],"right_children":[2,4,6,8,10,12,14,16,18,-1,-1,20,22,-1,24,-1,-1,-1,-1,26,28,30,32,-1,-1,-1,-1,-1,-1,-1,-1,-1,-1],"split_conditions":[1.4082E3,4.75E1,5.41E1,2.19E0,9.85E1,6E-1,3.78E-2,3.614E1,9.946E2,-9.636435E-3,7.3889695E-2,1.5615E3,4.646E1,-8.5004784E-2,1.9037E3,-8.994868E-2,-2.3873381E-2,-8.261012E-2,1.5909433E-2,5.14E1,1.96E0,3.3176E3,5.45E1,8.583218E-3,-7.21637E-2,5.1524222E-2,-2.7832648E-2,3.3556517E-2,7.7262364E-2,-8.475737E-2,-2.273026E-2,2.3625294E-2,8.836507E-2],"split_indices":[0,3,10,17,12,3,7,3,0,0,0,0,3,0,0,0,0,0,0,10,17,0,3,0,0,0,0,0,0,0,0,0,0],"split_type":[0,0,0,0,0,0,0,0,0,0,0,0,0,0,0,0,0,0,0,0,0,0,0,0,0,0,0,0,0,0,0,0,0],"sum_hessian":[2.077673E2,8.199003E1,1.2577728E2,6.612518E1,1.586484E1,1.07448006E2,1.832928E1,5.1301983E1,1.4823203E1,4.437522E0,1.1427318E1,6.6320564E1,4.1127438E1,1.1419762E1,6.9095197E0,4.8091286E1,3.210696E0,9.911563E0,4.9116406E0,7.8368897E0,5.8483677E1,1.6339613E1,2.4787825E1,3.4277234E0,3.481796E0,4.633689E0,3.2032008E0,5.3699527E0,5.3113724E1,1.3136007E1,3.203605E0,4.4133244E0,2.03745E1],"tree_param":{"num_deleted":"0","num_feature":"21","num_nodes":"33","size_leaf_vector":"1"}},{"base_weights":[5.471648E-2,-1.5933787E0,1.221123E0,-1.7070082E0,-4.126917E-1,1.4270192E0,-8.036729E-2,-8.740612E-2,-2.8076068E-2,3.0454049E-2,-7.308594E-2,3.0758858E-1,1.6408707E0,-1.1766652E0,1.1135712E0,1.6882904E0,3.299081E-2,-7.334175E-2,-2.8208101E-2,8.2694195E-2,-4.787149E-3,6.015433E-2,8.7254874E-2],"categories":[],"categories_nodes":[],"categories_segments":[],"categories_sizes":[],"default_left":[0,0,0,0,0,0,0,0,0,0,0,0,0,0,0,0,0,0,0,0,0,0,0],"id":3,"left_children":[1,3,5,7,9,11,-1,-1,-1,-1,-1,13,15,17,19,21,-1,-1,-1,-1,-1,-1,-1],"loss_changes":[4.2176605E2,1.1280518E1,7.7107895E1,2.6744843E0,1.1026956E1,2.8108704E1,0E0,0E0,0E0,0E0,0E0,2.5956402E1,3.3373718E0,3.3696175E-1,9.40485E0,2.3379517E-1,0E0,0E0,0E0,0E0,0E0,0E0,0E0],"parents":[2147483647,0,0,1,1,2,2,3,3,4,4,5,5,11,11,12,12,13,13,14,14,15,15],"right_children":[2,4,6,8,10,12,-1,-1,-1,-1,-1,14,16,18,20,22,-1,-1,-1,-1,-1,-1,-1],"split_conditions":[4.966E1,4.096E1,5.06E1,2.33E0,8.104E2,5.924E1,-8.036729E-2,-8.740612E-2,-2.8076068E-2,3.0454049E-2,-7.308594E-2,1.82E-1,9.43E1,5.414E1,5.13E1,6.369E1,3.299081E-2,-7.334175E-2,-2.8208101E-2,8.2694195E-2,-4.787149E-3,6.015433E-2,8.7254874E-2],"split_indices":[4,3,11,17,8,4,0,0,0,0,0,14,16,4,10,4,0,0,0,0,0,0,0],"split_type":[0,0,0,0,0,0,0,0,0,0,0,0,0,0,0,0,0,0,0,0,0,0,0],"sum_hessian":[2.1740862E2,8.991285E1,1.27495766E2,8.153539E1,8.377456E0,1.19339386E2,8.156384E0,7.811815E1,3.417241E0,4.4080186E0,3.969437E0,1.9607512E1,9.973187E1,6.6947813E0,1.291273E1,9.434868E1,5.383195E0,3.4854734E0,3.2093081E0,8.728134E0,4.184596E0,1.2397475E1,8.19512E1],"tree_param":{"num_deleted":"0","num_feature":"21","num_nodes":"23","size_leaf_vector":"1"}},{"base_weights":[-3.366576E-2,-6.44383E-1,1.4180634E0,-2.1131869E-1,-1.4348675E0,-6.928725E-2,1.6283563E0,1.22907765E-1,-9.20089E-1,-1.5850425E0,-9.767784E-1,8.360662E-2,3.6398422E-2,2.931201E-1,-5.955541E-1,-8.085128E-2,4.303206E-1,-8.3448276E-2,-4.294988E-2,-4.08884E-1,-7.458651E-2,2.5434954E-2,-7.825307E-3,-7.459923E-2,1.915491E-2,-6.771414E-3,5.599007E-2,-3.638213E-2,1.4321132E-3],"categories":[],"categories_nodes":[],"categories_segments":[],"categories_sizes":[],"default_left":[0,0,0,0,0,0,0,0,0,0,0,0,0,0,0,0,0,0,0,0,0,0,0,0,0,0,0,0,0],"id":4,"left_children":[1,3,5,7,9,-1,11,13,15,17,19,-1,-1,21,23,-1,25,-1,-1,27,-1,-1,-1,-1,-1,-1,-1,-1,-1],"loss_changes":[1.8845863E2,5.077674E1,3.938421E1,2.3399725E1,1.8229446E0,0E0,8.6943054E-1,8.381682E0,3.0560915E1,6.253052E-1,3.817112E0,0E0,0E0,5.469222E0,1.2191553E1,0E0,4.735974E0,0E0,0E0,1.3428837E0,0E0,0E0,0E0,0E0,0E0,0E0,0E0,0E0,0E0],"parents":[2147483647,0,0,1,1,2,2,3,3,4,4,6,6,7,7,8,8,9,9,10,10,13,13,14,14,16,16,19,19],"right_children":[2,4,6,8,10,-1,12,14,16,18,20,-1,-1,22,24,-1,26,-1,-1,28,-1,-1,-1,-1,-1,-1,-1,-1,-1],"split_conditions":[6.318E1,5.34E1,3.41E-1,4.6E-1,2.04E-1,-6.928725E-2,8.783E2,4.23E-2,4.79E1,2.1743E3,4.6E-1,8.360662E-2,3.6398422E-2,2.19E0,1.9903E3,-8.085128E-2,9.95E1,-8.3448276E-2,-4.294988E-2,1.3967E3,-7.458651E-2,2.5434954E-2,-7.825307E-3,-7.459923E-2,1.915491E-2,-6.771414E-3,5.599007E-2,-3.638213E-2,1.4321132E-3],"split_indices":[2,10,6,2,14,0,9,7,2,0,2,0,0,17,0,0,12,0,0,0,0,0,0,0,0,0,0,0,0],"split_type":[0,0,0,0,0,0,0,0,0,0,0,0,0,0,0,0,0,0,0,0,0,0,0,0,0,0,0,0,0],"sum_hessian":[2.1062088E2,1.4869322E2,6.192765E1,9.696506E1,5.1728165E1,3.8975117E0,5.803014E1,6.635861E1,3.0606445E1,3.69398E1,1.4788362E1,5.4416283E1,3.6138577E0,5.423976E1,1.2118854E1,2.0106333E1,1.05001135E1,3.182476E1,5.115041E0,7.978168E0,6.810194E0,3.6723324E1,1.7516438E1,6.1046968E0,6.0141573E0,6.1293E0,4.3708134E0,4.3641515E0,3.6140165E0],"tree_param":{"num_deleted":"0","num_feature":"21","num_nodes":"29","size_leaf_vector":"1"}},{"base_weights":[-3.4276336E-2,-1.3935561E0,1.1863917E0,-1.5783107E0,-1.6124333E-1,1.4265808E0,-7.6121874E-2,-8.257946E-2,-2.1255074E-2,-9.1837555E-1,7.3081896E-2,1.5069879E0,1.0811109E-3,-7.5996205E-2,5.8991085E-3,9.4912094E-1,8.176501E-2,-6.988966E-3,6.189468E-2],"categories":[],"categories_nodes":[],"categories_segments":[],"categories_sizes":[],"default_left":[0,0,0,0,0,0,0,0,0,0,0,0,0,0,0,0,0,0,0],"id":5,"left_children":[1,3,5,7,9,11,-1,-1,-1,13,-1,15,-1,-1,-1,17,-1,-1,-1],"loss_changes":[3.4957147E2,2.22715E1,7.436348E1,6.401642E0,1.8715742E1,1.1391922E1,0E0,0E0,0E0,6.7579165E0,0E0,5.1223297E0,0E0,0E0,0E0,6.772991E0,0E0,0E0,0E0],"parents":[2147483647,0,0,1,1,2,2,3,3,4,4,5,5,9,9,11,11,15,15],"right_children":[2,4,6,8,10,12,-1,-1,-1,14,-1,16,-1,-1,-1,18,-1,-1,-1],"split_conditions":[5.395E1,4.096E1,5.06E1,4.809E1,2.58E-1,8.81E1,-7.6121874E-2,-8.257946E-2,-2.1255074E-2,5.22E0,7.3081896E-2,6.369E1,1.0811109E-3,-7.5996205E-2,5.8991085E-3,3.73E-1,8.176501E-2,-6.988966E-3,6.189468E-2],"split_indices":[4,3,11,2,14,16,0,0,0,19,0,4,0,0,0,6,0,0,0],"split_type":[0,0,0,0,0,0,0,0,0,0,0,0,0,0,0,0,0,0,0],"sum_hessian":[2.0867412E2,9.870314E1,1.09970985E2,8.551967E1,1.3183471E1,1.0148288E2,8.488108E0,7.992228E1,5.5973897E0,9.327558E0,3.8559132E0,9.58533E1,5.6295753E0,5.667675E0,3.6598823E0,1.9640043E1,7.621326E1,4.1522923E0,1.5487751E1],"tree_param":{"num_deleted":"0","num_feature":"21","num_nodes":"19","size_leaf_vector":"1"}},{"base_weights":[-2.5931131E-2,-1.4522723E0,1.0574627E0,-7.988105E-2,-7.3629254E-1,1.2844324E0,-7.4205264E-2,1.795762E-1,-7.401606E-2,2.759481E-1,1.479802E0,-3.492823E-2,6.416482E-2,-1.1077725E0,1.1184773E0,1.528545E0,2.0360742E-2,-7.132807E-2,-2.3691867E-2,7.713711E-2,3.5484096E-3,5.2124377E-2,7.931619E-2],"categories":[],"categories_nodes":[],"categories_segments":[],"categories_sizes":[],"default_left":[0,0,0,0,0,0,0,0,0,0,0,0,0,0,0,0,0,0,0,0,0,0,0],"id":6,"left_children":[1,3,5,-1,7,9,-1,11,-1,13,15,-1,-1,17,19,21,-1,-1,-1,-1,-1,-1,-1],"loss_changes":[3.2022058E2,7.9016266E0,6.979962E1,0E0,1.2027784E1,2.0823105E1,0E0,9.1767235E0,0E0,2.3326366E1,3.9261475E0,0E0,0E0,6.7538834E-1,5.2033415E0,5.0730896E-1,0E0,0E0,0E0,0E0,0E0,0E0,0E0],"parents":[2147483647,0,0,1,1,2,2,4,4,5,5,7,7,9,9,10,10,13,13,14,14,15,15],"right_children":[2,4,6,-1,8,10,-1,12,-1,14,16,-1,-1,18,20,22,-1,-1,-1,-1,-1,-1,-1],"split_conditions":[4.966E1,4.096E1,5.06E1,-7.988105E-2,8.104E2,5.924E1,-7.4205264E-2,3.87E-1,-7.401606E-2,1.82E-1,9.43E1,-3.492823E-2,6.416482E-2,8.144E2,5.13E1,6.369E1,2.0360742E-2,-7.132807E-2,-2.3691867E-2,7.713711E-2,3.5484096E-3,5.2124377E-2,7.931619E-2],"split_indices":[4,4,11,0,8,4,0,6,0,14,16,0,0,8,10,4,0,0,0,0,0,0,0],"split_type":[0,0,0,0,0,0,0,0,0,0,0,0,0,0,0,0,0,0,0,0,0,0,0],"sum_hessian":[2.0520436E2,8.8474785E1,1.1672958E2,7.240504E1,1.6069746E1,1.0765008E2,9.079505E0,7.482874E0,8.586872E0,1.7944761E1,8.9705315E1,4.321269E0,3.161605E0,6.6271734E0,1.1317589E1,8.531012E1,4.395196E0,3.4727492E0,3.1544242E0,7.6506615E0,3.6669269E0,1.1270617E1,7.4039505E1],"tree_param":{"num_deleted":"0","num_feature":"21","num_nodes":"23","size_leaf_vector":"1"}},{"base_weights":[4.7010988E-2,-1.4030257E0,1.0722195E0,-1.5108614E0,-2.7716196E-1,1.2681402E0,-7.1035765E-2,-7.754294E-2,-1.9775543E-2,2.9543204E-2,-6.477883E-2,4.7451705E-1,7.676706E-2,7.63952E-1,-6.708463E-2,3.6539312E-3,5.4760285E-2],"categories":[],"categories_nodes":[],"categories_segments":[],"categories_sizes":[],"default_left":[0,0,0,0,0,0,0,0,0,0,0,0,0,0,0,0,0],"id":7,"left_children":[1,3,5,7,9,11,-1,-1,-1,-1,-1,13,-1,15,-1,-1,-1],"loss_changes":[3.0555588E2,9.736084E0,6.0609848E1,2.6435394E0,8.56707E0,2.2868942E1,0E0,0E0,0E0,0E0,0E0,1.6637224E1,0E0,5.8440933E0,0E0,0E0,0E0],"parents":[2147483647,0,0,1,1,2,2,3,3,4,4,5,5,11,11,13,13],"right_children":[2,4,6,8,10,12,-1,-1,-1,-1,-1,14,-1,16,-1,-1,-1],"split_conditions":[4.966E1,4.096E1,5.06E1,4.696E1,4.56E1,6.42E1,-7.1035765E-2,-7.754294E-2,-1.9775543E-2,2.9543204E-2,-6.477883E-2,4.84E1,7.676706E-2,1.82E-1,-6.708463E-2,3.6539312E-3,5.4760285E-2],"split_indices":[4,3,11,2,11,4,0,0,0,0,0,11,0,14,0,0,0],"split_type":[0,0,0,0,0,0,0,0,0,0,0,0,0,0,0,0,0],"sum_hessian":[2.0355174E2,8.411496E1,1.1943678E2,7.636949E1,7.745474E0,1.11226845E2,8.209942E0,7.326212E1,3.1073647E0,4.3551087E0,3.3903654E0,2.880933E1,8.241751E1,2.5396519E1,3.412812E0,8.723986E0,1.6672533E1],"tree_param":{"num_deleted":"0","num_feature":"21","num_nodes":"17","size_leaf_vector":"1"}},{"base_weights":[2.8853226E-2,-1.2693046E0,1.180365E0,-7.5382516E-2,-5.830127E-1,-6.678556E-2,1.3487096E0,-7.22708E-2,4.0192893E-3,1.3963435E0,1.2192013E-3,-4.496689E-2,5.466788E-1,9.023801E-1,7.460507E-2,5.7007264E-2,-1.1868465E-2,-1.299065E-3,5.6735743E-2],"categories":[],"categories_nodes":[],"categories_segments":[],"categories_sizes":[],"default_left":[0,0,0,0,0,0,0,0,0,0,0,0,0,0,0,0,0,0,0],"id":8,"left_children":[1,3,5,-1,7,-1,9,-1,11,13,-1,-1,15,17,-1,-1,-1,-1,-1],"loss_changes":[3.0381473E2,1.4535004E1,4.743596E1,0E0,1.3494171E1,0E0,6.2276764E0,0E0,8.599527E0,3.0447845E0,0E0,0E0,5.5111847E0,4.151413E0,0E0,0E0,0E0,0E0,0E0],"parents":[2147483647,0,0,1,1,2,2,4,4,6,6,8,8,9,9,12,12,13,13],"right_children":[2,4,6,-1,8,-1,10,-1,12,14,-1,-1,16,18,-1,-1,-1,-1,-1],"split_conditions":[5.466E1,4.096E1,3.2E-1,-7.5382516E-2,2.03E0,-6.678556E-2,9.9E1,-7.22708E-2,3.79E-1,6.369E1,1.2192013E-3,-4.496689E-2,8.113E2,3.69E-1,7.460507E-2,5.7007264E-2,-1.1868465E-2,-1.299065E-3,5.6735743E-2],"split_indices":[4,4,6,0,17,0,16,0,6,4,0,0,8,6,0,0,0,0,0],"split_type":[0,0,0,0,0,0,0,0,0,0,0,0,0,0,0,0,0,0,0],"sum_hessian":[2.0124542E2,9.451016E1,1.0673525E2,6.915164E1,2.5358522E1,6.2214284E0,1.00513824E2,9.747161E0,1.56113615E1,9.6898636E1,3.615186E0,5.542796E0,1.0068565E1,1.7596346E1,7.930229E1,5.5448723E0,4.523693E0,3.6138625E0,1.3982483E1],"tree_param":{"num_deleted":"0","num_feature":"21","num_nodes":"19","size_leaf_vector":"1"}},{"base_weights":[1.5928606E-2,-1.4053636E0,9.697468E-1,-1.442013E0,-1.7330138E-2,1.1774933E0,-6.883343E-2,-7.409834E-2,-2.2366723E-2,4.4363657E-1,1.3987414E0,8.295662E-1,-6.793276E-2,7.1414255E-2,3.684722E-2,5.5312053E-3,6.1723568E-2],"categories":[],"categories_nodes":[],"categories_segments":[],"categories_sizes":[],"default_left":[0,0,0,0,0,0,0,0,0,0,0,0,0,0,0,0,0],"id":9,"left_children":[1,3,5,7,-1,9,-1,-1,-1,11,13,15,-1,-1,-1,-1,-1],"loss_changes":[2.68787E2,2.4100037E0,5.9462074E1,2.18544E0,0E0,1.6994034E1,0E0,0E0,0E0,1.9828537E1,3.6660767E-1,6.387697E0,0E0,0E0,0E0,0E0,0E0],"parents":[2147483647,0,0,1,1,2,2,3,3,5,5,9,9,10,10,11,11],"right_children":[2,4,6,8,-1,10,-1,-1,-1,12,14,16,-1,-1,-1,-1,-1],"split_conditions":[4.966E1,4.698E1,5.06E1,3.01E-1,-1.7330138E-2,6.238E1,-6.883343E-2,-7.409834E-2,-2.2366723E-2,5.31E1,9.43E1,1.82E-1,-6.793276E-2,7.1414255E-2,3.684722E-2,5.5312053E-3,6.1723568E-2],"split_indices":[4,2,11,14,0,4,0,0,0,10,16,14,0,0,0,0,0],"split_type":[0,0,0,0,0,0,0,0,0,0,0,0,0,0,0,0,0],"sum_hessian":[1.9629785E2,7.859884E1,1.17699005E2,7.552797E1,3.070866E0,1.0862259E2,9.076415E0,7.2043724E1,3.4842463E0,2.596304E1,8.265955E1,2.1874249E1,4.088791E0,7.787385E1,4.785704E0,8.428659E0,1.3445589E1],"tree_param":{"num_deleted":"0","num_feature":"21","num_nodes":"17","size_leaf_vector":"1"}},{"base_weights":[-6.3932915E-3,-1.3686227E0,9.6950054E-1,-7.2362736E-2,-7.75875E-1,1.1869661E0,-6.7081206E-2,-6.37934E-2,1.3014147E-2,4.2157936E-1,6.9932885E-2,8.499966E-1,-6.6252045E-2,5.4808397E-2,-5.6768213E-3],"categories":[],"categories_nodes":[],"categories_segments":[],"categories_sizes":[],"default_left":[0,0,0,0,0,0,0,0,0,0,0,0,0,0,0],"id":10,"left_children":[1,3,5,-1,7,9,-1,-1,-1,11,-1,13,-1,-1,-1],"loss_changes":[2.563095E2,2.406845E0,5.8004433E1,0E0,6.5120997E0,1.5947403E1,0E0,0E0,0E0,1.8955402E1,0E0,4.928587E0,0E0,0E0,0E0],"parents":[2147483647,0,0,1,1,2,2,4,4,5,5,9,9,11,11],"right_children":[2,4,6,-1,8,10,-1,-1,-1,12,-1,14,-1,-1,-1],"split_conditions":[4.966E1,2.24E0,5.06E1,-7.2362736E-2,4.045E1,6.238E1,-6.7081206E-2,-6.37934E-2,1.3014147E-2,5.31E1,6.9932885E-2,2.22E0,-6.6252045E-2,5.4808397E-2,-5.6768213E-3],"split_indices":[4,17,11,0,4,4,0,0,0,10,0,17,0,0,0],"split_type":[0,0,0,0,0,0,0,0,0,0,0,0,0,0,0],"sum_hessian":[1.9077405E2,7.9500725E1,1.11273315E2,6.876788E1,1.0732843E1,1.02187645E2,9.085675E0,7.1485233E0,3.5843203E0,2.2890215E1,7.9297424E1,1.8839739E1,4.0504775E0,1.49789295E1,3.8608081E0],"tree_param":{"num_deleted":"0","num_feature":"21","num_nodes":"15","size_leaf_vector":"1"}},{"base_weights":[1.7372075E-2,-4.425012E-1,1.1126455E0,-1.0530466E0,1.000073E0,1.3124788E0,-5.7025768E-2,-1.2857552E0,3.2156497E-2,1.2205714E0,-3.4476206E-2,2.3407595E-2,6.800627E-2,-1.3668417E0,5.51201E-3,6.2868154E-1,-6.386612E-2,4.7600076E-1,6.866392E-2,-7.0606045E-2,-1.6741788E-2,-1.0166039E-3,5.6588348E-2,6.707422E-5,4.0702354E-2],"categories":[],"categories_nodes":[],"categories_segments":[],"categories_sizes":[],"default_left":[0,0,0,0,0,0,0,0,0,0,0,0,0,0,0,0,0,0,0,0,0,0,0,0,0],"id":11,"left_children":[1,3,5,7,9,11,-1,13,15,17,-1,-1,-1,19,-1,21,-1,23,-1,-1,-1,-1,-1,-1,-1],"loss_changes":[9.1474205E1,1.13596695E2,2.5703773E1,2.2974106E1,1.5223522E1,1.185997E0,0E0,8.705688E0,1.3897748E1,3.0766335E0,0E0,0E0,0E0,2.6478271E0,0E0,4.149169E0,0E0,1.1211689E0,0E0,0E0,0E0,0E0,0E0,0E0,0E0],"parents":[2147483647,0,0,1,1,2,2,3,3,4,4,5,5,7,7,8,8,9,9,13,13,15,15,17,17],"right_children":[2,4,6,8,10,12,-1,14,16,18,-1,-1,-1,20,-1,22,-1,24,-1,-1,-1,-1,-1,-1,-1],"split_conditions":[6.318E1,4.966E1,5.06E1,4.809E1,5.41E1,1.4656E3,-5.7025768E-2,3.01E-1,5.31E1,5.45E1,-3.4476206E-2,2.3407595E-2,6.800627E-2,3.6904E3,5.51201E-3,1.5615E3,-6.386612E-2,6.6E1,6.866392E-2,-7.0606045E-2,-1.6741788E-2,-1.0166039E-3,5.6588348E-2,6.707422E-5,4.0702354E-2],"split_indices":[2,3,11,2,10,0,0,14,10,3,0,0,0,0,0,0,0,15,0,0,0,0,0,0,0],"split_type":[0,0,0,0,0,0,0,0,0,0,0,0,0,0,0,0,0,0,0,0,0,0,0,0,0],"sum_hessian":[1.794987E2,1.2677449E2,5.2724213E1,8.931342E1,3.7461067E1,4.8853283E1,3.870931E0,7.346672E1,1.5846704E1,3.3434525E1,4.026542E0,3.2999797E0,4.5553303E1,6.95211E1,3.9456205E0,1.1296787E1,4.5499163E0,6.5023274E0,2.6932198E1,6.61534E1,3.3677008E0,5.265174E0,6.0316133E0,3.2453024E0,3.257025E0],"tree_param":{"num_deleted":"0","num_feature":"21","num_nodes":"25","size_leaf_vector":"1"}},{"base_weights":[-0E0,-1.2657539E0,9.257885E-1,-1.3359414E0,-1.8442368E-2,1.1032115E0,-6.29335E-2,-6.904827E-2,-1.5753692E-2,3.5793802E-1,1.310137E0,-5.6887275E-1,9.7090906E-1,6.769516E-2,1.5139078E-2,-6.2054045E-2,-0E0,1.9838752E-2,5.769519E-2],"categories":[],"categories_nodes":[],"categories_segments":[],"categories_sizes":[],"default_left":[0,0,0,0,0,0,0,0,0,0,0,0,0,0,0,0,0,0,0],"id":12,"left_children":[1,3,5,7,-1,9,-1,-1,-1,11,13,15,17,-1,-1,-1,-1,-1,-1],"loss_changes":[2.1075543E2,4.119568E0,4.1633156E1,2.6116943E0,0E0,1.426915E1,0E0,0E0,0E0,1.3365955E1,2.7382965E0,3.5303195E0,8.5460186E-1,0E0,0E0,0E0,0E0,0E0,0E0],"parents":[2147483647,0,0,1,1,2,2,3,3,5,5,9,9,10,10,11,11,12,12],"right_children":[2,4,6,8,-1,10,-1,-1,-1,12,14,16,18,-1,-1,-1,-1,-1,-1],"split_conditions":[4.966E1,4.65E1,5.06E1,3.6904E3,-1.8442368E-2,6.238E1,-6.29335E-2,-6.904827E-2,-1.5753692E-2,2.13E0,8.783E2,1.96E0,8.104E2,6.769516E-2,1.5139078E-2,-6.2054045E-2,-0E0,1.9838752E-2,5.769519E-2],"split_indices":[4,4,11,0,0,4,0,0,0,17,9,17,8,0,0,0,0,0,0],"split_type":[0,0,0,0,0,0,0,0,0,0,0,0,0,0,0,0,0,0,0],"sum_hessian":[1.7785349E2,7.497601E1,1.0287747E2,6.8977196E1,5.99882E0,9.564951E1,7.2279587E0,6.56319E1,3.3452964E0,2.148415E1,7.416537E1,8.51631E0,1.2967839E1,7.0652466E1,3.512902E0,3.291391E0,5.224919E0,4.0320964E0,8.935742E0],"tree_param":{"num_deleted":"0","num_feature":"21","num_nodes":"19","size_leaf_vector":"1"}},{"base_weights":[1.8028185E-3,-1.2317593E0,8.7121123E-1,-6.741103E-2,-6.4931846E-1,1.1160367E0,-9.5383483E-1,2.6256088E-2,-1.0420194E0,3.5709164E-1,1.2784221E0,-3.2964244E-3,-6.4182445E-2,-1.4759502E-2,-6.438822E-2,-1.732525E-1,6.6210635E-2,8.724066E-1,6.7397945E-2,-6.780665E-2,2.1008002E-2,6.2060315E-2,2.9244303E-4],"categories":[],"categories_nodes":[],"categories_segments":[],"categories_sizes":[],"default_left":[0,0,0,0,0,0,0,0,0,0,0,0,0,0,0,0,0,0,0,0,0,0,0],"id":13,"left_children":[1,3,5,-1,7,9,11,-1,13,15,17,-1,-1,-1,-1,19,-1,21,-1,-1,-1,-1,-1],"loss_changes":[1.887744E2,3.8586655E0,4.724375E1,0E0,7.1445246E0,1.0669365E1,3.5027618E0,0E0,1.4868193E0,9.392935E0,7.184143E-1,0E0,0E0,0E0,0E0,9.234764E0,0E0,4.344181E0,0E0,0E0,0E0,0E0,0E0],"parents":[2147483647,0,0,1,1,2,2,4,4,5,5,6,6,8,8,9,9,10,10,15,15,17,17],"right_children":[2,4,6,-1,8,10,12,-1,14,16,18,-1,-1,-1,-1,20,-1,22,-1,-1,-1,-1,-1],"split_conditions":[4.966E1,4.096E1,4.93E1,-6.741103E-2,4.262E1,5.924E1,3.22E0,2.6256088E-2,8.381E2,9.96E1,6.775E1,-3.2964244E-3,-6.4182445E-2,-1.4759502E-2,-6.438822E-2,6.6E1,6.6210635E-2,8.455E2,6.7397945E-2,-6.780665E-2,2.1008002E-2,6.2060315E-2,2.9244303E-4],"split_indices":[4,4,11,0,4,4,19,0,9,12,4,0,0,0,0,15,0,9,0,0,0,0,0],"split_type":[0,0,0,0,0,0,0,0,0,0,0,0,0,0,0,0,0,0,0,0,0,0,0],"sum_hessian":[1.7405148E2,7.173637E1,1.0231511E2,5.854384E1,1.3192531E1,9.060408E1,1.1711032E1,3.1575313E0,1.0034999E1,1.6641436E1,7.396265E1,3.5789862E0,8.132046E0,3.1302314E0,6.9047675E0,1.1211045E1,5.4303894E0,1.3006063E1,6.095658E1,3.3722215E0,7.838824E0,8.739055E0,4.267009E0],"tree_param":{"num_deleted":"0","num_feature":"21","num_nodes":"23","size_leaf_vector":"1"}},{"base_weights":[-2.6269948E-2,-1.083152E0,1.0351428E0,-1.2731347E0,-1.4261529E-1,1.197462E0,-5.805112E-2,-1.3155366E0,-1.5427239E-2,-6.8548635E-2,9.6708214E-1,6.2911624E-1,6.518208E-2,-6.776879E-2,-1.9191472E-2,2.1386063E-2,6.597884E-2,9.87989E-1,-3.738227E-3,2.1219786E-2,6.19335E-2],"categories":[],"categories_nodes":[],"categories_segments":[],"categories_sizes":[],"default_left":[0,0,0,0,0,0,0,0,0,0,0,0,0,0,0,0,0,0,0,0,0],"id":14,"left_children":[1,3,5,7,9,11,-1,13,-1,-1,15,17,-1,-1,-1,-1,-1,19,-1,-1,-1],"loss_changes":[1.8993253E2,1.4841934E1,3.1494492E1,2.3108063E0,2.2462929E1,3.7637482E0,0E0,1.7936554E0,0E0,0E0,9.1013145E-1,3.8385763E0,0E0,0E0,0E0,0E0,0E0,6.919975E-1,0E0,0E0,0E0],"parents":[2147483647,0,0,1,1,2,2,3,3,4,4,5,5,7,7,10,10,11,11,17,17],"right_children":[2,4,6,8,10,12,-1,14,-1,-1,16,18,-1,-1,-1,-1,-1,20,-1,-1,-1],"split_conditions":[5.813E1,4.085E1,5.06E1,2.33E0,1.83E-1,6.42E1,-5.805112E-2,1.005E2,-1.5427239E-2,-6.8548635E-2,2.58E-1,8.455E2,6.518208E-2,-6.776879E-2,-1.9191472E-2,2.1386063E-2,6.597884E-2,7.32E1,-3.738227E-3,2.1219786E-2,6.19335E-2],"split_indices":[4,3,11,17,14,4,0,12,0,0,14,9,0,0,0,0,0,16,0,0,0],"split_type":[0,0,0,0,0,0,0,0,0,0,0,0,0,0,0,0,0,0,0,0,0],"sum_hessian":[1.6730853E2,8.387013E1,8.34384E1,6.939319E1,1.4476942E1,7.816173E1,5.276672E0,6.602339E1,3.3697956E0,6.8021293E0,7.674813E0,1.3542098E1,6.461963E1,6.277704E1,3.2463536E0,4.020322E0,3.654491E0,8.795938E0,4.7461596E0,3.6597629E0,5.136175E0],"tree_param":{"num_deleted":"0","num_feature":"21","num_nodes":"21","size_leaf_vector":"1"}},{"base_weights":[1.4111072E-2,-1.0073837E0,9.651699E-1,-6.5176986E-2,-3.2193378E-1,1.1136786E0,-5.715395E-2,-8.865457E-1,7.0339924E-1,5.310959E-1,1.2602273E0,-6.721832E-2,5.983156E-3,9.91294E-3,5.8353193E-2,8.3950746E-1,-1.9499158E-2,6.487315E-2,1.7928747E-2,-2.929842E-3,5.572266E-2],"categories":[],"categories_nodes":[],"categories_segments":[],"categories_sizes":[],"default_left":[0,0,0,0,0,0,0,0,0,0,0,0,0,0,0,0,0,0,0,0,0],"id":15,"left_children":[1,3,5,-1,7,9,-1,11,13,15,17,-1,-1,-1,-1,19,-1,-1,-1,-1,-1],"loss_changes":[1.6767314E2,1.6301834E1,2.926773E1,0E0,1.5996752E1,6.330803E0,0E0,8.395579E0,1.953999E0,5.7034154E0,1.5958405E0,0E0,0E0,0E0,0E0,3.7409182E0,0E0,0E0,0E0,0E0,0E0],"parents":[2147483647,0,0,1,1,2,2,4,4,5,5,7,7,8,8,9,9,10,10,15,15],"right_children":[2,4,6,-1,8,10,-1,12,14,16,18,-1,-1,-1,-1,20,-1,-1,-1,-1,-1],"split_conditions":[5.466E1,4.093E1,5.06E1,-6.5176986E-2,2.27E-1,6.42E1,-5.715395E-2,9.94E1,2.58E-1,4.82E1,8.504E2,-6.721832E-2,5.983156E-3,9.91294E-3,5.8353193E-2,1.67E-1,-1.9499158E-2,6.487315E-2,1.7928747E-2,-2.929842E-3,5.572266E-2],"split_indices":[4,4,11,0,14,4,0,12,14,11,8,0,0,0,0,14,0,0,0,0,0],"split_type":[0,0,0,0,0,0,0,0,0,0,0,0,0,0,0,0,0,0,0,0,0],"sum_hessian":[1.7059525E2,8.217257E1,8.842268E1,5.6649097E1,2.552347E1,8.3088936E1,5.333743E0,1.6609911E1,8.91356E0,1.7766655E1,6.532228E1,1.1253108E1,5.356803E0,5.052436E0,3.8611236E0,1.3457659E1,4.3089952E0,6.220356E1,3.1187246E0,3.2534628E0,1.0204196E1],"tree_param":{"num_deleted":"0","num_feature":"21","num_nodes":"21","size_leaf_vector":"1"}},{"base_weights":[-2.5653313E-3,-3.7086573E-1,9.701086E-1,-9.873427E-1,9.2088926E-1,6.010073E-2,-3.9836373E-2,-1.1890248E0,-1.7184944E-1,1.0810971E0,-1.1350452E-2,-6.4190514E-2,-5.114902E-3,-6.5670975E-2,5.890373E-1,1.5883295E-2,6.1152738E-2,4.6977443E-3,5.5880126E-2],"categories":[],"categories_nodes":[],"categories_segments":[],"categories_sizes":[],"default_left":[0,0,0,0,0,0,0,0,0,0,0,0,0,0,0,0,0,0,0],"id":16,"left_children":[1,3,5,7,9,-1,-1,11,13,15,-1,-1,-1,-1,17,-1,-1,-1,-1],"loss_changes":[5.5853317E1,9.11261E1,1.8532429E1,1.2359901E1,7.146597E0,0E0,0E0,6.0794907E0,1.5245904E1,3.009159E0,0E0,0E0,0E0,0E0,2.5438893E0,0E0,0E0,0E0,0E0],"parents":[2147483647,0,0,1,1,2,2,3,3,4,4,7,7,8,8,9,9,14,14],"right_children":[2,4,6,8,10,-1,-1,12,14,16,-1,-1,-1,-1,18,-1,-1,-1,-1],"split_conditions":[6.34E1,4.65E1,4.9E1,4.809E1,4.9E1,6.010073E-2,-3.9836373E-2,4.096E1,2.01E0,5.407E1,-1.1350452E-2,-6.4190514E-2,-5.114902E-3,-6.5670975E-2,2.13E-1,1.5883295E-2,6.1152738E-2,4.6977443E-3,5.5880126E-2],"split_indices":[2,3,11,2,11,0,0,3,17,3,0,0,0,0,14,0,0,0,0],"split_type":[0,0,0,0,0,0,0,0,0,0,0,0,0,0,0,0,0,0,0],"sum_hessian":[1.5407497E2,1.1228143E2,4.179354E1,7.621951E1,3.606192E1,3.7277023E1,4.5165167E0,6.064143E1,1.5578082E1,3.1772818E1,4.289102E0,5.5525093E1,5.1163354E0,5.99258E0,9.585503E0,5.599825E0,2.6172993E1,5.655347E0,3.9301555E0],"tree_param":{"num_deleted":"0","num_feature":"21","num_nodes":"19","size_leaf_vector":"1"}},{"base_weights":[2.7223215E-2,-1.1276739E0,7.668655E-1,-6.325027E-2,1.458487E-2,-5.2533556E-2,9.603585E-1,2.3541043E-2,-2.0321144E-2,3.9933768E-1,6.17101E-2,7.5642926E-1,-5.128951E-2,1.5586725E-3,5.9442308E-2],"categories":[],"categories_nodes":[],"categories_segments":[],"categories_sizes":[],"default_left":[0,0,0,0,0,0,0,0,0,0,0,0,0,0,0],"id":17,"left_children":[1,3,5,-1,7,-1,9,-1,-1,11,-1,13,-1,-1,-1],"loss_changes":[1.3519356E2,9.831985E0,3.4949524E1,0E0,1.645882E0,0E0,1.2835602E1,0E0,0E0,1.6221443E1,0E0,7.6635475E0,0E0,0E0,0E0],"parents":[2147483647,0,0,1,1,2,2,4,4,6,6,9,9,11,11],"right_children":[2,4,6,-1,8,-1,10,-1,-1,12,-1,14,-1,-1,-1],"split_conditions":[4.79E1,4.096E1,1.37E-1,-6.325027E-2,4.37E1,-5.2533556E-2,6.42E1,2.3541043E-2,-2.0321144E-2,5.26E1,6.17101E-2,1.82E-1,-5.128951E-2,1.5586725E-3,5.9442308E-2],"split_indices":[4,3,14,0,3,0,4,0,0,10,0,14,0,0,0],"split_type":[0,0,0,0,0,0,0,0,0,0,0,0,0,0,0],"sum_hessian":[1.562971E2,6.076196E1,9.553515E1,5.4222923E1,6.5390368E0,8.716034E0,8.6819115E1,3.1954315E0,3.3436055E0,2.9403625E1,5.741549E1,2.394353E1,5.4600954E0,9.430278E0,1.4513251E1],"tree_param":{"num_deleted":"0","num_feature":"21","num_nodes":"15","size_leaf_vector":"1"}},{"base_weights":[3.1372495E-2,-1.0767993E0,8.876322E-1,-6.2245138E-2,-5.441206E-1,1.0529538E0,-5.6446053E-2,1.15096085E-1,-6.141008E-2,1.1262538E0,-1.3598141E-2,4.6595853E-2,-2.3380162E-2,3.388592E-1,6.0206812E-2,-3.6947146E-2,5.9692856E-2],"categories":[],"categories_nodes":[],"categories_segments":[],"categories_sizes":[],"default_left":[0,0,0,0,0,0,0,0,0,0,0,0,0,0,0,0,0],"id":18,"left_children":[1,3,5,-1,7,9,-1,11,-1,13,-1,-1,-1,15,-1,-1,-1],"loss_changes":[1.5137929E2,5.367874E0,3.1198044E1,0E0,8.637264E0,8.528076E0,0E0,5.3885865E0,0E0,4.3223343E0,0E0,0E0,0E0,8.923393E0,0E0,0E0,0E0],"parents":[2147483647,0,0,1,1,2,2,4,4,5,5,7,7,9,9,13,13],"right_children":[2,4,6,-1,8,10,-1,12,-1,14,-1,-1,-1,16,-1,-1,-1],"split_conditions":[5.154E1,4.096E1,5.06E1,-6.2245138E-2,4.57E1,9.9E1,-5.6446053E-2,8.104E2,-6.141008E-2,5.712E1,-1.3598141E-2,4.6595853E-2,-2.3380162E-2,2.42E-1,6.0206812E-2,-3.6947146E-2,5.9692856E-2],"split_indices":[4,4,11,0,11,16,0,8,0,4,0,0,0,14,0,0,0],"split_type":[0,0,0,0,0,0,0,0,0,0,0,0,0,0,0,0,0],"sum_hessian":[1.5754688E2,6.850863E1,8.9038246E1,5.0915768E1,1.759286E1,8.277925E1,6.258997E0,9.308381E0,8.284479E0,7.865324E1,4.126014E0,3.6975307E0,5.61085E0,7.676667E0,7.097657E1,3.4041748E0,4.2724924E0],"tree_param":{"num_deleted":"0","num_feature":"21","num_nodes":"17","size_leaf_vector":"1"}},{"base_weights":[-2.1406196E-2,-8.956122E-1,9.427761E-1,-1.1457174E0,-3.9995585E-2,1.1080775E0,-5.3350855E-2,-6.339887E-2,-6.7094606E-1,-5.6241173E-2,8.503059E-1,5.836334E-1,6.0145378E-2,-6.095169E-2,6.0257684E-3,5.7506587E-2,1.24271875E-2,5.4662526E-2,-3.2838334E-3],"categories":[],"categories_nodes":[],"categories_segments":[],"categories_sizes":[],"default_left":[0,0,0,0,0,0,0,0,0,0,0,0,0,0,0,0,0,0,0],"id":19,"left_children":[1,3,5,7,9,11,-1,-1,13,-1,15,17,-1,-1,-1,-1,-1,-1,-1],"loss_changes":[1.25208496E2,1.651707E1,2.4640255E1,2.449356E0,1.9101706E1,2.390152E0,0E0,0E0,6.5978274E0,0E0,1.5268364E0,4.203288E0,0E0,0E0,0E0,0E0,0E0,0E0,0E0],"parents":[2147483647,0,0,1,1,2,2,3,3,4,4,5,5,8,8,10,10,11,11],"right_children":[2,4,6,8,10,12,-1,-1,14,-1,16,18,-1,-1,-1,-1,-1,-1,-1],"split_conditions":[5.924E1,2.4E-1,5.06E1,2.19E0,4.096E1,6.42E1,-5.3350855E-2,-6.339887E-2,8.455E2,-5.6241173E-2,7.36E1,6.027E1,6.0145378E-2,-6.095169E-2,6.0257684E-3,5.7506587E-2,1.24271875E-2,5.4662526E-2,-3.2838334E-3],"split_indices":[4,14,11,17,4,4,0,0,9,0,16,2,0,0,0,0,0,0,0],"split_type":[0,0,0,0,0,0,0,0,0,0,0,0,0,0,0,0,0,0,0],"sum_hessian":[1.4654982E2,7.6952896E1,6.959692E1,5.919398E1,1.7758919E1,6.476828E1,4.8286414E0,4.557617E1,1.3617808E1,7.936832E0,9.822086E0,1.1175088E1,5.359319E1,7.8014293E0,5.816379E0,5.8365803E0,3.9855056E0,5.9642725E0,5.210816E0],"tree_param":{"num_deleted":"0","num_feature":"21","num_nodes":"19","size_leaf_vector":"1"}},{"base_weights":[-4.1695847E-3,-9.372274E-1,8.372072E-1,-1.1509118E0,1.3317152E-2,1.0181708E0,-5.4797675E-2,-6.0976226E-2,-1.9503457E-2,-5.770293E-2,6.489361E-1,4.909504E-1,1.164828E0,5.306955E-2,-0E0,5.1175267E-2,-5.0780147E-2,6.041891E-2,1.9471126E-2,-3.778998E-2,2.0082993E-2],"categories":[],"categories_nodes":[],"categories_segments":[],"categories_sizes":[],"default_left":[0,0,0,0,0,0,0,0,0,0,0,0,0,0,0,0,0,0,0,0,0],"id":20,"left_children":[1,3,5,7,9,11,-1,-1,-1,-1,13,15,17,-1,-1,-1,19,-1,-1,-1,-1],"loss_changes":[1.16048584E2,1.4375805E1,2.82794E1,2.357956E0,1.0920565E1,4.797699E0,0E0,0E0,0E0,0E0,2.4703403E0,5.1854815E0,1.2313614E0,0E0,0E0,0E0,3.3735538E0,0E0,0E0,0E0,0E0],"parents":[2147483647,0,0,1,1,2,2,3,3,4,4,5,5,10,10,11,11,12,12,16,16],"right_children":[2,4,6,8,10,12,-1,-1,-1,-1,14,16,18,-1,-1,-1,20,-1,-1,-1,-1],"split_conditions":[5.466E1,4.096E1,5.06E1,4.809E1,9.9E1,6.42E1,-5.4797675E-2,-6.0976226E-2,-1.9503457E-2,-5.770293E-2,8.446E2,5.495E1,8.783E2,5.306955E-2,-0E0,5.1175267E-2,3.96E-2,6.041891E-2,1.9471126E-2,-3.778998E-2,2.0082993E-2],"split_indices":[4,3,11,2,12,4,0,0,0,0,9,2,9,0,0,0,7,0,0,0,0],"split_type":[0,0,0,0,0,0,0,0,0,0,0,0,0,0,0,0,0,0,0,0,0],"sum_hessian":[1.4581033E2,6.9140656E1,7.666967E1,5.6364265E1,1.2776391E1,7.058704E1,6.0826283E0,5.102825E1,5.336015E0,4.1611195E0,8.615272E0,1.6456547E1,5.4130497E1,4.787137E0,3.8281343E0,7.943177E0,8.51337E0,5.060116E1,3.529339E0,3.152101E0,5.3612685E0],"tree_param":{"num_deleted":"0","num_feature":"21","num_nodes":"21","size_leaf_vector":"1"}},{"base_weights":[1.6227923E-3,-3.9940226E-1,9.9295026E-1,-9.3321383E-1,8.754938E-1,5.7486653E-2,-1.5873894E-2,-1.1201264E0,-1.7021011E-1,9.932683E-1,-4.5748474E-3,-6.0260024E-2,-1.5023044E-2,3.7448138E-1,-8.8566214E-1,3.7241572E-1,5.9012055E-2,-9.032029E-3,3.815062E-2,-5.721807E-2,-1.92195E-2,-1.4113349E-2,5.273483E-2],"categories":[],"categories_nodes":[],"categories_segments":[],"categories_sizes":[],"default_left":[0,0,0,0,0,0,0,0,0,0,0,0,0,0,0,0,0,0,0,0,0,0,0],"id":21,"left_children":[1,3,5,7,9,-1,-1,11,13,15,-1,-1,-1,17,19,21,-1,-1,-1,-1,-1,-1,-1],"loss_changes":[5.7726635E1,7.106232E1,9.046612E0,1.0132278E1,3.7025833E0,0E0,0E0,3.572441E0,6.503089E0,2.6253967E0,0E0,0E0,0E0,2.253705E0,3.363943E-1,3.9507914E0,0E0,0E0,0E0,0E0,0E0,0E0,0E0],"parents":[2147483647,0,0,1,1,2,2,3,3,4,4,7,7,8,8,9,9,13,13,14,14,15,15],"right_children":[2,4,6,8,10,-1,-1,12,14,16,-1,-1,-1,18,20,22,-1,-1,-1,-1,-1,-1,-1],"split_conditions":[6.34E1,4.966E1,4.9E1,4.79E1,4.93E1,5.7486653E-2,-1.5873894E-2,4.188E1,4.67E1,5.763E1,-4.5748474E-3,-6.0260024E-2,-1.5023044E-2,1.5615E3,1.541E3,9.96E1,5.9012055E-2,-9.032029E-3,3.815062E-2,-5.721807E-2,-1.92195E-2,-1.4113349E-2,5.273483E-2],"split_indices":[2,3,11,2,11,0,0,3,11,3,0,0,0,0,0,12,0,0,0,0,0,0,0],"split_type":[0,0,0,0,0,0,0,0,0,0,0,0,0,0,0,0,0,0,0,0,0,0,0],"sum_hessian":[1.4306013E2,1.0220929E2,4.085084E1,7.2288025E1,2.9921265E1,3.6663292E1,4.187549E0,5.7582874E1,1.4705151E1,2.6740633E1,3.1806312E0,5.163161E1,5.9512634E0,8.540138E0,6.1650124E0,7.005423E0,1.973521E1,3.6305707E0,4.909568E0,3.0886154E0,3.0763967E0,3.7994153E0,3.2060077E0],"tree_param":{"num_deleted":"0","num_feature":"21","num_nodes":"23","size_leaf_vector":"1"}},{"base_weights":[4.500145E-3,-1.0539753E0,7.348995E-1,-5.919854E-2,-4.843963E-1,9.0483963E-1,-4.409119E-2,2.1905832E-2,-5.796799E-2,4.077857E-1,1.1320179E0,-4.5069075E-1,8.866855E-1,5.878681E-2,2.218292E-2,-5.3863175E-2,2.8327266E-2,5.758163E-2,-2.566306E-3],"categories":[],"categories_nodes":[],"categories_segments":[],"categories_sizes":[],"default_left":[0,0,0,0,0,0,0,0,0,0,0,0,0,0,0,0,0,0,0],"id":22,"left_children":[1,3,5,-1,7,9,-1,-1,-1,11,13,15,17,-1,-1,-1,-1,-1,-1],"loss_changes":[1.070247E2,3.44199E0,2.3326088E1,0E0,8.258437E0,7.823929E0,0E0,0E0,0E0,1.0781111E1,8.389969E-1,6.775403E0,4.282919E0,0E0,0E0,0E0,0E0,0E0,0E0],"parents":[2147483647,0,0,1,1,2,2,4,4,5,5,9,9,10,10,11,11,12,12],"right_children":[2,4,6,-1,8,10,-1,-1,-1,12,14,16,18,-1,-1,-1,-1,-1,-1],"split_conditions":[4.966E1,4.096E1,5.62E1,-5.919854E-2,8.104E2,6.42E1,-4.409119E-2,2.1905832E-2,-5.796799E-2,1.82E-1,8.783E2,9.95E1,5.26E1,5.878681E-2,2.218292E-2,-5.3863175E-2,2.8327266E-2,5.758163E-2,-2.566306E-3],"split_indices":[4,4,10,0,8,4,0,0,0,14,9,12,10,0,0,0,0,0,0],"split_type":[0,0,0,0,0,0,0,0,0,0,0,0,0,0,0,0,0,0,0],"sum_hessian":[1.364734E2,5.548544E1,8.098796E1,4.4153915E1,1.1331523E1,7.373913E1,7.248831E0,4.8734436E0,6.45808E0,2.4145418E1,4.959371E1,8.592529E0,1.5552889E1,4.5829723E1,3.763989E0,5.341621E0,3.2509084E0,1.2032973E1,3.5199163E0],"tree_param":{"num_deleted":"0","num_feature":"21","num_nodes":"19","size_leaf_vector":"1"}},{"base_weights":[8.335444E-3,-4.015476E-1,9.4260544E-1,-8.806774E-1,7.293733E-1,5.756245E-2,-1.7180333E-1,-1.0307255E0,7.8056954E-2,1.2878771E-1,5.718389E-2,-3.7701085E-2,2.3159621E-2,-1.1190346E0,3.9272243E-3,-2.8367177E-2,3.7007328E-2,-5.552582E-2,6.504588E-1,-2.4499707E-2,-5.8549017E-2,4.778367E-2,1.2115699E-3],"categories":[],"categories_nodes":[],"categories_segments":[],"categories_sizes":[],"default_left":[0,0,0,0,0,0,0,0,0,0,0,0,0,0,0,0,0,0,0,0,0,0,0],"id":23,"left_children":[1,3,5,7,9,-1,11,13,15,17,-1,-1,-1,19,-1,-1,-1,-1,21,-1,-1,-1,-1],"loss_changes":[5.190796E1,5.162343E1,9.913254E0,9.754036E0,6.8108215E0,0E0,3.083658E0,5.8473663E0,4.6461535E0,8.983828E0,0E0,0E0,0E0,1.0123596E0,0E0,0E0,0E0,0E0,1.7386909E0,0E0,0E0,0E0,0E0],"parents":[2147483647,0,0,1,1,2,2,3,3,4,4,6,6,7,7,8,8,9,9,13,13,18,18],"right_children":[2,4,6,8,10,-1,12,14,16,18,-1,-1,-1,20,-1,-1,-1,-1,22,-1,-1,-1,-1],"split_conditions":[6.318E1,4.942E1,4.83E1,2.52E-1,1.82E-1,5.756245E-2,7.808E1,5.924E1,1.525E3,5.763E1,5.718389E-2,-3.7701085E-2,2.3159621E-2,5.08E1,3.9272243E-3,-2.8367177E-2,3.7007328E-2,-5.552582E-2,5.19E1,-2.4499707E-2,-5.8549017E-2,4.778367E-2,1.2115699E-3],"split_indices":[2,3,11,14,14,0,2,2,1,3,0,0,0,10,0,0,0,0,10,0,0,0,0],"split_type":[0,0,0,0,0,0,0,0,0,0,0,0,0,0,0,0,0,0,0,0,0,0,0],"sum_hessian":[1.3342094E2,9.3057785E1,4.036316E1,6.558256E1,2.7475233E1,3.404568E1,6.31748E0,5.6732735E1,8.849819E0,1.1849762E1,1.562547E1,3.2800694E0,3.0374105E0,5.2624626E1,4.108109E0,4.4773717E0,4.3724475E0,3.1191995E0,8.730562E0,4.956873E0,4.7667755E1,5.40868E0,3.3218825E0],"tree_param":{"num_deleted":"0","num_feature":"21","num_nodes":"23","size_leaf_vector":"1"}},{"base_weights":[1.5648337E-2,-8.4701884E-1,8.914287E-1,-5.79705E-2,-3.1177515E-1,1.0163505E0,-4.840132E-2,-8.1351024E-1,6.0217226E-1,3.924174E-1,1.1229836E0,-6.1599713E-2,7.7394503E-3,4.7304112E-2,-2.167985E-3,3.909292E-2,-1.0034014E-2,5.8403064E-2,2.6008585E-2],"categories":[],"categories_nodes":[],"categories_segments":[],"categories_sizes":[],"default_left":[0,0,0,0,0,0,0,0,0,0,0,0,0,0,0,0,0,0,0],"id":24,"left_children":[1,3,5,-1,7,9,-1,11,13,15,17,-1,-1,-1,-1,-1,-1,-1,-1],"loss_changes":[9.992751E1,1.0624012E1,1.6245209E1,0E0,1.2444394E1,3.5382996E0,0E0,7.307287E0,2.2907577E0,2.6947107E0,6.460495E-1,0E0,0E0,0E0,0E0,0E0,0E0,0E0,0E0],"parents":[2147483647,0,0,1,1,2,2,4,4,5,5,7,7,8,8,9,9,10,10],"right_children":[2,4,6,-1,8,10,-1,12,14,16,18,-1,-1,-1,-1,-1,-1,-1,-1],"split_conditions":[5.712E1,4.096E1,5.06E1,-5.79705E-2,2.32E-1,6.318E1,-4.840132E-2,2.19E0,7.36E1,6.058E1,8.528E2,-6.1599713E-2,7.7394503E-3,4.7304112E-2,-2.167985E-3,3.909292E-2,-1.0034014E-2,5.8403064E-2,2.6008585E-2],"split_indices":[4,4,11,0,14,4,0,17,16,4,8,0,0,0,0,0,0,0,0],"split_type":[0,0,0,0,0,0,0,0,0,0,0,0,0,0,0,0,0,0,0],"sum_hessian":[1.3026022E2,6.5580414E1,6.46798E1,4.055677E1,2.5023642E1,6.1083305E1,3.596499E0,1.6296541E1,8.727099E0,9.735676E0,5.134763E1,1.1260759E1,5.035782E0,5.491046E0,3.2360535E0,5.7864857E0,3.9491904E0,4.6748264E1,4.599364E0],"tree_param":{"num_deleted":"0","num_feature":"21","num_nodes":"19","size_leaf_vector":"1"}},{"base_weights":[3.079176E-2,-1.0015956E0,6.7507464E-1,-1.1010044E0,8.042062E-3,8.7336665E-1,-6.562229E-1,-2.4052983E-2,-5.81098E-2,3.7933266E-1,5.6243297E-2,-5.5508733E-2,1.5163495E-2,-8.259596E-2,9.4276017E-1,-3.096929E-2,4.4233613E-2,2.1291362E-2,5.5308234E-2],"categories":[],"categories_nodes":[],"categories_segments":[],"categories_sizes":[],"default_left":[0,0,0,0,0,0,0,0,0,0,0,0,0,0,0,0,0,0,0],"id":25,"left_children":[1,3,5,7,-1,9,11,-1,-1,13,-1,-1,-1,15,17,-1,-1,-1,-1],"loss_changes":[8.572886E1,5.9908676E0,2.1560982E1,1.0142174E0,0E0,8.073093E0,5.122156E0,0E0,0E0,6.7039423E0,0E0,0E0,0E0,8.117587E0,3.470478E-1,0E0,0E0,0E0,0E0],"parents":[2147483647,0,0,1,1,2,2,3,3,5,5,6,6,9,9,13,13,14,14],"right_children":[2,4,6,8,-1,10,12,-1,-1,14,-1,-1,-1,16,18,-1,-1,-1,-1],"split_conditions":[4.79E1,3.01E-1,4.93E1,5.08E1,8.042062E-3,6.42E1,1.37E-1,-2.4052983E-2,-5.81098E-2,2.21E-1,5.6243297E-2,-5.5508733E-2,1.5163495E-2,9.96E1,8.051E2,-3.096929E-2,4.4233613E-2,2.1291362E-2,5.5308234E-2],"split_indices":[4,14,11,10,0,4,14,0,0,14,0,0,0,12,8,0,0,0,0],"split_type":[0,0,0,0,0,0,0,0,0,0,0,0,0,0,0,0,0,0,0],"sum_hessian":[1.2691914E2,4.8497623E1,7.8421524E1,4.480489E1,3.6927319E0,6.861992E1,9.801603E0,4.9680753E0,3.9836815E1,2.412862E1,4.44913E1,6.6177945E0,3.1838088E0,1.3629957E1,1.0498663E1,9.063285E0,4.5666723E0,3.5346584E0,6.964004E0],"tree_param":{"num_deleted":"0","num_feature":"21","num_nodes":"19","size_leaf_vector":"1"}},{"base_weights":[-2.7987106E-2,-1.103996E0,6.1993724E-1,-5.7849485E-2,-1.625701E-2,-5.1799305E-2,7.6919687E-1,8.68646E-1,-3.735463E-2,1.8955313E-1,1.0238613E0,-5.814901E-2,4.026949E-2,3.153994E-2,5.5529684E-2],"categories":[],"categories_nodes":[],"categories_segments":[],"categories_sizes":[],"default_left":[0,0,0,0,0,0,0,0,0,0,0,0,0,0,0],"id":26,"left_children":[1,3,5,-1,-1,-1,7,9,-1,11,13,-1,-1,-1,-1],"loss_changes":[8.447153E1,1.3560944E0,1.9443659E1,0E0,0E0,0E0,1.1206684E1,6.6575394E0,0E0,1.2274115E1,9.491539E-1,0E0,0E0,0E0,0E0],"parents":[2147483647,0,0,1,1,2,2,6,6,7,7,9,9,10,10],"right_children":[2,4,6,-1,-1,-1,8,10,-1,12,14,-1,-1,-1,-1],"split_conditions":[4.79E1,2.58E-1,3.2E-1,-5.7849485E-2,-1.625701E-2,-5.1799305E-2,9.9E1,5.712E1,-3.735463E-2,1.82E-1,6.369E1,-5.814901E-2,4.026949E-2,3.153994E-2,5.5529684E-2],"split_indices":[4,14,6,0,0,0,16,4,0,14,4,0,0,0,0],"split_type":[0,0,0,0,0,0,0,0,0,0,0,0,0,0,0],"sum_hessian":[1.1911192E2,4.4560566E1,7.455135E1,4.114701E1,3.4135551E0,5.617592E0,6.893376E1,6.5153595E1,3.780166E0,1.2654317E1,5.249928E1,3.6303384E0,9.023979E0,1.1194201E1,4.130508E1],"tree_param":{"num_deleted":"0","num_feature":"21","num_nodes":"15","size_leaf_vector":"1"}},{"base_weights":[2.6460604E-3,-3.3210433E-1,8.6160004E-1,-9.219827E-1,5.8702826E-1,1.019901E0,-2.4520485E-2,-5.745746E-2,-8.169473E-2,-2.4728825E-2,7.4466985E-1,1.798314E-2,5.4240286E-2,-5.317292E-1,4.14224E-2,2.714046E-1,9.910954E-1,-1.2097998E-3,-5.6315225E-2,-3.144837E-2,3.7822712E-2,1.8075144E-2,5.511057E-2],"categories":[],"categories_nodes":[],"categories_segments":[],"categories_sizes":[],"default_left":[0,0,0,0,0,0,0,0,0,0,0,0,0,0,0,0,0,0,0,0,0,0,0],"id":27,"left_children":[1,3,5,7,9,11,-1,-1,13,-1,15,-1,-1,17,-1,19,21,-1,-1,-1,-1,-1,-1],"loss_changes":[3.480527E1,4.7685104E1,7.824917E0,9.972565E0,6.277606E0,7.85511E-1,0E0,0E0,5.543139E0,0E0,3.1735458E0,0E0,0E0,2.5938087E0,0E0,5.7265487E0,8.2681847E-1,0E0,0E0,0E0,0E0,0E0,0E0],"parents":[2147483647,0,0,1,1,2,2,3,3,4,4,5,5,8,8,10,10,13,13,15,15,16,16],"right_children":[2,4,6,8,10,12,-1,-1,14,-1,16,-1,-1,18,-1,20,22,-1,-1,-1,-1,-1,-1],"split_conditions":[6.34E1,4.096E1,5.02E1,5.021E1,6.34E1,1.56E0,-2.4520485E-2,-5.745746E-2,4.01E-1,-2.4728825E-2,5.538E1,1.798314E-2,5.4240286E-2,8.403E2,4.14224E-2,9.94E1,1.59E0,-1.2097998E-3,-5.6315225E-2,-3.144837E-2,3.7822712E-2,1.8075144E-2,5.511057E-2],"split_indices":[2,3,11,2,16,17,0,0,6,0,3,0,0,9,0,12,17,0,0,0,0,0,0],"split_type":[0,0,0,0,0,0,0,0,0,0,0,0,0,0,0,0,0,0,0,0,0,0,0],"sum_hessian":[1.188677E2,8.589123E1,3.2976475E1,5.2380386E1,3.351084E1,2.9806198E1,3.1702752E0,4.085022E1,1.1530167E1,3.9102523E0,2.9600588E1,3.391231E0,2.6414967E1,8.066972E0,3.4631948E0,1.099385E1,1.8606739E1,5.00422E0,3.0627513E0,3.6729934E0,7.320856E0,3.5643222E0,1.5042417E1],"tree_param":{"num_deleted":"0","num_feature":"21","num_nodes":"23","size_leaf_vector":"1"}},{"base_weights":[3.397113E-2,-1.0632185E0,6.638883E-1,-5.6770135E-2,-6.684811E-3,8.157344E-1,-5.03363E-2,1.9399072E-1,1.0628376E0,5.9186476E-1,-5.6586374E-2,5.562646E-2,2.1201113E-2,7.7191005E-3,4.8995256E-2],"categories":[],"categories_nodes":[],"categories_segments":[],"categories_sizes":[],"default_left":[0,0,0,0,0,0,0,0,0,0,0,0,0,0,0],"id":28,"left_children":[1,3,5,-1,-1,7,-1,9,11,13,-1,-1,-1,-1,-1],"loss_changes":[7.836232E1,2.4942703E0,1.9089634E1,0E0,0E0,9.914162E0,0E0,1.132634E1,8.787956E-1,2.5079594E0,0E0,0E0,0E0,0E0,0E0],"parents":[2147483647,0,0,1,1,2,2,5,5,7,7,8,8,9,9],"right_children":[2,4,6,-1,-1,8,-1,10,12,14,-1,-1,-1,-1,-1],"split_conditions":[4.79E1,3.1013E3,5.06E1,-5.6770135E-2,-6.684811E-3,6.238E1,-5.03363E-2,5.26E1,8.528E2,3.16E-2,-5.6586374E-2,5.562646E-2,2.1201113E-2,7.7191005E-3,4.8995256E-2],"split_indices":[4,0,11,0,0,4,0,10,8,13,0,0,0,0,0],"split_type":[0,0,0,0,0,0,0,0,0,0,0,0,0,0,0],"sum_hessian":[1.11417984E2,4.0328022E1,7.1089966E1,3.7116577E1,3.2114453E0,6.569075E1,5.399215E0,1.9305458E1,4.6385292E1,1.5332774E1,3.972684E0,4.220425E1,4.1810403E0,7.985431E0,7.3473434E0],"tree_param":{"num_deleted":"0","num_feature":"21","num_nodes":"15","size_leaf_vector":"1"}},{"base_weights":[-1.6195228E-2,-1.0132565E0,6.138045E-1,-5.6496013E-2,-2.5906146E-1,-4.908419E-2,7.487979E-1,2.4896909E-2,-4.8518065E-2,2.2264244E-1,1.0484045E0,-2.7883035E-1,5.1123567E-2,5.564872E-2,1.7437732E-2,-3.525738E-2,3.5760507E-2],"categories":[],"categories_nodes":[],"categories_segments":[],"categories_sizes":[],"default_left":[0,0,0,0,0,0,0,0,0,0,0,0,0,0,0,0,0],"id":29,"left_children":[1,3,5,-1,7,-1,9,-1,-1,11,13,15,-1,-1,-1,-1,-1],"loss_changes":[7.050999E1,3.395321E0,1.5508976E1,0E0,4.4282727E0,0E0,9.723408E0,0E0,0E0,1.02263155E1,1.28936E0,7.2112575E0,0E0,0E0,0E0,0E0,0E0],"parents":[2147483647,0,0,1,1,2,2,4,4,6,6,9,9,10,10,11,11],"right_children":[2,4,6,-1,8,-1,10,-1,-1,12,14,16,-1,-1,-1,-1,-1],"split_conditions":[5E1,4.096E1,3.2E-1,-5.6496013E-2,4.37E1,-4.908419E-2,6.42E1,2.4896909E-2,-4.8518065E-2,2.21E-1,8.783E2,5.763E1,5.1123567E-2,5.564872E-2,1.7437732E-2,-3.525738E-2,3.5760507E-2],"split_indices":[4,3,6,0,3,0,4,0,0,14,9,3,0,0,0,0,0],"split_type":[0,0,0,0,0,0,0,0,0,0,0,0,0,0,0,0,0],"sum_hessian":[1.1019682E2,4.2494236E1,6.770259E1,3.625527E1,6.2389703E0,4.734352E0,6.296824E1,3.0995996E0,3.1393707E0,2.3599957E1,3.9368282E1,1.482894E1,8.771016E0,3.5370308E1,3.9979742E0,1.0651865E1,4.177075E0],"tree_param":{"num_deleted":"0","num_feature":"21","num_nodes":"17","size_leaf_vector":"1"}},{"base_weights":[3.172798E-2,-1.0324401E0,5.6658137E-1,-5.5615373E-2,-3.7001576E-3,8.156569E-1,-4.7750086E-1,1.8334089E-1,1.0240563E0,-9.1480726E-1,2.1251474E-2,-5.6921907E-2,7.307458E-1,5.27831E-2,2.177345E-2,-1.3484745E-2,-6.063586E-2,5.42986E-2,-0E0],"categories":[],"categories_nodes":[],"categories_segments":[],"categories_sizes":[],"default_left":[0,0,0,0,0,0,0,0,0,0,0,0,0,0,0,0,0,0,0],"id":30,"left_children":[1,3,5,-1,-1,7,9,11,13,15,-1,-1,17,-1,-1,-1,-1,-1,-1],"loss_changes":[6.3556183E1,2.6562462E0,1.976943E1,0E0,0E0,7.6651993E0,6.3115234E0,1.2611388E1,2.3153305E-1,1.5266256E0,0E0,0E0,3.2209983E0,0E0,0E0,0E0,0E0,0E0,0E0],"parents":[2147483647,0,0,1,1,2,2,5,5,6,6,7,7,8,8,9,9,12,12],"right_children":[2,4,6,-1,-1,8,10,12,14,16,-1,-1,18,-1,-1,-1,-1,-1,-1],"split_conditions":[4.65E1,3.1244E3,4.84E1,-5.5615373E-2,-3.7001576E-3,5.712E1,7.808E1,1.83E-1,1E0,4.6E-1,2.1251474E-2,-5.6921907E-2,4.57E1,5.27831E-2,2.177345E-2,-1.3484745E-2,-6.063586E-2,5.42986E-2,-0E0],"split_indices":[4,0,11,0,0,4,4,14,20,2,0,0,11,0,0,0,0,0,0],"split_type":[0,0,0,0,0,0,0,0,0,0,0,0,0,0,0,0,0,0,0],"sum_hessian":[1.0971802E2,3.6325634E1,7.339238E1,3.328693E1,3.0387034E0,5.9510223E1,1.3882159E1,1.5336503E1,4.417372E1,9.416664E0,4.465495E0,4.121715E0,1.12147875E1,4.1008232E1,3.1654894E0,3.6827571E0,5.7339067E0,7.2619133E0,3.9528744E0],"tree_param":{"num_deleted":"0","num_feature":"21","num_nodes":"19","size_leaf_vector":"1"}},{"base_weights":[-0E0,-2.6277697E-1,9.6219426E-1,-5.120803E-1,4.5019227E-1,1.0347599E-2,5.4559726E-2,-1.6192612E-1,-7.988402E-1,-6.968755E-2,7.734101E-1,2.62677E-1,-5.546019E-1,-4.636666E-1,-1.1154752E0,-3.3625554E-2,2.6084615E-2,4.8193213E-2,8.098874E-3,-5.1848084E-2,4.0160146E-2,-4.938876E-2,3.643229E-2,-3.4071696E-3,-4.9705096E-2,-6.1298378E-2,-2.3974696E-2],"categories":[],"categories_nodes":[],"categories_segments":[],"categories_sizes":[],"default_left":[0,0,0,0,0,0,0,0,0,0,0,0,0,0,0,0,0,0,0,0,0,0,0,0,0,0,0],"id":31,"left_children":[1,3,5,7,9,-1,-1,11,13,15,17,19,21,23,25,-1,-1,-1,-1,-1,-1,-1,-1,-1,-1,-1,-1],"loss_changes":[2.7585257E1,1.5421925E1,1.9264431E0,6.187807E0,3.9154315E0,0E0,0E0,5.2047944E0,3.007782E0,3.734202E0,1.374815E0,1.1382587E1,9.704547E0,3.7540164E0,4.3481255E-1,0E0,0E0,0E0,0E0,0E0,0E0,0E0,0E0,0E0,0E0,0E0,0E0],"parents":[2147483647,0,0,1,1,2,2,3,3,4,4,7,7,8,8,9,9,10,10,11,11,12,12,13,13,14,14],"right_children":[2,4,6,8,10,-1,-1,12,14,16,18,20,22,24,26,-1,-1,-1,-1,-1,-1,-1,-1,-1,-1,-1,-1],"split_conditions":[7.041E1,2.4E-1,1.4E-1,5.19E1,1.4934E3,1.0347599E-2,5.4559726E-2,7.91E2,4.6E-1,1.747E3,2.0962E3,4.61E2,5.867E1,7.11E2,2.08E-1,-3.3625554E-2,2.6084615E-2,4.8193213E-2,8.098874E-3,-5.1848084E-2,4.0160146E-2,-4.938876E-2,3.643229E-2,-3.4071696E-3,-4.9705096E-2,-6.1298378E-2,-2.3974696E-2],"split_indices":[2,14,14,10,0,0,0,1,2,1,0,1,2,1,14,0,0,0,0,0,0,0,0,0,0,0,0],"split_type":[0,0,0,0,0,0,0,0,0,0,0,0,0,0,0,0,0,0,0,0,0,0,0,0,0,0,0],"sum_hessian":[1.06855835E2,8.4432205E1,2.242363E1,6.287039E1,2.1561813E1,3.7643585E0,1.8659271E1,2.9167818E1,3.3702576E1,8.448242E0,1.3113571E1,1.4050887E1,1.511693E1,1.7722557E1,1.5980018E1,4.199443E0,4.2487993E0,9.434791E0,3.6787806E0,3.8031557E0,1.0247731E1,1.1532274E1,3.5846555E0,1.0906805E1,6.815752E0,1.2690344E1,3.2896743E0],"tree_param":{"num_deleted":"0","num_feature":"21","num_nodes":"27","size_leaf_vector":"1"}},{"base_weights":[4.6936497E-3,-9.475963E-1,5.4178685E-1,-5.4528564E-2,5.235625E-4,-4.8614163E-2,6.8381435E-1,1.6540462E-1,9.813633E-1,-3.5163465E-1,4.659874E-2,5.48984E-2,4.8797717E-3,-3.681877E-2,2.595127E-2],"categories":[],"categories_nodes":[],"categories_segments":[],"categories_sizes":[],"default_left":[0,0,0,0,0,0,0,0,0,0,0,0,0,0,0],"id":32,"left_children":[1,3,5,-1,-1,-1,7,9,11,13,-1,-1,-1,-1,-1],"loss_changes":[5.2392296E1,5.17437E0,1.474428E1,0E0,0E0,0E0,9.075117E0,9.67384E0,3.7092857E0,5.3090405E0,0E0,0E0,0E0,0E0,0E0],"parents":[2147483647,0,0,1,1,2,2,6,6,7,7,8,8,9,9],"right_children":[2,4,6,-1,-1,-1,8,10,12,14,-1,-1,-1,-1,-1],"split_conditions":[4.79E1,4.096E1,3.2E-1,-5.4528564E-2,5.235625E-4,-4.8614163E-2,6.42E1,2.21E-1,8.764E2,9.96E1,4.659874E-2,5.48984E-2,4.8797717E-3,-3.681877E-2,2.595127E-2],"split_indices":[4,3,6,0,0,0,4,14,9,12,0,0,0,0,0],"split_type":[0,0,0,0,0,0,0,0,0,0,0,0,0,0,0],"sum_hessian":[1.0051061E2,3.5902824E1,6.460778E1,3.1211172E1,4.6916533E0,4.979068E0,5.9628716E1,2.2434246E1,3.719447E1,1.3643059E1,8.791187E0,3.2544952E1,4.6495166E0,9.648514E0,3.9945455E0],"tree_param":{"num_deleted":"0","num_feature":"21","num_nodes":"15","size_leaf_vector":"1"}},{"base_weights":[2.2975467E-3,-8.363756E-1,6.490681E-1,-5.400159E-2,-2.530244E-1,-4.5939393E-2,7.861286E-1,-8.072494E-1,2.2524854E-2,2.8912368E-1,1.0211573E0,-5.301867E-2,-1.2438232E-2,-3.7242513E-2,5.940766E-1,5.451118E-2,1.4034988E-2,5.5249943E-3,4.8130926E-2],"categories":[],"categories_nodes":[],"categories_segments":[],"categories_sizes":[],"default_left":[0,0,0,0,0,0,0,0,0,0,0,0,0,0,0,0,0,0,0],"id":33,"left_children":[1,3,5,-1,7,-1,9,11,-1,13,15,-1,-1,-1,17,-1,-1,-1,-1],"loss_changes":[5.457887E1,5.813221E0,1.2935017E1,0E0,5.9825907E0,0E0,5.755066E0,7.994528E-1,0E0,6.2674875E0,1.3670769E0,0E0,0E0,0E0,2.447835E0,0E0,0E0,0E0,0E0],"parents":[2147483647,0,0,1,1,2,2,4,4,6,6,7,7,9,9,10,10,14,14],"right_children":[2,4,6,-1,8,-1,10,12,-1,14,16,-1,-1,-1,18,-1,-1,-1,-1],"split_conditions":[5.154E1,4.096E1,3.2E-1,-5.400159E-2,9.94E1,-4.5939393E-2,6.42E1,3.37E-2,2.2524854E-2,1.96E0,8.81E1,-5.301867E-2,-1.2438232E-2,-3.7242513E-2,1.5615E3,5.451118E-2,1.4034988E-2,5.5249943E-3,4.8130926E-2],"split_indices":[4,4,6,0,12,0,4,13,0,17,16,0,0,0,0,0,0,0,0],"split_type":[0,0,0,0,0,0,0,0,0,0,0,0,0,0,0,0,0,0,0],"sum_hessian":[9.865309E1,4.2759148E1,5.589394E1,2.9439785E1,1.3319365E1,3.9762197E0,5.191772E1,7.4472322E0,5.872132E0,1.752147E1,3.439625E1,4.382995E0,3.0642374E0,3.5874445E0,1.3934026E1,3.0906061E1,3.4901886E0,6.706008E0,7.228018E0],"tree_param":{"num_deleted":"0","num_feature":"21","num_nodes":"19","size_leaf_vector":"1"}},{"base_weights":[4.0216874E-2,-6.4779204E-1,4.1717675E-1,-9.907448E-1,-1.2460054E-1,5.031083E-2,9.085019E-1,-5.8649816E-2,-5.7792366E-1,-3.9014247E-1,2.4935924E-2,-4.370905E-2,1.7284933E-1,5.358239E-2,2.3463033E-3,-3.5770335E-3,-4.541735E-2,6.0828673E-3,-4.9203675E-2,-3.286676E-1,3.6309722E-1,-3.5520826E-2,5.250929E-3,2.4001362E-2,-1.2725077E-2],"categories":[],"categories_nodes":[],"categories_segments":[],"categories_sizes":[],"default_left":[0,0,0,0,0,0,0,0,0,0,0,0,0,0,0,0,0,0,0,0,0,0,0,0,0],"id":34,"left_children":[1,3,5,7,9,11,13,-1,15,17,-1,-1,19,-1,-1,-1,-1,-1,-1,21,23,-1,-1,-1,-1],"loss_changes":[2.561122E1,6.0297585E0,1.137338E1,7.142544E-1,2.6803598E0,4.357402E0,3.6518917E0,0E0,1.2624364E0,3.6260464E0,0E0,0E0,3.3917618E0,0E0,0E0,0E0,0E0,0E0,0E0,1.7581029E0,1.9832387E0,0E0,0E0,0E0,0E0],"parents":[2147483647,0,0,1,1,2,2,3,3,4,4,5,5,6,6,8,8,9,9,12,12,19,19,20,20],"right_children":[2,4,6,8,10,12,14,-1,16,18,-1,-1,20,-1,-1,-1,-1,-1,-1,22,24,-1,-1,-1,-1],"split_conditions":[1.4082E3,2.14E0,6.347E1,1.95E-1,4.09E-1,1.4E-1,5.41E1,-5.8649816E-2,4.6E-1,4.6E-1,2.4935924E-2,-4.370905E-2,1.7224E3,5.358239E-2,2.3463033E-3,-3.5770335E-3,-4.541735E-2,6.0828673E-3,-4.9203675E-2,4.08E-2,5.41E1,-3.5520826E-2,5.250929E-3,2.4001362E-2,-1.2725077E-2],"split_indices":[0,17,2,14,6,14,10,0,2,2,0,0,0,0,0,0,0,0,0,7,10,0,0,0,0],"split_type":[0,0,0,0,0,0,0,0,0,0,0,0,0,0,0,0,0,0,0,0,0,0,0,0,0],"sum_hessian":[9.679782E1,3.391467E1,6.2883152E1,1.9830774E1,1.4083895E1,3.6749054E1,2.6134098E1,1.2311756E1,7.5190187E0,1.025125E1,3.8326447E0,3.4875124E0,3.326154E1,2.16707E1,4.4633985E0,3.5688345E0,3.9501843E0,5.8430214E0,4.4082284E0,8.802874E0,2.4458668E1,4.465045E0,4.337829E0,2.0888514E1,3.5701542E0],"tree_param":{"num_deleted":"0","num_feature":"21","num_nodes":"25","size_leaf_vector":"1"}},{"base_weights":[4.1151475E-2,-9.527441E-1,5.8628416E-1,-5.4503348E-2,1.3499555E-2,7.0913017E-1,-4.657858E-2,2.934171E-1,9.956311E-1,-3.9278086E-2,5.1358855E-1,5.311508E-2,1.1323075E-2,-2.1472832E-3,4.3184485E-2],"categories":[],"categories_nodes":[],"categories_segments":[],"categories_sizes":[],"default_left":[0,0,0,0,0,0,0,0,0,0,0,0,0,0,0],"id":35,"left_children":[1,3,5,-1,-1,7,-1,9,11,-1,13,-1,-1,-1,-1],"loss_changes":[5.5307274E1,6.4432106E0,1.2941973E1,0E0,0E0,6.9242992E0,0E0,6.724456E0,1.4741135E0,0E0,4.576276E0,0E0,0E0,0E0,0E0],"parents":[2147483647,0,0,1,1,2,2,5,5,7,7,8,8,10,10],"right_children":[2,4,6,-1,-1,8,-1,10,12,-1,14,-1,-1,-1,-1],"split_conditions":[4.79E1,3.01E-1,5.06E1,-5.4503348E-2,1.3499555E-2,6.42E1,-4.657858E-2,3.64E-1,8.504E2,-3.9278086E-2,1.82E-1,5.311508E-2,1.1323075E-2,-2.1472832E-3,4.3184485E-2],"split_indices":[4,14,11,0,0,4,0,6,8,0,14,0,0,0,0],"split_type":[0,0,0,0,0,0,0,0,0,0,0,0,0,0,0],"sum_hessian":[1.0011634E2,3.5131958E1,6.498438E1,3.1755817E1,3.376143E0,6.06726E1,4.3117805E0,2.5722464E1,3.4950138E1,3.8471014E0,2.1875362E1,3.1692007E1,3.25813E0,8.675754E0,1.319961E1],"tree_param":{"num_deleted":"0","num_feature":"21","num_nodes":"15","size_leaf_vector":"1"}},{"base_weights":[6.4064786E-2,-8.6484885E-1,6.15632E-1,-9.9544996E-1,1.5084976E-2,-6.849625E-1,8.2219344E-1,-5.439626E-2,-2.4527353E-3,-5.6837887E-2,-7.81761E-3,4.0329954E-1,1.0162779E0,-1.7170014E-2,6.376258E-1,5.326118E-2,2.0973869E-2,-8.427733E-3,4.3990076E-2],"categories":[],"categories_nodes":[],"categories_segments":[],"categories_sizes":[],"default_left":[0,0,0,0,0,0,0,0,0,0,0,0,0,0,0,0,0,0,0],"id":36,"left_children":[1,3,5,7,-1,9,11,-1,-1,-1,-1,13,15,-1,17,-1,-1,-1,-1],"loss_changes":[4.8769897E1,5.7693977E0,1.6630085E1,2.649561E0,0E0,1.7632565E0,3.682785E0,0E0,0E0,0E0,0E0,3.4525857E0,4.204445E-1,0E0,3.0289912E0,0E0,0E0,0E0,0E0],"parents":[2147483647,0,0,1,1,2,2,3,3,5,5,6,6,11,11,12,12,14,14],"right_children":[2,4,6,8,-1,10,12,-1,-1,-1,-1,14,16,-1,18,-1,-1,-1,-1],"split_conditions":[4.966E1,3.01E-1,3.47E-1,3.3176E3,1.5084976E-2,6.492E1,6.238E1,-5.439626E-2,-2.4527353E-3,-5.6837887E-2,-7.81761E-3,2.03E0,8.791E2,-1.7170014E-2,1.67E-1,5.326118E-2,2.0973869E-2,-8.427733E-3,4.3990076E-2],"split_indices":[4,14,6,0,0,4,4,0,0,0,0,17,9,0,14,0,0,0,0],"split_type":[0,0,0,0,0,0,0,0,0,0,0,0,0,0,0,0,0,0,0],"sum_hessian":[9.3196556E1,3.444211E1,5.8754444E1,3.1183365E1,3.2587445E0,7.6687493E0,5.1085697E1,2.817508E1,3.008287E0,3.412499E0,4.2562504E0,1.7312721E1,3.3772976E1,3.92217E0,1.3390551E1,3.0332823E1,3.4401522E0,3.0681243E0,1.0322427E1],"tree_param":{"num_deleted":"0","num_feature":"21","num_nodes":"19","size_leaf_vector":"1"}},{"base_weights":[-1.3616554E-2,-2.959872E-1,7.221331E-1,-8.2553875E-1,7.419744E-1,4.9873665E-2,-7.959117E-3,-9.6368456E-1,3.8369433E-3,9.0618676E-1,-0E0,-1.0552835E0,-9.630834E-3,-2.9564453E-2,3.1403046E-2,1.275448E-2,5.4275434E-2,-5.5775758E-2,-1.677753E-2],"categories":[],"categories_nodes":[],"categories_segments":[],"categories_sizes":[],"default_left":[0,0,0,0,0,0,0,0,0,0,0,0,0,0,0,0,0,0,0],"id":37,"left_children":[1,3,5,7,9,-1,-1,11,13,15,-1,17,-1,-1,-1,-1,-1,-1,-1],"loss_changes":[1.8618433E1,3.63346E1,6.2652416E0,5.090744E0,2.7691116E0,0E0,0E0,2.3169403E0,3.0172951E0,1.7371483E0,0E0,9.169388E-1,0E0,0E0,0E0,0E0,0E0,0E0,0E0],"parents":[2147483647,0,0,1,1,2,2,3,3,4,4,7,7,8,8,9,9,11,11],"right_children":[2,4,6,8,10,-1,-1,12,14,16,-1,18,-1,-1,-1,-1,-1,-1,-1],"split_conditions":[6.34E1,4.942E1,4.83E1,2.52E-1,5.35E1,4.9873665E-2,-7.959117E-3,5.924E1,1.587E3,5.45E1,-0E0,7.8E1,-9.630834E-3,-2.9564453E-2,3.1403046E-2,1.275448E-2,5.4275434E-2,-5.5775758E-2,-1.677753E-2],"split_indices":[2,3,11,14,10,0,0,2,1,3,0,15,0,0,0,0,0,0,0],"split_type":[0,0,0,0,0,0,0,0,0,0,0,0,0,0,0,0,0,0,0],"sum_hessian":[8.7793945E1,6.3974884E1,2.3819061E1,4.256162E1,2.1413267E1,1.8134998E1,5.684063E0,3.6449074E1,6.1125436E0,1.7398283E1,4.014985E0,3.2133484E1,4.315588E0,3.0742044E0,3.0383391E0,4.4005556E0,1.2997726E1,2.901638E1,3.1171055E0],"tree_param":{"num_deleted":"0","num_feature":"21","num_nodes":"19","size_leaf_vector":"1"}},{"base_weights":[1.6641013E-2,-8.4356785E-1,5.498818E-1,-5.3602774E-2,7.28598E-3,7.2527194E-1,-5.6208277E-1,3.5672322E-1,9.655776E-1,-4.815928E-2,1.7682359E-3,-2.1856906E-2,5.5104727E-1,1.7697256E-2,5.1200747E-2,3.870835E-2,-4.921835E-3],"categories":[],"categories_nodes":[],"categories_segments":[],"categories_sizes":[],"default_left":[0,0,0,0,0,0,0,0,0,0,0,0,0,0,0,0,0],"id":38,"left_children":[1,3,5,-1,-1,7,9,11,13,-1,-1,-1,15,-1,-1,-1,-1],"loss_changes":[3.995563E1,7.7746315E0,1.0929199E1,0E0,0E0,3.689476E0,2.0018554E0,3.3864245E0,4.9069023E-1,0E0,0E0,0E0,2.5877113E0,0E0,0E0,0E0,0E0],"parents":[2147483647,0,0,1,1,2,2,5,5,6,6,7,7,8,8,12,12],"right_children":[2,4,6,-1,-1,8,10,12,14,-1,-1,-1,16,-1,-1,-1,-1],"split_conditions":[5E1,4.096E1,4.93E1,-5.3602774E-2,7.28598E-3,6.369E1,1.1E-1,1.65E-1,1.4313E3,-4.815928E-2,1.7682359E-3,-2.1856906E-2,5.26E1,1.7697256E-2,5.1200747E-2,3.870835E-2,-4.921835E-3],"split_indices":[4,3,11,0,0,4,14,14,0,0,0,0,10,0,0,0,0],"split_type":[0,0,0,0,0,0,0,0,0,0,0,0,0,0,0,0,0],"sum_hessian":[8.5159294E1,3.2294014E1,5.286528E1,2.6248932E1,6.0450826E0,4.604093E1,6.824348E0,1.9316483E1,2.6724451E1,3.816985E0,3.007363E0,3.4516232E0,1.5864859E1,3.0953288E0,2.3629122E1,1.178002E1,4.084839E0],"tree_param":{"num_deleted":"0","num_feature":"21","num_nodes":"17","size_leaf_vector":"1"}},{"base_weights":[3.1452917E-2,-5.2046757E-2,4.2225924E-1,5.443655E-1,-4.616127E-2,2.0772801E-1,9.945372E-1,4.2531392E-1,-3.6942195E-2,5.273183E-2,2.1576086E-2,-7.802961E-3,3.0878892E-2],"categories":[],"categories_nodes":[],"categories_segments":[],"categories_sizes":[],"default_left":[0,0,0,0,0,0,0,0,0,0,0,0,0],"id":39,"left_children":[1,-1,3,5,-1,7,9,11,-1,-1,-1,-1,-1],"loss_changes":[3.5854103E1,0E0,1.0785583E1,8.506845E0,0E0,7.4383984E0,2.2693634E-1,3.3806267E0,0E0,0E0,0E0,0E0,0E0],"parents":[2147483647,0,0,2,2,3,3,5,5,6,6,7,7],"right_children":[2,-1,4,6,-1,8,10,12,-1,-1,-1,-1,-1],"split_conditions":[4.096E1,-5.2046757E-2,5.06E1,6.775E1,-4.616127E-2,5.31E1,8.497E2,4.14E0,-3.6942195E-2,5.273183E-2,2.1576086E-2,-7.802961E-3,3.0878892E-2],"split_indices":[4,0,11,4,0,10,8,19,0,0,0,0,0],"split_type":[0,0,0,0,0,0,0,0,0,0,0,0,0],"sum_hessian":[8.364987E1,2.182948E1,6.1820393E1,5.7290833E1,4.529558E0,3.374212E1,2.3548714E1,2.7969233E1,5.772887E0,2.0327984E1,3.2207289E0,6.868439E0,2.1100794E1],"tree_param":{"num_deleted":"0","num_feature":"21","num_nodes":"13","size_leaf_vector":"1"}},{"base_weights":[-1.8379398E-2,-6.118756E-1,6.8777555E-1,-8.3997834E-1,3.4116012E-1,8.6917627E-1,-2.0311287E-2,-5.430901E-2,-3.5402134E-1,-1.6196702E-2,4.9572393E-2,4.8141906E-1,5.06984E-2,-4.5497086E-2,1.05068974E-1,-1.9543294E-2,4.8155516E-2,3.263539E-2,-1.7889842E-2],"categories":[],"categories_nodes":[],"categories_segments":[],"categories_sizes":[],"default_left":[0,0,0,0,0,0,0,0,0,0,0,0,0,0,0,0,0,0,0],"id":40,"left_children":[1,3,5,7,9,11,-1,-1,13,-1,-1,15,-1,-1,17,-1,-1,-1,-1],"loss_changes":[3.431415E1,1.0022682E1,7.8081684E0,3.817564E0,4.3805094E0,1.1824989E0,0E0,0E0,3.7070932E0,0E0,0E0,5.01616E0,0E0,0E0,2.3860807E0,0E0,0E0,0E0,0E0],"parents":[2147483647,0,0,1,1,2,2,3,3,4,4,5,5,8,8,11,11,14,14],"right_children":[2,4,6,8,10,12,-1,-1,14,-1,-1,16,-1,-1,18,-1,-1,-1,-1],"split_conditions":[5.924E1,2.52E-1,4.9E1,2.18E0,2.788E1,1.65E-1,-2.0311287E-2,-5.430901E-2,4.096E1,-1.6196702E-2,4.9572393E-2,7.331E1,5.06984E-2,-4.5497086E-2,4.7E2,-1.9543294E-2,4.8155516E-2,3.263539E-2,-1.7889842E-2],"split_indices":[4,14,11,17,3,14,0,0,4,0,0,4,0,0,1,0,0,0,0],"split_type":[0,0,0,0,0,0,0,0,0,0,0,0,0,0,0,0,0,0,0],"sum_hessian":[7.9889725E1,4.3556923E1,3.63328E1,3.5325542E1,8.231377E0,3.1419865E1,4.9129386E0,2.24903E1,1.2835245E1,4.241443E0,3.989934E0,9.9062195E0,2.1513645E1,5.4597306E0,7.375514E0,3.5174658E0,6.388754E0,3.2894766E0,4.086037E0],"tree_param":{"num_deleted":"0","num_feature":"21","num_nodes":"19","size_leaf_vector":"1"}},{"base_weights":[-5.718182E-2,-6.237005E-1,6.0600424E-1,-1.8641473E-1,-5.1372856E-2,9.492998E-1,-4.7855317E-3,-4.738152E-2,2.4916515E-1,5.27124E-2,1.9311756E-2,-4.60664E-2,3.4246105E-1,-2.7405871E-2,6.56289E-1,-1.4737097E-2,4.7999926E-2,5.8399946E-3,4.628085E-2],"categories":[],"categories_nodes":[],"categories_segments":[],"categories_sizes":[],"default_left":[0,0,0,0,0,0,0,0,0,0,0,0,0,0,0,0,0,0,0],"id":41,"left_children":[1,3,5,7,-1,9,11,-1,13,-1,-1,-1,15,-1,17,-1,-1,-1,-1],"loss_changes":[2.977404E1,7.2380466E0,7.745944E0,7.558063E0,0E0,8.348961E-1,4.833096E0,0E0,5.1160264E0,0E0,0E0,0E0,4.6040416E0,0E0,1.2720289E0,0E0,0E0,0E0,0E0],"parents":[2147483647,0,0,1,1,2,2,3,3,5,5,6,6,8,8,12,12,14,14],"right_children":[2,4,6,8,-1,10,12,-1,14,-1,-1,-1,16,-1,18,-1,-1,-1,-1],"split_conditions":[5.924E1,4.59E1,4.73E1,4.045E1,-5.1372856E-2,8.455E2,1.37E-1,-4.738152E-2,1.83E-1,5.27124E-2,1.9311756E-2,-4.60664E-2,7.062E1,-2.7405871E-2,4.928E1,-1.4737097E-2,4.7999926E-2,5.8399946E-3,4.628085E-2],"split_indices":[4,11,11,4,0,9,14,0,14,0,0,0,4,0,4,0,0,0,0],"split_type":[0,0,0,0,0,0,0,0,0,0,0,0,0,0,0,0,0,0,0],"sum_hessian":[7.723725E1,4.1767876E1,3.5469376E1,2.0871988E1,2.0895887E1,2.2456924E1,1.3012453E1,7.2521725E0,1.3619816E1,1.804384E1,4.4130836E0,3.2002559E0,9.812197E0,4.4037943E0,9.216022E0,5.006768E0,4.8054285E0,3.669879E0,5.5461426E0],"tree_param":{"num_deleted":"0","num_feature":"21","num_nodes":"19","size_leaf_vector":"1"}},{"base_weights":[5.1738918E-2,-5.1136088E-2,4.246819E-1,6.9845283E-1,-4.385247E-1,2.2192326E-1,9.968745E-1,-9.32018E-1,2.5265729E-2,-1.841209E-1,7.279933E-1,1.6566465E-2,5.355044E-2,-1.3051431E-2,-5.99931E-2,-3.827766E-2,1.2087589E-2,5.4513592E-2,1.4910321E-2],"categories":[],"categories_nodes":[],"categories_segments":[],"categories_sizes":[],"default_left":[0,0,0,0,0,0,0,0,0,0,0,0,0,0,0,0,0,0,0],"id":42,"left_children":[1,-1,3,5,7,9,11,13,-1,15,17,-1,-1,-1,-1,-1,-1,-1,-1],"loss_changes":[3.1690027E1,0E0,1.4225335E1,6.071396E0,7.352213E0,4.048573E0,8.529434E-1,1.3491049E0,0E0,2.9887736E0,8.8661337E-1,0E0,0E0,0E0,0E0,0E0,0E0,0E0,0E0],"parents":[2147483647,0,0,2,2,3,3,4,4,5,5,6,6,7,7,9,9,10,10],"right_children":[2,-1,4,6,8,10,12,14,-1,16,18,-1,-1,-1,-1,-1,-1,-1,-1],"split_conditions":[4.096E1,-5.1136088E-2,5.39E1,5.924E1,7.808E1,9.94E1,2.603E-1,5.72E2,2.5265729E-2,2.19E0,4.65E2,1.6566465E-2,5.355044E-2,-1.3051431E-2,-5.99931E-2,-3.827766E-2,1.2087589E-2,5.4513592E-2,1.4910321E-2],"split_indices":[4,0,10,4,4,12,5,1,0,17,1,0,0,0,0,0,0,0,0],"split_type":[0,0,0,0,0,0,0,0,0,0,0,0,0,0,0,0,0,0,0],"sum_hessian":[7.7149536E1,1.9360598E1,5.778894E1,4.4106895E1,1.3682046E1,1.7785378E1,2.6321518E1,9.062254E0,4.6197915E0,1.0111229E1,7.6741476E0,3.3214235E0,2.3000095E1,3.2552562E0,5.806998E0,4.036926E0,6.074303E0,3.2039816E0,4.470166E0],"tree_param":{"num_deleted":"0","num_feature":"21","num_nodes":"19","size_leaf_vector":"1"}},{"base_weights":[-2.8942442E-3,-5.783958E-1,6.443467E-1,-5.0833173E-2,-1.4240974E-1,4.9283177E-2,-1.5589988E-2,-5.2288987E-2,2.2796415E-1,-4.3448222E-1,3.3901688E-2,4.344767E-2,-2.2662109E-1,3.1832777E-2,-7.5264305E-2,-4.14616E-2,1.6820425E-2],"categories":[],"categories_nodes":[],"categories_segments":[],"categories_sizes":[],"default_left":[0,0,0,0,0,0,0,0,0,0,0,0,0,0,0,0,0],"id":43,"left_children":[1,3,5,-1,7,-1,9,-1,11,13,-1,-1,15,-1,-1,-1,-1],"loss_changes":[2.8300968E1,7.4410086E0,8.15121E0,0E0,7.5080957E0,0E0,4.0621147E0,0E0,4.917141E0,1.1179909E1,0E0,0E0,3.7383022E0,0E0,0E0,0E0,0E0],"parents":[2147483647,0,0,1,1,2,2,4,4,6,6,8,8,9,9,12,12],"right_children":[2,4,6,-1,8,-1,10,-1,12,14,-1,-1,16,-1,-1,-1,-1],"split_conditions":[5.924E1,4.096E1,4.73E1,-5.0833173E-2,3.83E-2,4.9283177E-2,8.038E1,-5.2288987E-2,3.96E-2,5.72E2,3.3901688E-2,4.344767E-2,1.536E3,3.1832777E-2,-7.5264305E-2,-4.14616E-2,1.6820425E-2],"split_indices":[4,4,11,0,7,0,4,0,7,1,0,0,1,0,0,0,0],"split_type":[0,0,0,0,0,0,0,0,0,0,0,0,0,0,0,0,0],"sum_hessian":[7.399534E1,3.9306446E1,3.4688896E1,1.8823349E1,2.0483095E1,2.263837E1,1.2050524E1,5.504245E0,1.497885E1,7.835996E0,4.214528E0,5.9282107E0,9.050639E0,4.07339E0,3.7626064E0,4.22907E0,4.8215694E0],"tree_param":{"num_deleted":"0","num_feature":"21","num_nodes":"17","size_leaf_vector":"1"}},{"base_weights":[4.803147E-2,-5.0431278E-2,3.972328E-1,-5.6848265E-2,7.333903E-1,-6.846202E-1,7.26235E-1,-0E0,8.338466E-1,-6.171115E-2,-2.6525062E-2,4.558478E-2,1.1129706E-2,9.3950814E-1,9.071573E-3,2.3986723E-2,-2.824764E-2,1.9282078E-2,5.2485812E-2],"categories":[],"categories_nodes":[],"categories_segments":[],"categories_sizes":[],"default_left":[0,0,0,0,0,0,0,0,0,0,0,0,0,0,0,0,0,0,0],"id":44,"left_children":[1,-1,3,5,7,9,11,-1,13,-1,15,-1,-1,17,-1,-1,-1,-1,-1],"loss_changes":[2.7183712E1,0E0,8.576304E0,1.2486729E1,2.3126335E0,4.950862E0,7.3633146E-1,0E0,1.6569939E0,0E0,2.333146E0,0E0,0E0,9.07032E-1,0E0,0E0,0E0,0E0,0E0],"parents":[2147483647,0,0,2,2,3,3,4,4,5,5,6,6,8,8,10,10,13,13],"right_children":[2,-1,4,6,8,10,12,-1,14,-1,16,-1,-1,18,-1,-1,-1,-1,-1],"split_conditions":[4.093E1,-5.0431278E-2,1.82E-1,2.1743E3,4.79E1,2.05E0,5.21E1,-0E0,8.451E2,-6.171115E-2,2.939E-1,4.558478E-2,1.1129706E-2,3.8E-2,9.071573E-3,2.3986723E-2,-2.824764E-2,1.9282078E-2,5.2485812E-2],"split_indices":[4,0,14,0,4,17,10,0,8,0,5,0,0,7,0,0,0,0,0],"split_type":[0,0,0,0,0,0,0,0,0,0,0,0,0,0,0,0,0,0,0],"sum_hessian":[7.175124E1,1.7282114E1,5.4469128E1,2.339738E1,3.1071745E1,1.3127187E1,1.0270194E1,3.9360094E0,2.7135736E1,6.593379E0,6.5338078E0,6.7688646E0,3.5013294E0,2.2842903E1,4.2928324E0,3.3279593E0,3.2058485E0,4.688211E0,1.8154694E1],"tree_param":{"num_deleted":"0","num_feature":"21","num_nodes":"19","size_leaf_vector":"1"}},{"base_weights":[3.2820746E-2,-5.0356593E-2,3.9262226E-1,6.830004E-1,-1.2809503E-1,2.1768342E-1,5.0118554E-2,-4.286531E-1,4.0512796E-2,-3.8487676E-1,7.2182155E-1,1.5528142E-1,-8.4616876E-1,-4.3081757E-2,1.1987985E-2,1.6459798E-2,4.5680165E-2,-1.4061819E-2,3.0175766E-2,-9.604708E-3,-6.0166962E-2],"categories":[],"categories_nodes":[],"categories_segments":[],"categories_sizes":[],"default_left":[0,0,0,0,0,0,0,0,0,0,0,0,0,0,0,0,0,0,0,0,0],"id":45,"left_children":[1,-1,3,5,7,9,-1,11,-1,13,15,17,19,-1,-1,-1,-1,-1,-1,-1,-1],"loss_changes":[2.7336174E1,0E0,8.369393E0,4.8921967E0,6.005136E0,5.0914326E0,0E0,4.1089973E0,0E0,2.5707016E0,2.5305796E-1,1.6554942E0,1.8726506E0,0E0,0E0,0E0,0E0,0E0,0E0,0E0,0E0],"parents":[2147483647,0,0,2,2,3,3,4,4,5,5,7,7,9,9,10,10,11,11,12,12],"right_children":[2,-1,4,6,8,10,-1,12,-1,14,16,18,20,-1,-1,-1,-1,-1,-1,-1,-1],"split_conditions":[4.096E1,-5.0356593E-2,5.22E1,5.924E1,8.145E1,9.93E1,5.0118554E-2,5.58E2,4.0512796E-2,3.37E-2,5.12E1,5.387E1,4.83E1,-4.3081757E-2,1.1987985E-2,1.6459798E-2,4.5680165E-2,-1.4061819E-2,3.0175766E-2,-9.604708E-3,-6.0166962E-2],"split_indices":[4,0,10,4,4,12,0,1,0,13,10,2,11,0,0,0,0,0,0,0,0],"split_type":[0,0,0,0,0,0,0,0,0,0,0,0,0,0,0,0,0,0,0,0,0],"sum_hessian":[7.1164345E1,1.7758627E1,5.340572E1,3.420929E1,1.919643E1,1.473516E1,1.947413E1,1.503152E1,4.1649094E0,6.729763E0,8.005397E0,6.428807E0,8.602714E0,3.6922786E0,3.0374844E0,3.6896641E0,4.315733E0,3.332694E0,3.0961127E0,3.6805117E0,4.9222016E0],"tree_param":{"num_deleted":"0","num_feature":"21","num_nodes":"21","size_leaf_vector":"1"}},{"base_weights":[-0E0,-5.5573976E-1,5.8635247E-1,-8.0832684E-1,4.5376593E-1,-2.8911654E-2,7.454699E-1,4.231216E-3,-9.691901E-1,7.2425726E-4,4.055088E-2,2.683483E-1,9.5624286E-1,-5.502683E-2,-6.876241E-4,4.1313026E-2,-1.3337997E-2,5.074511E-2,2.2274392E-2],"categories":[],"categories_nodes":[],"categories_segments":[],"categories_sizes":[],"default_left":[0,0,0,0,0,0,0,0,0,0,0,0,0,0,0,0,0,0,0],"id":46,"left_children":[1,3,5,7,9,-1,11,-1,13,-1,-1,15,17,-1,-1,-1,-1,-1,-1],"loss_changes":[2.3405571E1,9.791793E0,6.9331837E0,4.46434E0,1.150319E0,0E0,2.7689743E0,0E0,3.0741138E0,0E0,0E0,3.5982642E0,3.630066E-2,0E0,0E0,0E0,0E0,0E0,0E0],"parents":[2147483647,0,0,1,1,2,2,3,3,4,4,6,6,8,8,11,11,12,12],"right_children":[2,4,6,8,10,-1,12,-1,14,-1,-1,16,18,-1,-1,-1,-1,-1,-1],"split_conditions":[5.924E1,2.52E-1,1.37E-1,5.08E1,5E1,-2.8911654E-2,6.775E1,4.231216E-3,4.11E-1,7.2425726E-4,4.055088E-2,6.027E1,8.81E1,-5.502683E-2,-6.876241E-4,4.1313026E-2,-1.3337997E-2,5.074511E-2,2.2274392E-2],"split_indices":[4,14,14,10,4,0,4,0,6,0,0,2,16,0,0,0,0,0,0],"split_type":[0,0,0,0,0,0,0,0,0,0,0,0,0,0,0,0,0,0,0],"sum_hessian":[6.9821846E1,3.5823467E1,3.399838E1,2.8892624E1,6.9308414E0,3.6946504E0,3.030373E1,4.387871E0,2.4504753E1,3.7007802E0,3.2300613E0,1.0127028E1,2.01767E1,2.1317633E1,3.1871204E0,4.782988E0,5.34404E0,1.7037159E1,3.1395423E0],"tree_param":{"num_deleted":"0","num_feature":"21","num_nodes":"19","size_leaf_vector":"1"}},{"base_weights":[6.034927E-2,-4.975227E-2,4.0020826E-1,5.2140206E-1,-4.3360494E-2,1.3494396E-1,9.335657E-1,-2.5652963E-1,6.966302E-1,5.0837398E-2,2.4633406E-2,-3.786255E-2,1.7756978E-2,4.3251913E-2,1.2395161E-2],"categories":[],"categories_nodes":[],"categories_segments":[],"categories_sizes":[],"default_left":[0,0,0,0,0,0,0,0,0,0,0,0,0,0,0],"id":47,"left_children":[1,-1,3,5,-1,7,9,11,13,-1,-1,-1,-1,-1,-1],"loss_changes":[2.518215E1,0E0,8.58561E0,7.6089773E0,0E0,6.0941634E0,2.1107292E-1,5.320218E0,5.3129053E-1,0E0,0E0,0E0,0E0,0E0,0E0],"parents":[2147483647,0,0,2,2,3,3,5,5,6,6,7,7,8,8],"right_children":[2,-1,4,6,-1,8,10,12,14,-1,-1,-1,-1,-1,-1],"split_conditions":[4.096E1,-4.975227E-2,5.06E1,6.318E1,-4.3360494E-2,2.32E-1,8.451E2,9.94E1,4.878E1,5.0837398E-2,2.4633406E-2,-3.786255E-2,1.7756978E-2,4.3251913E-2,1.2395161E-2],"split_indices":[4,0,11,4,0,14,8,12,2,0,0,0,0,0,0],"split_type":[0,0,0,0,0,0,0,0,0,0,0,0,0,0,0],"sum_hessian":[6.82624E1,1.6086252E1,5.2176144E1,4.823162E1,3.94452E0,2.5702316E1,2.2529306E1,1.53613205E1,1.0340996E1,1.7663847E1,4.865459E0,8.405739E0,6.9555817E0,6.6824465E0,3.6585493E0],"tree_param":{"num_deleted":"0","num_feature":"21","num_nodes":"15","size_leaf_vector":"1"}},{"base_weights":[7.3929355E-2,-1.18862085E-1,8.46984E-1,-5.690131E-1,5.463464E-1,1.5170018E-2,4.840328E-2,-5.005001E-2,-4.5574035E-2,1.3371071E-1,4.498772E-2,-5.159756E-2,3.3210534E-1,5.2840567E-1,-3.271055E-2,3.8372744E-2,-1.1584259E-2,4.1177765E-2,3.3649679E-3],"categories":[],"categories_nodes":[],"categories_segments":[],"categories_sizes":[],"default_left":[0,0,0,0,0,0,0,0,0,0,0,0,0,0,0,0,0,0,0],"id":48,"left_children":[1,3,5,7,9,-1,-1,-1,11,13,-1,-1,15,17,-1,-1,-1,-1,-1],"loss_changes":[1.0107994E1,1.6520687E1,4.6979237E-1,7.280054E0,3.0232415E0,0E0,0E0,0E0,6.3769126E0,3.9333994E0,0E0,0E0,3.2406154E0,9.920087E-1,0E0,0E0,0E0,0E0,0E0],"parents":[2147483647,0,0,1,1,2,2,3,3,4,4,8,8,9,9,12,12,13,13],"right_children":[2,4,6,8,10,-1,-1,-1,12,14,-1,-1,16,18,-1,-1,-1,-1,-1],"split_conditions":[7.041E1,4.096E1,1.47E-1,4.809E1,1.83E-1,1.5170018E-2,4.840328E-2,-5.005001E-2,1.67E-1,6.76E2,4.498772E-2,-5.159756E-2,5.22E1,5.15E1,-3.271055E-2,3.8372744E-2,-1.1584259E-2,4.1177765E-2,3.3649679E-3],"split_indices":[2,3,14,2,14,0,0,0,14,1,0,0,10,10,0,0,0,0,0],"split_type":[0,0,0,0,0,0,0,0,0,0,0,0,0,0,0,0,0,0,0],"sum_hessian":[6.565741E1,5.3125397E1,1.253201E1,3.1860273E1,2.1265123E1,3.072039E0,9.45997E0,1.6850441E1,1.5009832E1,1.05769205E1,1.0688203E1,3.7495751E0,1.1260258E1,7.3509035E0,3.2260168E0,6.2501364E0,5.010121E0,3.8705137E0,3.4803896E0],"tree_param":{"num_deleted":"0","num_feature":"21","num_nodes":"19","size_leaf_vector":"1"}},{"base_weights":[7.929615E-2,-1.6351718E-1,6.133667E-1,-7.330998E-1,4.495774E-1,-5.876166E-3,8.909837E-1,-4.9695373E-2,-8.307254E-2,-3.9342742E-2,8.629143E-1,5.029521E-2,1.7755598E-2,-3.7606217E-2,2.953805E-2,-2.6651347E-2,2.151429E-2,1.7982481E-2,5.0093066E-2],"categories":[],"categories_nodes":[],"categories_segments":[],"categories_sizes":[],"default_left":[0,0,0,0,0,0,0,0,0,0,0,0,0,0,0,0,0,0,0],"id":49,"left_children":[1,3,5,7,9,-1,11,-1,13,15,17,-1,-1,-1,-1,-1,-1,-1,-1],"loss_changes":[8.801054E0,1.661234E1,4.483892E0,3.9792356E0,4.754709E0,0E0,4.661808E-1,0E0,4.1767716E0,2.873503E0,3.8404942E-1,0E0,0E0,0E0,0E0,0E0,0E0,0E0,0E0],"parents":[2147483647,0,0,1,1,2,2,3,3,4,4,6,6,8,8,9,9,10,10],"right_children":[2,4,6,8,10,-1,12,-1,14,16,18,-1,-1,-1,-1,-1,-1,-1,-1],"split_conditions":[5.924E1,4.085E1,1.52E-1,4.809E1,1.83E-1,-5.876166E-3,8.399E2,-4.9695373E-2,2.19E0,5.763E1,4.975E1,5.029521E-2,1.7755598E-2,-3.7606217E-2,2.953805E-2,-2.6651347E-2,2.151429E-2,1.7982481E-2,5.0093066E-2],"split_indices":[2,3,14,2,14,0,8,0,17,3,3,0,0,0,0,0,0,0,0],"split_type":[0,0,0,0,0,0,0,0,0,0,0,0,0,0,0,0,0,0,0],"sum_hessian":[6.574745E1,4.5546486E1,2.0200966E1,2.359418E1,2.1952307E1,5.6204123E0,1.4580553E1,1.635091E1,7.2432694E0,1.0360344E1,1.1591963E1,1.1129932E1,3.450621E0,3.650697E0,3.5925725E0,5.088809E0,5.2715344E0,3.440088E0,8.151875E0],"tree_param":{"num_deleted":"0","num_feature":"21","num_nodes":"19","size_leaf_vector":"1"}},{"base_weights":[6.103554E-2,-8.5390484E-1,4.1112214E-1,-3.976343E-3,-4.9797986E-2,-1.2496583E-2,7.568126E-1,-5.0719883E-2,2.710525E-1,4.691067E-2,3.24437E-1,5.684527E-1,-4.413392E-2,-6.9619897E-3,4.396784E-2,4.2806286E-3,4.703444E-2],"categories":[],"categories_nodes":[],"categories_segments":[],"categories_sizes":[],"default_left":[0,0,0,0,0,0,0,0,0,0,0,0,0,0,0,0,0],"id":50,"left_children":[1,3,5,-1,-1,7,9,-1,11,-1,13,15,-1,-1,-1,-1,-1],"loss_changes":[2.1417309E1,1.8466902E0,7.1748114E0,0E0,0E0,6.7731333E0,1.6721048E0,0E0,6.761655E0,0E0,2.6704383E0,2.558631E0,0E0,0E0,0E0,0E0,0E0],"parents":[2147483647,0,0,1,1,2,2,5,5,6,6,8,8,10,10,11,11],"right_children":[2,4,6,-1,-1,8,10,-1,12,-1,14,16,-1,-1,-1,-1,-1],"split_conditions":[4.65E1,5.09E1,1.82E-1,-3.976343E-3,-4.9797986E-2,5.629E1,5.26E1,-5.0719883E-2,4.9E1,4.691067E-2,6.95E1,7.062E1,-4.413392E-2,-6.9619897E-3,4.396784E-2,4.2806286E-3,4.703444E-2],"split_indices":[4,10,14,0,0,4,10,0,11,0,4,4,0,0,0,0,0],"split_type":[0,0,0,0,0,0,0,0,0,0,0,0,0,0,0,0,0],"sum_hessian":[6.490688E1,1.748517E1,4.7421715E1,3.0612564E0,1.4423915E1,2.161215E1,2.5809563E1,4.276523E0,1.7335629E1,1.7194515E1,8.615047E0,1.4255037E1,3.0805905E0,5.0032964E0,3.6117513E0,6.85797E0,7.3970666E0],"tree_param":{"num_deleted":"0","num_feature":"21","num_nodes":"17","size_leaf_vector":"1"}},{"base_weights":[2.2236096E-2,-4.86683E-2,3.2368195E-1,-4.1046366E-2,4.2618746E-1,1.7678441E-1,4.8296016E-2,-3.925268E-2,3.8726723E-1,3.967182E-2,5.5341613E-3],"categories":[],"categories_nodes":[],"categories_segments":[],"categories_sizes":[],"default_left":[0,0,0,0,0,0,0,0,0,0,0],"id":51,"left_children":[1,-1,3,-1,5,7,-1,-1,9,-1,-1],"loss_changes":[1.895847E1,0E0,6.021528E0,0E0,5.8281755E0,6.8260164E0,0E0,0E0,2.8939695E0,0E0,0E0],"parents":[2147483647,0,0,2,2,4,4,5,5,8,8],"right_children":[2,-1,4,-1,6,8,-1,-1,10,-1,-1],"split_conditions":[4.096E1,-4.86683E-2,3.2E-1,-4.1046366E-2,7.331E1,3.8E-2,4.8296016E-2,-3.925268E-2,3.96E-2,3.967182E-2,5.5341613E-3],"split_indices":[4,0,6,0,4,7,0,0,7,0,0],"split_type":[0,0,0,0,0,0,0,0,0,0,0],"sum_hessian":[6.1336308E1,1.3659985E1,4.7676323E1,3.2624612E0,4.441386E1,3.1411747E1,1.3002113E1,5.064367E0,2.6347382E1,9.769874E0,1.6577507E1],"tree_param":{"num_deleted":"0","num_feature":"21","num_nodes":"11","size_leaf_vector":"1"}},{"base_weights":[-1.8706106E-2,-8.7863183E-1,3.312884E-1,-1.0997086E-2,-4.9653847E-2,6.8107927E-1,-2.281424E-1,3.868808E-1,4.8317537E-2,-5.31218E-1,3.0142784E-2,-1.6838233E-1,4.0869873E-2,-9.8922306E-1,8.444004E-3,-2.7968539E-2,1.231852E-2,-2.0941908E-2,-6.1789405E-2],"categories":[],"categories_nodes":[],"categories_segments":[],"categories_sizes":[],"default_left":[0,0,0,0,0,0,0,0,0,0,0,0,0,0,0,0,0,0,0],"id":52,"left_children":[1,3,5,-1,-1,7,9,11,-1,13,-1,15,-1,17,-1,-1,-1,-1,-1],"loss_changes":[1.821669E1,9.8196125E-1,8.584753E0,0E0,0E0,1.7335672E0,4.625401E0,3.7872815E0,0E0,4.4707966E0,0E0,1.3491462E0,0E0,4.689541E-1,0E0,0E0,0E0,0E0,0E0],"parents":[2147483647,0,0,1,1,2,2,5,5,6,6,7,7,9,9,11,11,13,13],"right_children":[2,4,6,-1,-1,8,10,12,-1,14,-1,16,-1,18,-1,-1,-1,-1,-1],"split_conditions":[4.65E1,2.434E2,4.71E1,-1.0997086E-2,-4.9653847E-2,6.318E1,8.145E1,1.83E-1,4.8317537E-2,2.17E-1,3.0142784E-2,5.924E1,4.0869873E-2,5.8E2,8.444004E-3,-2.7968539E-2,1.231852E-2,-2.0941908E-2,-6.1789405E-2],"split_indices":[4,0,11,0,0,4,4,14,0,14,0,4,0,1,0,0,0,0,0],"split_type":[0,0,0,0,0,0,0,0,0,0,0,0,0,0,0,0,0,0,0],"sum_hessian":[5.837773E1,1.65327E1,4.184503E1,3.0091412E0,1.3523559E1,2.5722828E1,1.6122206E1,1.3995792E1,1.1727035E1,1.21661415E1,3.956063E0,6.276814E0,7.718978E0,7.1913867E0,4.974755E0,3.1755953E0,3.101219E0,3.1073477E0,4.084039E0],"tree_param":{"num_deleted":"0","num_feature":"21","num_nodes":"19","size_leaf_vector":"1"}},{"base_weights":[-4.2964183E-2,-3.0495572E-1,6.441161E-1,-7.3913455E-1,4.142616E-1,4.5544215E-2,-1.2529366E-2,-9.0535814E-1,-3.1896582E-1,-1.4128821E-3,6.852287E-1,-5.476417E-2,-1.5776804E-2,-4.3890294E-2,1.9336706E-2,4.5803804E-2,7.0885005E-3],"categories":[],"categories_nodes":[],"categories_segments":[],"categories_sizes":[],"default_left":[0,0,0,0,0,0,0,0,0,0,0,0,0,0,0,0,0],"id":53,"left_children":[1,3,5,7,9,-1,-1,11,13,-1,15,-1,-1,-1,-1,-1,-1],"loss_changes":[1.0201827E1,1.3191525E1,4.0204325E0,1.4124689E0,2.0093496E0,0E0,0E0,1.5291834E0,3.9837966E0,0E0,1.0355997E0,0E0,0E0,0E0,0E0,0E0,0E0],"parents":[2147483647,0,0,1,1,2,2,3,3,4,4,7,7,8,8,10,10],"right_children":[2,4,6,8,10,-1,-1,12,14,-1,16,-1,-1,-1,-1,-1,-1],"split_conditions":[6.318E1,4.646E1,4.83E1,1.6672E3,5.577E1,4.5544215E-2,-1.2529366E-2,9.94E1,4.6E-1,-1.4128821E-3,5.34E1,-5.476417E-2,-1.5776804E-2,-4.3890294E-2,1.9336706E-2,4.5803804E-2,7.0885005E-3],"split_indices":[2,3,11,0,3,0,0,12,2,0,10,0,0,0,0,0,0],"split_type":[0,0,0,0,0,0,0,0,0,0,0,0,0,0,0,0,0],"sum_hessian":[5.4771122E1,4.0159534E1,1.4611587E1,2.5111507E1,1.5048028E1,1.1327747E1,3.2838397E0,1.6995243E1,8.116264E0,5.914942E0,9.133086E0,1.2079181E1,4.9160624E0,4.47241E0,3.6438541E0,5.799823E0,3.333263E0],"tree_param":{"num_deleted":"0","num_feature":"21","num_nodes":"17","size_leaf_vector":"1"}},{"base_weights":[-9.536824E-3,-8.583999E-1,3.118071E-1,-1.0484317E-2,-4.9070425E-2,4.8999012E-1,-6.227711E-1,3.6753275E-2,7.431039E-1,-4.6809867E-2,-6.2942966E-3,2.6803285E-1,-1.8662639E-2,9.147622E-1,9.767212E-3,2.9445602E-2,-1.3311745E-3,4.9640536E-2,2.3216574E-2],"categories":[],"categories_nodes":[],"categories_segments":[],"categories_sizes":[],"default_left":[0,0,0,0,0,0,0,0,0,0,0,0,0,0,0,0,0,0,0],"id":54,"left_children":[1,3,5,-1,-1,7,9,11,13,-1,-1,15,-1,17,-1,-1,-1,-1,-1],"loss_changes":[1.619595E1,9.7834396E-1,7.4293165E0,0E0,0E0,4.0988865E0,8.9936805E-1,1.4479775E0,1.9031515E0,0E0,0E0,1.0076747E0,0E0,3.107071E-3,0E0,0E0,0E0,0E0,0E0],"parents":[2147483647,0,0,1,1,2,2,5,5,6,6,7,7,8,8,11,11,13,13],"right_children":[2,4,6,-1,-1,8,10,12,14,-1,-1,16,-1,18,-1,-1,-1,-1,-1],"split_conditions":[4.65E1,2.434E2,4.9E1,-1.0484317E-2,-4.9070425E-2,5.924E1,6.95E1,4.878E1,4.73E1,-4.6809867E-2,-6.2942966E-3,4.65E2,-1.8662639E-2,8.455E2,9.767212E-3,2.9445602E-2,-1.3311745E-3,4.9640536E-2,2.3216574E-2],"split_indices":[4,0,11,0,0,4,4,2,11,0,0,1,0,9,0,0,0,0,0],"split_type":[0,0,0,0,0,0,0,0,0,0,0,0,0,0,0,0,0,0,0],"sum_hessian":[5.7192722E1,1.5331883E1,4.186084E1,3.0045114E0,1.2327373E1,3.5647194E1,6.213645E0,1.3325766E1,2.2321428E1,3.1446624E0,3.0689826E0,8.897156E0,4.4286103E0,1.6346235E1,5.975192E0,3.943473E0,4.9536824E0,1.2716614E1,3.629622E0],"tree_param":{"num_deleted":"0","num_feature":"21","num_nodes":"19","size_leaf_vector":"1"}},{"base_weights":[4.2362653E-2,-4.7517978E-2,3.043991E-1,-4.5989907E-1,4.6475005E-1,-1.1759518E-3,-4.1369613E-2,5.756074E-1,-1.4790617E-2,2.7861866E-1,4.9126618E-2,-0E0,3.5048973E-2],"categories":[],"categories_nodes":[],"categories_segments":[],"categories_sizes":[],"default_left":[0,0,0,0,0,0,0,0,0,0,0,0,0],"id":55,"left_children":[1,-1,3,5,7,-1,-1,9,-1,11,-1,-1,-1],"loss_changes":[1.5347244E1,0E0,5.9536767E0,1.2611116E0,3.5130901E0,0E0,0E0,3.801938E0,0E0,2.5256057E0,0E0,0E0,0E0],"parents":[2147483647,0,0,2,2,3,3,4,4,7,7,9,9],"right_children":[2,-1,4,6,8,-1,-1,10,-1,12,-1,-1,-1],"split_conditions":[4.096E1,-4.7517978E-2,3.47E-1,5.41E1,9.43E1,-1.1759518E-3,-4.1369613E-2,6.346E1,-1.4790617E-2,2.32E-1,4.9126618E-2,-0E0,3.5048973E-2],"split_indices":[4,0,6,10,16,0,0,4,0,14,0,0,0],"split_type":[0,0,0,0,0,0,0,0,0,0,0,0,0],"sum_hessian":[5.713472E1,1.1303415E1,4.5831306E1,7.515872E0,3.8315434E1,4.0467124E0,3.4691594E0,3.376815E1,4.5472846E0,2.0636969E1,1.3131181E1,1.3078797E1,7.5581717E0],"tree_param":{"num_deleted":"0","num_feature":"21","num_nodes":"13","size_leaf_vector":"1"}},{"base_weights":[6.1217558E-2,-7.6888025E-1,2.5564054E-1,-4.7422912E-2,-1.105818E-2,-0E0,8.475717E-1,-5.907689E-1,5.2937615E-1,1.5945764E-2,4.8137706E-2,-4.8334632E-2,1.918657E-3,7.2975314E-1,-0E0,5.0070394E-2,1.18223755E-2],"categories":[],"categories_nodes":[],"categories_segments":[],"categories_sizes":[],"default_left":[0,0,0,0,0,0,0,0,0,0,0,0,0,0,0,0,0],"id":56,"left_children":[1,3,5,-1,-1,7,9,11,13,-1,-1,-1,-1,15,-1,-1,-1],"loss_changes":[8.896517E0,7.0033216E-1,6.7381577E0,0E0,0E0,1.0420414E1,3.8401222E-1,3.845633E0,1.9213629E0,0E0,0E0,0E0,0E0,1.3653517E0,0E0,0E0,0E0],"parents":[2147483647,0,0,1,1,2,2,5,5,6,6,7,7,8,8,13,13],"right_children":[2,4,6,-1,-1,8,10,12,14,-1,-1,-1,-1,16,-1,-1,-1],"split_conditions":[3.47E-1,2.02E1,6.318E1,-4.7422912E-2,-1.105818E-2,4.085E1,1.56E0,5.021E1,2.054E3,1.5945764E-2,4.8137706E-2,-4.8334632E-2,1.918657E-3,8.126E2,-0E0,5.0070394E-2,1.18223755E-2],"split_indices":[6,3,2,0,0,3,17,2,1,0,0,0,0,8,0,0,0],"split_type":[0,0,0,0,0,0,0,0,0,0,0,0,0,0,0,0,0],"sum_hessian":[5.3224415E1,9.442066E0,4.3782352E1,6.4222054E0,3.0198605E0,3.1328735E1,1.2453615E1,1.4710605E1,1.661813E1,3.0574975E0,9.396118E0,8.972058E0,5.7385464E0,1.1879139E1,4.738991E0,6.8656416E0,5.013498E0],"tree_param":{"num_deleted":"0","num_feature":"21","num_nodes":"17","size_leaf_vector":"1"}},{"base_weights":[1.0503192E-2,-3.135045E-1,3.6691755E-1,-6.525035E-1,3.0269307E-1,5.2728397E-1,-1.3709828E-2,-4.9249955E-2,-1.9109778E-1,-2.7134841E-2,4.1902434E-2,2.9200575E-1,4.5233447E-2,-4.3832354E-2,2.283995E-2,-1.0124809E-2,6.3495284E-1,3.379032E-3,5.0398E-2],"categories":[],"categories_nodes":[],"categories_segments":[],"categories_sizes":[],"default_left":[0,0,0,0,0,0,0,0,0,0,0,0,0,0,0,0,0,0,0],"id":57,"left_children":[1,3,5,7,9,11,-1,-1,13,-1,-1,15,-1,-1,-1,-1,17,-1,-1],"loss_changes":[6.4624987E0,6.3236747E0,2.9211166E0,2.6447248E0,5.429818E0,1.5582023E0,0E0,0E0,4.627133E0,0E0,0E0,2.734723E0,0E0,0E0,0E0,0E0,1.7893357E0,0E0,0E0],"parents":[2147483647,0,0,1,1,2,2,3,3,4,4,5,5,8,8,11,11,16,16],"right_children":[2,4,6,8,10,12,-1,-1,14,-1,-1,16,-1,-1,-1,-1,18,-1,-1],"split_conditions":[1.6966E3,4.096E1,4.84E1,5.022E1,1.82E-1,6.347E1,-1.3709828E-2,-4.9249955E-2,2.06E0,-2.7134841E-2,4.1902434E-2,6.6E1,4.5233447E-2,-4.3832354E-2,2.283995E-2,-1.0124809E-2,4.085E1,3.379032E-3,5.0398E-2],"split_indices":[0,3,11,2,14,2,0,0,17,0,0,15,0,0,0,0,3,0,0],"split_type":[0,0,0,0,0,0,0,0,0,0,0,0,0,0,0,0,0,0,0],"sum_hessian":[5.391923E1,2.8159725E1,2.5759504E1,1.8232529E1,9.927197E0,2.0872139E1,4.8873663E0,9.811042E0,8.421486E0,3.7713242E0,6.155873E0,1.4112521E1,6.7596173E0,3.9952898E0,4.4261966E0,5.827577E0,8.284944E0,3.8611348E0,4.423809E0],"tree_param":{"num_deleted":"0","num_feature":"21","num_nodes":"19","size_leaf_vector":"1"}},{"base_weights":[4.608836E-2,-4.2196178E-1,4.1524488E-1,-7.318058E-1,2.6098853E-1,6.203721E-1,-2.5276352E-2,-4.92022E-2,-2.3231346E-3,-2.260143E-2,4.3201774E-2,3.9681154E-1,4.674118E-2,7.190649E-1,-1.0179655E-2,4.2904656E-2,1.4337773E-2],"categories":[],"categories_nodes":[],"categories_segments":[],"categories_sizes":[],"default_left":[0,0,0,0,0,0,0,0,0,0,0,0,0,0,0,0,0],"id":58,"left_children":[1,3,5,7,9,11,-1,-1,-1,-1,-1,13,-1,15,-1,-1,-1],"loss_changes":[9.156437E0,5.1681256E0,5.931941E0,2.6846485E0,3.8318758E0,1.240345E0,0E0,0E0,0E0,0E0,0E0,3.3762662E0,0E0,3.0170536E-1,0E0,0E0,0E0],"parents":[2147483647,0,0,1,1,2,2,3,3,4,4,5,5,11,11,13,13],"right_children":[2,4,6,8,10,12,-1,-1,-1,-1,-1,14,-1,16,-1,-1,-1],"split_conditions":[1.5615E3,4.902E1,5.41E1,2.19E0,1.82E-1,6.347E1,-2.5276352E-2,-4.92022E-2,-2.3231346E-3,-2.260143E-2,4.3201774E-2,7.65E2,4.674118E-2,8.104E2,-1.0179655E-2,4.2904656E-2,1.4337773E-2],"split_indices":[0,3,10,17,14,2,0,0,0,0,0,1,0,8,0,0,0],"split_type":[0,0,0,0,0,0,0,0,0,0,0,0,0,0,0,0,0],"sum_hessian":[5.098343E1,2.229803E1,2.86854E1,1.5390491E1,6.9075403E0,2.381484E1,4.8705587E0,1.0824731E1,4.5657597E0,3.2039394E0,3.703601E0,1.542693E1,8.38791E0,1.0018599E1,5.4083314E0,6.6604247E0,3.358174E0],"tree_param":{"num_deleted":"0","num_feature":"21","num_nodes":"17","size_leaf_vector":"1"}},{"base_weights":[5.24452E-2,-4.6606455E-2,3.0136305E-1,6.064869E-1,-2.3443303E-1,1.6462193E-1,4.3910015E-2,-4.8813E-1,2.6146749E-2,-2.2678873E-2,5.021404E-1,-4.8357504E-3,-4.0384747E-2,4.4904925E-2,2.014391E-3],"categories":[],"categories_nodes":[],"categories_segments":[],"categories_sizes":[],"default_left":[0,0,0,0,0,0,0,0,0,0,0,0,0,0,0],"id":59,"left_children":[1,-1,3,5,7,9,-1,11,-1,-1,13,-1,-1,-1,-1],"loss_changes":[1.3095962E1,0E0,7.17321E0,3.071433E0,3.3500233E0,2.7158496E0,0E0,1.4193461E0,0E0,0E0,1.3837106E0,0E0,0E0,0E0,0E0],"parents":[2147483647,0,0,2,2,3,3,4,4,5,5,7,7,10,10],"right_children":[2,-1,4,6,8,10,-1,12,-1,-1,14,-1,-1,-1,-1],"split_conditions":[4.096E1,-4.6606455E-2,4.71E1,5.558E1,6.5E1,9.93E1,4.3910015E-2,4.83E1,2.6146749E-2,-2.2678873E-2,8.104E2,-4.8357504E-3,-4.0384747E-2,4.4904925E-2,2.014391E-3],"split_indices":[4,0,11,4,3,12,0,11,0,0,8,0,0,0,0],"split_type":[0,0,0,0,0,0,0,0,0,0,0,0,0,0,0],"sum_hessian":[5.1547035E1,9.7672E0,4.1779835E1,2.6655071E1,1.51247635E1,1.090122E1,1.5753851E1,1.1694847E1,3.4299169E0,3.6237726E0,7.2774477E0,5.982648E0,5.7121987E0,3.293107E0,3.9843407E0],"tree_param":{"num_deleted":"0","num_feature":"21","num_nodes":"15","size_leaf_vector":"1"}},{"base_weights":[-3.7431303E-2,-7.606117E-1,2.714099E-1,-4.8212912E-2,-9.11199E-5,-2.1005906E-1,6.5541375E-1,-6.459872E-1,2.611044E-2,4.486647E-2,2.293613E-1,-1.8445587E-1,-6.647616E-2,-1.4836038E-2,3.2215767E-2,1.47754075E-2,-3.0241458E-2],"categories":[],"categories_nodes":[],"categories_segments":[],"categories_sizes":[],"default_left":[0,0,0,0,0,0,0,0,0,0,0,0,0,0,0,0,0],"id":60,"left_children":[1,3,5,-1,-1,7,9,11,-1,-1,13,15,-1,-1,-1,-1,-1],"loss_changes":[1.1710867E1,2.3290396E0,6.945548E0,0E0,0E0,5.7357E0,1.8159285E0,3.1079364E0,0E0,0E0,2.1891208E0,1.7995207E0,0E0,0E0,0E0,0E0,0E0],"parents":[2147483647,0,0,1,1,2,2,5,5,6,6,7,7,10,10,11,11],"right_children":[2,4,6,-1,-1,8,10,12,-1,-1,14,16,-1,-1,-1,-1,-1],"split_conditions":[4.79E1,2.47E-1,1.82E-1,-4.8212912E-2,-9.11199E-5,7.378E1,5.26E1,2.966E-1,2.611044E-2,4.486647E-2,6.346E1,5.15E1,-6.647616E-2,-1.4836038E-2,3.2215767E-2,1.47754075E-2,-3.0241458E-2],"split_indices":[4,14,14,0,0,4,10,5,0,0,4,10,0,0,0,0,0],"split_type":[0,0,0,0,0,0,0,0,0,0,0,0,0,0,0,0,0],"sum_hessian":[5.0289974E1,1.4708844E1,3.558113E1,1.1279138E1,3.429707E0,1.5872522E1,1.9708609E1,1.0108935E1,5.7635865E0,1.1715567E1,7.9930425E0,6.8797812E0,3.229154E0,3.543943E0,4.4490995E0,3.239832E0,3.6399496E0],"tree_param":{"num_deleted":"0","num_feature":"21","num_nodes":"17","size_leaf_vector":"1"}},{"base_weights":[5.213607E-2,-4.609534E-2,2.7984908E-1,3.848179E-1,-3.9702542E-2,1.3809113E-1,4.8166238E-2,-2.1183755E-1,7.326921E-1,-2.1561317E-2,2.6282016E-2,9.343372E-3,4.5813166E-2],"categories":[],"categories_nodes":[],"categories_segments":[],"categories_sizes":[],"default_left":[0,0,0,0,0,0,0,0,0,0,0,0,0],"id":61,"left_children":[1,-1,3,5,-1,7,-1,9,11,-1,-1,-1,-1],"loss_changes":[1.1789931E1,0E0,5.1372585E0,5.485404E0,0E0,6.3294706E0,0E0,3.3225186E0,8.437977E-1,0E0,0E0,0E0,0E0],"parents":[2147483647,0,0,2,2,3,3,5,5,7,7,8,8],"right_children":[2,-1,4,6,-1,8,-1,10,12,-1,-1,-1,-1],"split_conditions":[4.096E1,-4.609534E-2,5.06E1,7.062E1,-3.9702542E-2,2.21E-1,4.8166238E-2,5.763E1,4.29E2,-2.1561317E-2,2.6282016E-2,9.343372E-3,4.5813166E-2],"split_indices":[4,0,11,4,0,14,0,3,1,0,0,0,0],"split_type":[0,0,0,0,0,0,0,0,0,0,0,0,0],"sum_hessian":[5.128145E1,9.056131E0,4.2225315E1,3.9134846E1,3.090471E0,2.842392E1,1.0710926E1,1.8192816E1,1.0231104E1,1.4446161E1,3.746654E0,3.2198896E0,7.011214E0],"tree_param":{"num_deleted":"0","num_feature":"21","num_nodes":"13","size_leaf_vector":"1"}},{"base_weights":[3.1846512E-2,-4.589871E-2,2.6811332E-1,-1.4722846E-1,5.097235E-1,-4.3232586E-2,1.507291E-1,7.284201E-1,-1.1918395E-2,2.5405804E-2,-1.2880166E-2,1.2266424E-2,8.310942E-1,5.0111588E-2,2.6147256E-2],"categories":[],"categories_nodes":[],"categories_segments":[],"categories_sizes":[],"default_left":[0,0,0,0,0,0,0,0,0,0,0,0,0,0,0],"id":62,"left_children":[1,-1,3,5,7,-1,9,11,-1,-1,-1,-1,13,-1,-1],"loss_changes":[1.1113003E1,0E0,4.1120987E0,3.4693182E0,4.40798E0,0E0,1.8419919E0,6.87685E-1,0E0,0E0,0E0,0E0,1.6843605E-1,0E0,0E0],"parents":[2147483647,0,0,2,2,3,3,4,4,6,6,7,7,12,12],"right_children":[2,-1,4,6,8,-1,10,12,-1,-1,-1,-1,14,-1,-1],"split_conditions":[4.096E1,-4.589871E-2,1.4934E3,1.71E-1,5.41E1,-4.3232586E-2,1.0914E3,4.14E0,-1.1918395E-2,2.5405804E-2,-1.2880166E-2,1.2266424E-2,8.12E2,5.0111588E-2,2.6147256E-2],"split_indices":[4,0,0,14,10,0,0,19,0,0,0,0,8,0,0],"split_type":[0,0,0,0,0,0,0,0,0,0,0,0,0,0,0],"sum_hessian":[4.771358E1,8.8454075E0,3.886817E1,1.4286171E1,2.4582E1,3.732569E0,1.0553602E1,1.9145103E1,5.436898E0,5.6281643E0,4.9254384E0,4.1206055E0,1.5024497E1,8.00294E0,7.021557E0],"tree_param":{"num_deleted":"0","num_feature":"21","num_nodes":"15","size_leaf_vector":"1"}},{"base_weights":[4.8157156E-2,-4.6377873E-1,5.222845E-1,-6.975163E-1,1.5819924E-2,-2.4707787E-2,8.2208973E-1,4.792755E-3,-8.698561E-1,-3.4840483E-2,3.0684501E-2,4.902899E-2,1.864712E-2,-5.0687145E-2,-1.8102646E-2],"categories":[],"categories_nodes":[],"categories_segments":[],"categories_sizes":[],"default_left":[0,0,0,0,0,0,0,0,0,0,0,0,0,0,0],"id":63,"left_children":[1,3,5,7,-1,9,11,-1,13,-1,-1,-1,-1,-1,-1],"loss_changes":[1.16492195E1,4.4555025E0,4.192974E0,2.6381855E0,0E0,4.593214E0,6.570711E-1,0E0,5.978365E-1,0E0,0E0,0E0,0E0,0E0,0E0],"parents":[2147483647,0,0,1,1,2,2,3,3,5,5,6,6,8,8],"right_children":[2,4,6,8,-1,10,12,-1,14,-1,-1,-1,-1,-1,-1],"split_conditions":[5.712E1,2.52E-1,1.65E-1,5.09E1,1.5819924E-2,2.1351E3,5.31E1,4.792755E-3,5.32E0,-3.4840483E-2,3.0684501E-2,4.902899E-2,1.864712E-2,-5.0687145E-2,-1.8102646E-2],"split_indices":[4,14,14,10,0,0,10,0,19,0,0,0,0,0,0],"split_type":[0,0,0,0,0,0,0,0,0,0,0,0,0,0,0],"sum_hessian":[4.597187E1,2.201367E1,2.39582E1,1.7119017E1,4.894653E0,8.689079E0,1.5269121E1,3.030692E0,1.4088325E1,4.2645392E0,4.42454E0,1.0247316E1,5.0218053E0,1.0047963E1,4.040362E0],"tree_param":{"num_deleted":"0","num_feature":"21","num_nodes":"15","size_leaf_vector":"1"}},{"base_weights":[2.620168E-2,-4.5341335E-2,2.4185677E-1,5.9067833E-1,-2.0507239E-1,2.1203437E-1,8.296609E-1,-5.7920647E-1,2.7334094E-2,-1.1655263E-2,3.1534106E-2,1.9774584E-2,4.753076E-2,-1.0155703E0,1.1330914E-2,-6.757514E-2,-2.723877E-2],"categories":[],"categories_nodes":[],"categories_segments":[],"categories_sizes":[],"default_left":[0,0,0,0,0,0,0,0,0,0,0,0,0,0,0,0,0],"id":64,"left_children":[1,-1,3,5,7,9,11,13,-1,-1,-1,-1,-1,15,-1,-1,-1],"loss_changes":[9.783282E0,0E0,6.3571234E0,1.7749643E0,5.394487E0,2.10489E0,1.940546E-1,4.7471266E0,0E0,0E0,0E0,0E0,0E0,4.1061306E-1,0E0,0E0,0E0],"parents":[2147483647,0,0,2,2,3,3,4,4,5,5,6,6,7,7,13,13],"right_children":[2,-1,4,6,8,10,12,14,-1,-1,-1,-1,-1,16,-1,-1,-1],"split_conditions":[4.096E1,-4.5341335E-2,5.19E1,5.558E1,7.403E1,4.55E1,1.65E-1,2.21E-1,2.7334094E-2,-1.1655263E-2,3.1534106E-2,1.9774584E-2,4.753076E-2,4.91E1,1.1330914E-2,-6.757514E-2,-2.723877E-2],"split_indices":[4,0,10,4,4,11,14,14,0,0,0,0,0,11,0,0,0],"split_type":[0,0,0,0,0,0,0,0,0,0,0,0,0,0,0,0,0],"sum_hessian":[4.686217E1,8.109192E0,3.875298E1,2.1710426E1,1.7042553E1,9.29272E0,1.24177065E1,1.1621366E1,5.4211884E0,4.6028905E0,4.6898293E0,3.8161252E0,8.601582E0,7.450591E0,4.1707745E0,3.132399E0,4.318192E0],"tree_param":{"num_deleted":"0","num_feature":"21","num_nodes":"17","size_leaf_vector":"1"}},{"base_weights":[7.738763E-2,-4.4905417E-2,2.8859252E-1,5.9540844E-1,-1.2873931E-1,2.6576892E-1,4.3335713E-2,-4.803178E-1,3.7833062E-1,6.233603E-1,-2.2920977E-2,-5.1181193E-2,1.6714606E-2,3.0979152E-6,3.2079622E-2,3.7549928E-2,1.3179161E-2],"categories":[],"categories_nodes":[],"categories_segments":[],"categories_sizes":[],"default_left":[0,0,0,0,0,0,0,0,0,0,0,0,0,0,0,0,0],"id":65,"left_children":[1,-1,3,5,7,9,-1,11,13,15,-1,-1,-1,-1,-1,-1,-1],"loss_changes":[9.973215E0,0E0,5.224801E0,1.7381315E0,3.3232656E0,3.4402094E0,0E0,5.2484674E0,6.961063E-1,9.680343E-2,0E0,0E0,0E0,0E0,0E0,0E0,0E0],"parents":[2147483647,0,0,2,2,3,3,4,4,5,5,7,7,8,8,9,9],"right_children":[2,-1,4,6,8,10,-1,12,14,16,-1,-1,-1,-1,-1,-1,-1],"split_conditions":[4.096E1,-4.4905417E-2,5.22E1,1.83E-1,2.08E-1,1.83E3,4.3335713E-2,7.378E1,6.238E1,3.96E-2,-2.2920977E-2,-5.1181193E-2,1.6714606E-2,3.0979152E-6,3.2079622E-2,3.7549928E-2,1.3179161E-2],"split_indices":[4,0,10,14,14,1,0,4,4,7,0,0,0,0,0,0,0],"split_type":[0,0,0,0,0,0,0,0,0,0,0,0,0,0,0,0,0],"sum_hessian":[4.6444553E1,7.6029387E0,3.8841614E1,2.2276897E1,1.6564716E1,1.1117361E1,1.1159536E1,9.929817E0,6.6348996E0,7.62807E0,3.4892907E0,5.876589E0,4.053228E0,3.2890716E0,3.345828E0,4.6227174E0,3.0053527E0],"tree_param":{"num_deleted":"0","num_feature":"21","num_nodes":"17","size_leaf_vector":"1"}},{"base_weights":[3.5128485E-2,-4.9902123E-1,5.161598E-1,-9.1428673E-1,1.4135242E-1,7.2941715E-1,-8.028663E-3,-5.101862E-2,-2.0510195E-2,-2.0334892E-2,2.6726602E-2,1.5359654E-2,8.642297E-1,4.7709465E-2,1.9711269E-2],"categories":[],"categories_nodes":[],"categories_segments":[],"categories_sizes":[],"default_left":[0,0,0,0,0,0,0,0,0,0,0,0,0,0,0],"id":66,"left_children":[1,3,5,7,9,11,-1,-1,-1,-1,-1,-1,13,-1,-1],"loss_changes":[1.2004782E1,6.0755644E0,3.7303357E0,1.6656017E-1,2.2671998E0,7.005987E-1,0E0,0E0,0E0,0E0,0E0,0E0,6.797981E-2,0E0,0E0],"parents":[2147483647,0,0,1,1,2,2,3,3,4,4,5,5,12,12],"right_children":[2,4,6,8,10,12,-1,-1,-1,-1,-1,-1,14,-1,-1],"split_conditions":[5.712E1,2.4E-1,4.9E1,8.73E1,4.588E1,1.99E0,-8.028663E-3,-5.101862E-2,-2.0510195E-2,-2.0334892E-2,2.6726602E-2,1.5359654E-2,8.459E2,4.7709465E-2,1.9711269E-2],"split_indices":[4,14,11,16,4,17,0,0,0,0,0,0,9,0,0],"split_type":[0,0,0,0,0,0,0,0,0,0,0,0,0,0,0],"sum_hessian":[4.4712498E1,2.1070253E1,2.3642242E1,1.2616926E1,8.453326E0,1.803031E1,5.6119323E0,9.413279E0,3.2036476E0,3.4105988E0,5.042728E0,5.336665E0,1.26936455E1,9.611125E0,3.08252E0],"tree_param":{"num_deleted":"0","num_feature":"21","num_nodes":"15","size_leaf_vector":"1"}},{"base_weights":[-5.74167E-2,-8.1781334E-1,2.3827781E-1,-1.3946347E-2,-4.7733877E-2,-1.626223E-1,5.861227E-1,2.008842E-1,-3.6936354E-2,4.445272E-2,1.6090924E-1,-1.7783703E-2,4.1162428E-2,-1.5362093E-2,2.913308E-2],"categories":[],"categories_nodes":[],"categories_segments":[],"categories_sizes":[],"default_left":[0,0,0,0,0,0,0,0,0,0,0,0,0,0,0],"id":67,"left_children":[1,3,5,-1,-1,7,9,11,-1,-1,13,-1,-1,-1,-1],"loss_changes":[9.7783E0,5.088272E-1,4.4861217E0,0E0,0E0,3.3718889E0,1.9477639E0,3.789532E0,0E0,0E0,1.8750321E0,0E0,0E0,0E0,0E0],"parents":[2147483647,0,0,1,1,2,2,5,5,6,6,7,7,10,10],"right_children":[2,4,6,-1,-1,8,10,12,-1,-1,14,-1,-1,-1,-1],"split_conditions":[4.79E1,5.053E2,1.82E-1,-1.3946347E-2,-4.7733877E-2,4.71E1,5.26E1,6.318E1,-3.6936354E-2,4.445272E-2,6.346E1,-1.7783703E-2,4.1162428E-2,-1.5362093E-2,2.913308E-2],"split_indices":[4,0,14,0,0,11,10,4,0,0,4,0,0,0,0],"split_type":[0,0,0,0,0,0,0,0,0,0,0,0,0,0,0],"sum_hessian":[4.136463E1,1.1181967E1,3.0182665E1,3.0280433E0,8.153923E0,1.41357975E1,1.6046867E1,8.960005E0,5.175793E0,8.596504E0,7.450363E0,4.871463E0,4.088542E0,3.5472598E0,3.9031036E0],"tree_param":{"num_deleted":"0","num_feature":"21","num_nodes":"15","size_leaf_vector":"1"}},{"base_weights":[-7.45438E-2,-7.975829E-1,2.1290675E-1,-1.3612765E-2,-4.6951443E-2,-2.0251837E-1,4.8180223E-1,-4.2006787E-2,1.2598038E-1,7.5672793E-1,-9.276279E-3,2.8484443E-2,-1.7239831E-2,1.3783671E-2,4.3639436E-2],"categories":[],