{"learner":{"attributes":{"scikit_learn":"{\"_estimator_type\": \"regressor\"}"},"feature_names":["hours_since_install","cycles_since_install","wear_pct_hours","wear_pct_cycles","wear_pct_max","avg_vibration_30d","max_vibration_30d","vibration_std_30d","avg_egt_30d","max_egt_30d","avg_oil_pressure_30d","min_oil_pressure_30d","avg_oil_temp_30d","avg_anomaly_score_30d","max_anomaly_score_30d","flights_last_30d","total_flight_hours_30d","avg_route_roughness_30d","unscheduled_events_12m","aircraft_age_years","is_pc24"],"feature_types":["float","int","float","float","float","float","float","float","float","float","float","float","float","float","float","int","float","float","int","float","int"],"gradient_booster":{"model":{"cats":{"enc":[],"feature_segments":[],"sorted_idx":[]},"gbtree_model_param":{"num_parallel_tree":"1","num_trees":"400"},"iteration_indptr":[0,1,2,3,4,5,6,7,8,9,10,11,12,13,14,15,16,17,18,19,20,21,22,23,24,25,26,27,28,29,30,31,32,33,34,35,36,37,38,39,40,41,42,43,44,45,46,47,48,49,50,51,52,53,54,55,56,57,58,59,60,61,62,63,64,65,66,67,68,69,70,71,72,73,74,75,76,77,78,79,80,81,82,83,84,85,86,87,88,89,90,91,92,93,94,95,96,97,98,99,100,101,102,103,104,105,106,107,108,109,110,111,112,113,114,115,116,117,118,119,120,121,122,123,124,125,126,127,128,129,130,131,132,133,134,135,136,137,138,139,140,141,142,143,144,145,146,147,148,149,150,151,152,153,154,155,156,157,158,159,160,161,162,163,164,165,166,167,168,169,170,171,172,173,174,175,176,177,178,179,180,181,182,183,184,185,186,187,188,189,190,191,192,193,194,195,196,197,198,199,200,201,202,203,204,205,206,207,208,209,210,211,212,213,214,215,216,217,218,219,220,221,222,223,224,225,226,227,228,229,230,231,232,233,234,235,236,237,238,239,240,241,242,243,244,245,246,247,248,249,250,251,252,253,254,255,256,257,258,259,260,261,262,263,264,265,266,267,268,269,270,271,272,273,274,275,276,277,278,279,280,281,282,283,284,285,286,287,288,289,290,291,292,293,294,295,296,297,298,299,300,301,302,303,304,305,306,307,308,309,310,311,312,313,314,315,316,317,318,319,320,321,322,323,324,325,326,327,328,329,330,331,332,333,334,335,336,337,338,339,340,341,342,343,344,345,346,347,348,349,350,351,352,353,354,355,356,357,358,359,360,361,362,363,364,365,366,367,368,369,370,371,372,373,374,375,376,377,378,379,380,381,382,383,384,385,386,387,388,389,390,391,392,393,394,395,396,397,398,399,400],"tree_info":[0,0,0,0,0,0,0,0,0,0,0,0,0,0,0,0,0,0,0,0,0,0,0,0,0,0,0,0,0,0,0,0,0,0,0,0,0,0,0,0,0,0,0,0,0,0,0,0,0,0,0,0,0,0,0,0,0,0,0,0,0,0,0,0,0,0,0,0,0,0,0,0,0,0,0,0,0,0,0,0,0,0,0,0,0,0,0,0,0,0,0,0,0,0,0,0,0,0,0,0,0,0,0,0,0,0,0,0,0,0,0,0,0,0,0,0,0,0,0,0,0,0,0,0,0,0,0,0,0,0,0,0,0,0,0,0,0,0,0,0,0,0,0,0,0,0,0,0,0,0,0,0,0,0,0,0,0,0,0,0,0,0,0,0,0,0,0,0,0,0,0,0,0,0,0,0,0,0,0,0,0,0,0,0,0,0,0,0,0,0,0,0,0,0,0,0,0,0,0,0,0,0,0,0,0,0,0,0,0,0,0,0,0,0,0,0,0,0,0,0,0,0,0,0,0,0,0,0,0,0,0,0,0,0,0,0,0,0,0,0,0,0,0,0,0,0,0,0,0,0,0,0,0,0,0,0,0,0,0,0,0,0,0,0,0,0,0,0,0,0,0,0,0,0,0,0,0,0,0,0,0,0,0,0,0,0,0,0,0,0,0,0,0,0,0,0,0,0,0,0,0,0,0,0,0,0,0,0,0,0,0,0,0,0,0,0,0,0,0,0,0,0,0,0,0,0,0,0,0,0,0,0,0,0,0,0,0,0,0,0,0,0,0,0,0,0,0,0,0,0,0,0,0,0,0,0,0,0,0,0,0,0,0,0,0,0,0,0,0,0,0,0,0,0,0,0,0,0,0,0,0,0,0,0,0,0,0,0,0,0,0,0,0,0,0,0,0,0,0,0],"trees":[{"base_weights":[-1.8736208E-2,7.6334524E-1,-2.2799444E0,1.0540991E0,-1.2884738E-3,-8.804498E-1,-2.750551E0,4.4186136E-1,1.2001747E0,3.1181058E-1,-1.2035245E0,-2.8444526E-1,-1.6014276E0,-1.9385053E0,-3.1265957E0,9.586704E-1,-3.0452898E-1,1.5508597E0,8.0618316E-1,-1.442567E-2,7.6458013E-1,-4.76441E-1,-1.0455444E-1,-3.0926744E-2,-1.3513383E-1,-1.0268583E-1,-7.122391E-1,-2.165229E0,-6.2558213E-3,-2.5341809E0,-1.6763298E-1,5.25559E-2,9.612536E-3,-1.7208058E-2,-0E0,7.9346985E-2,5.1835068E-2,4.7570087E-2,3.1671327E-2,-4.1183632E-2,1.3693951E-2,4.361585E-2,-1.5866421E-2,-2.4767958E-3,-7.531599E-2,6.690836E-4,-1.1779065E-2,-4.9364578E-2,-1.1706345E-2,-4.4908013E-2,-1.2466004E-1,-6.0494196E-2,-1.3336657E-1],"categories":[],"categories_nodes":[],"categories_segments":[],"categories_sizes":[],"default_left":[0,0,0,0,0,0,0,0,0,0,0,0,0,0,0,0,0,0,0,0,0,0,0,0,0,0,0,0,0,0,0,0,0,0,0,0,0,0,0,0,0,0,0,0,0,0,0,0,0,0,0,0,0],"id":0,"left_children":[1,3,5,7,9,11,13,15,17,19,21,23,25,27,29,31,33,35,37,39,41,43,-1,-1,45,-1,47,49,-1,51,-1,-1,-1,-1,-1,-1,-1,-1,-1,-1,-1,-1,-1,-1,-1,-1,-1,-1,-1,-1,-1,-1,-1],"loss_changes":[9.427069E2,8.814545E1,8.744495E1,2.4972748E1,4.1870525E1,1.4825312E1,2.4579834E1,2.2344608E1,3.0430573E1,1.308451E1,1.3589634E1,8.8859963E-1,4.6953926E0,1.3889908E1,2.1911621E-2,2.0826092E0,2.6167536E-1,3.3709717E-1,2.0235825E0,1.2412668E1,4.6450844E0,5.925044E0,0E0,0E0,2.6406053E-1,0E0,5.672481E-1,1.0304016E1,0E0,4.4070435E-1,0E0,0E0,0E0,0E0,0E0,0E0,0E0,0E0,0E0,0E0,0E0,0E0,0E0,0E0,0E0,0E0,0E0,0E0,0E0,0E0,0E0,0E0,0E0],"parents":[2147483647,0,0,1,1,2,2,3,3,4,4,5,5,6,6,7,7,8,8,9,9,10,10,11,11,12,12,13,13,14,14,15,15,16,16,17,17,18,18,19,19,20,20,21,21,24,24,26,26,27,27,29,29],"right_children":[2,4,6,8,10,12,14,16,18,20,22,24,26,28,30,32,34,36,38,40,42,44,-1,-1,46,-1,48,50,-1,52,-1,-1,-1,-1,-1,-1,-1,-1,-1,-1,-1,-1,-1,-1,-1,-1,-1,-1,-1,-1,-1,-1,-1],"split_conditions":[5.924E1,3.972E1,1.37E-1,2.88E2,2.4E-1,7.61E1,6.95E1,6.26E0,4.6E-1,1.543E3,5.022E1,5.99E2,1E0,9.43E1,1.73E-1,3.015E-1,8.81E1,3.6E1,1.866E1,4.6E-1,4.11E-1,1.6595E3,-1.0455444E-1,-3.0926744E-2,6.594E1,-1.0268583E-1,1.8142E3,1.65E-1,-6.2558213E-3,7.062E1,-1.6763298E-1,5.25559E-2,9.612536E-3,-1.7208058E-2,-0E0,7.9346985E-2,5.1835068E-2,4.7570087E-2,3.1671327E-2,-4.1183632E-2,1.3693951E-2,4.361585E-2,-1.5866421E-2,-2.4767958E-3,-7.531599E-2,6.690836E-4,-1.1779065E-2,-4.9364578E-2,-1.1706345E-2,-4.4908013E-2,-1.2466004E-1,-6.0494196E-2,-1.3336657E-1],"split_indices":[4,4,14,1,14,4,4,3,2,1,4,1,20,16,14,5,16,3,2,2,6,0,0,0,2,0,0,14,0,4,0,0,0,0,0,0,0,0,0,0,0,0,0,0,0,0,0,0,0,0,0,0,0],"split_type":[0,0,0,0,0,0,0,0,0,0,0,0,0,0,0,0,0,0,0,0,0,0,0,0,0,0,0,0,0,0,0,0,0,0,0,0,0,0,0,0,0,0,0,0,0,0,0,0,0,0,0,0,0],"sum_hessian":[5.31E2,3.95E2,1.36E2,2.86E2,1.09E2,3.5E1,1.01E2,5.6E1,2.3E2,8.7E1,2.2E1,2E1,1.5E1,3.4E1,6.7E1,3.3E1,2.3E1,1.2E2,1.1E2,5.1E1,3.6E1,1.3E1,9E0,5E0,1.5E1,9E0,6E0,3E1,4E0,2.2E1,4.5E1,2.9E1,4E0,2E1,3E0,1.1E2,1E1,5.7E1,5.3E1,1.3E1,3.8E1,3.3E1,3E0,1E1,3E0,6E0,9E0,3E0,3E0,7E0,2.3E1,3E0,1.9E1],"tree_param":{"num_deleted":"0","num_feature":"21","num_nodes":"53","size_leaf_vector":"1"}},{"base_weights":[6.743036E-3,4.4952163E-1,-2.2678485E0,7.220354E-1,-2.4640994E0,-2.7964194E0,-3.787441E-1,8.501834E-1,-2.4669465E-1,-1.28708E0,-1.3425668E-1,-1.1288314E-2,-2.9118285E0,-1.787437E-1,-3.994772E-2,9.6132606E-1,-2.3427337E-1,1.1988899E-1,-8.698835E-1,-1.564735E-2,-8.9448534E-2,-6.356527E-2,-1.4850149E-1,-0E0,-2.313483E-1,5.674007E-2,2.7932927E-2,1.8303268E-2,-6.868666E-2,1.6811673E-2,-1.2117125E-2,-8.122205E-3,-6.4810686E-2,-2.5470604E-3,-1.3735639E-2],"categories":[],"categories_nodes":[],"categories_segments":[],"categories_sizes":[],"default_left":[0,0,0,0,0,0,0,0,0,0,0,0,0,0,0,0,0,0,0,0,0,0,0,0,0,0,0,0,0,0,0,0,0,0,0],"id":1,"left_children":[1,3,5,7,9,11,13,15,17,19,-1,-1,21,23,-1,25,27,29,31,-1,-1,-1,-1,-1,33,-1,-1,-1,-1,-1,-1,-1,-1,-1,-1],"loss_changes":[5.316006E2,3.5255377E2,8.449655E1,5.054715E1,6.0329285E0,1.8906189E1,1.4402666E0,4.344742E1,1.1144929E1,3.14122E0,0E0,0E0,1.9107666E0,1.6302481E-1,0E0,2.1898865E1,2.3861746E1,2.5202427E0,5.07242E0,0E0,0E0,0E0,0E0,0E0,4.731947E-2,0E0,0E0,0E0,0E0,0E0,0E0,0E0,0E0,0E0,0E0],"parents":[2147483647,0,0,1,1,2,2,3,3,4,4,5,5,6,6,7,7,8,8,9,9,12,12,13,13,15,15,16,16,17,17,18,18,24,24],"right_children":[2,4,6,8,10,12,14,16,18,20,-1,-1,22,24,-1,26,28,30,32,-1,-1,-1,-1,-1,34,-1,-1,-1,-1,-1,-1,-1,-1,-1,-1],"split_conditions":[6.34E1,5.763E1,5.06E1,4.809E1,5.6E1,1.3967E3,7.999E1,4.438E1,2.01E0,6.838E1,-1.3425668E-1,-1.1288314E-2,3.41E-1,6.594E1,-3.994772E-2,1.616E1,1.82E-1,5.867E1,6.8E1,-1.564735E-2,-8.9448534E-2,-6.356527E-2,-1.4850149E-1,-0E0,4.39E0,5.674007E-2,2.7932927E-2,1.8303268E-2,-6.868666E-2,1.6811673E-2,-1.2117125E-2,-8.122205E-3,-6.4810686E-2,-2.5470604E-3,-1.3735639E-2],"split_indices":[2,3,11,2,15,0,2,3,17,3,0,0,6,2,0,2,14,2,15,0,0,0,0,0,19,0,0,0,0,0,0,0,0,0,0],"split_type":[0,0,0,0,0,0,0,0,0,0,0,0,0,0,0,0,0,0,0,0,0,0,0,0,0,0,0,0,0,0,0,0,0,0,0],"sum_hessian":[5.26E2,4.41E2,8.5E1,4.04E2,3.7E1,6.6E1,1.9E1,3.57E2,4.7E1,7E0,3E1,3E0,6.3E1,1.4E1,5E0,3.24E2,3.3E1,3E1,1.7E1,3E0,4E0,3E0,6E1,3E0,1.1E1,2.25E2,9.9E1,2.2E1,1.1E1,1.9E1,1.1E1,7E0,1E1,3E0,8E0],"tree_param":{"num_deleted":"0","num_feature":"21","num_nodes":"35","size_leaf_vector":"1"}},{"base_weights":[2.6546473E-2,2.0812118E-1,-2.227683E0,6.5421456E-1,-3.2924837E-1,-1.23714544E-1,-1.2304301E0,6.943633E-1,-3.5243782E-1,-1.0486354E0,6.3724196E-1,-1.5060573E-2,-7.856754E-2,5.821713E-1,1.0172035E0,5.4435617E-1,-7.7873096E-2,-1.7666496E0,-1.2512383E-1,-1.1366242E-1,1.1908267E0,3.9282408E-2,1.8797114E-2,8.160703E-3,6.659829E-2,1.1578457E-2,3.4802713E-2,-9.508514E-2,5.0672185E-2,7.093972E-3,-3.4295686E-2,6.1969455E-2,-3.4976467E-2,6.669996E-2,-4.8945826E-2],"categories":[],"categories_nodes":[],"categories_segments":[],"categories_sizes":[],"default_left":[0,0,0,0,0,0,0,0,0,0,0,0,0,0,0,0,0,0,0,0,0,0,0,0,0,0,0,0,0,0,0,0,0,0,0],"id":2,"left_children":[1,3,5,7,9,-1,11,13,15,17,19,-1,-1,21,23,25,-1,27,29,31,33,-1,-1,-1,-1,-1,-1,-1,-1,-1,-1,-1,-1,-1,-1],"loss_changes":[2.1965239E2,1.1938725E2,6.4223175E0,1.1272011E1,1.5784277E2,0E0,2.5073328E0,8.737526E0,1.2836367E1,8.579207E1,4.056492E1,0E0,0E0,7.8551636E0,1.7374123E1,7.8197E-2,0E0,2.9424667E1,8.836218E0,3.4106743E1,1.8737648E1,0E0,0E0,0E0,0E0,0E0,0E0,0E0,0E0,0E0,0E0,0E0,0E0,0E0,0E0],"parents":[2147483647,0,0,1,1,2,2,3,3,4,4,6,6,7,7,8,8,9,9,10,10,13,13,14,14,15,15,17,17,18,18,19,19,20,20],"right_children":[2,4,6,8,10,-1,12,14,16,18,20,-1,-1,22,24,26,-1,28,30,32,34,-1,-1,-1,-1,-1,-1,-1,-1,-1,-1,-1,-1,-1,-1],"split_conditions":[5.763E1,1.4313E3,5.41E1,4.75E1,6E-1,-1.23714544E-1,6.838E1,1.93E0,8.104E2,5.21E1,4.61E2,-1.5060573E-2,-7.856754E-2,6.904E2,3.64E2,4.28E0,-7.7873096E-2,3.2024E3,3.86E-2,7.83E0,5.074E1,3.9282408E-2,1.8797114E-2,8.160703E-3,6.659829E-2,1.1578457E-2,3.4802713E-2,-9.508514E-2,5.0672185E-2,7.093972E-3,-3.4295686E-2,6.1969455E-2,-3.4976467E-2,6.669996E-2,-4.8945826E-2],"split_indices":[3,0,10,3,3,0,3,3,8,10,1,0,0,0,1,19,0,0,7,3,3,0,0,0,0,0,0,0,0,0,0,0,0,0,0],"split_type":[0,0,0,0,0,0,0,0,0,0,0,0,0,0,0,0,0,0,0,0,0,0,0,0,0,0,0,0,0,0,0,0,0,0,0],"sum_hessian":[5.35E2,4.96E2,3.9E1,2.71E2,2.25E2,3E1,9E0,2.61E2,1E1,1.29E2,9.6E1,3E0,6E0,1.96E2,6.5E1,6E0,4E0,7.2E1,5.7E1,4.1E1,5.5E1,9.7E1,9.9E1,1.8E1,4.7E1,3E0,3E0,6.9E1,3E0,3.9E1,1.8E1,1.2E1,2.9E1,5.2E1,3E0],"tree_param":{"num_deleted":"0","num_feature":"21","num_nodes":"35","size_leaf_vector":"1"}},{"base_weights":[-2.607975E-2,6.852155E-1,-1.9620799E0,9.2537594E-1,-2.4521602E-2,-2.5236661E0,-8.5353166E-1,4.1086534E-1,1.0550998E0,2.7954456E-1,-1.028551E0,-1.4482628E0,-2.671666E0,-5.538672E-1,-1.08965695E-1,9.599198E-1,-3.3272085E-1,1.3736475E0,6.645833E-1,-2.8284252E-1,4.897682E-1,-4.6674904E-1,-1.0406556E-1,-3.6867637E-2,-8.750868E-2,-2.1701272E0,-1.4474194E-1,-3.2886013E-1,-7.4233286E-2,5.3043306E-2,5.093993E-3,-1.9085674E-2,-1.0405388E-3,7.275112E-2,5.7195015E-2,3.9549556E-2,2.6681626E-2,-4.0238395E-2,1.5157634E-2,2.9874388E-2,-5.4440875E-2,1.5395365E-2,-3.682412E-2,-2.4522917E-2,-1.16744414E-1,-5.4607275E-3,-3.295368E-2],"categories":[],"categories_nodes":[],"categories_segments":[],"categories_sizes":[],"default_left":[0,0,0,0,0,0,0,0,0,0,0,0,0,0,0,0,0,0,0,0,0,0,0,0,0,0,0,0,0,0,0,0,0,0,0,0,0,0,0,0,0,0,0,0,0,0,0],"id":3,"left_children":[1,3,5,7,9,11,13,15,17,19,21,23,25,27,-1,29,31,33,35,37,39,41,-1,-1,-1,43,-1,45,-1,-1,-1,-1,-1,-1,-1,-1,-1,-1,-1,-1,-1,-1,-1,-1,-1,-1,-1],"loss_changes":[7.533511E2,6.829309E1,8.902252E1,1.9376434E1,3.1502148E1,1.1157166E1,1.878141E1,2.5694805E1,2.8490051E1,9.499157E0,1.296837E1,1.4655933E0,2.6134644E0,8.336157E0,0E0,2.8938217E0,3.6439824E-1,5.061493E-1,1.2497368E0,7.0227365E0,1.04640045E1,3.8217854E0,0E0,0E0,0E0,6.874634E0,0E0,2.4622679E0,0E0,0E0,0E0,0E0,0E0,0E0,0E0,0E0,0E0,0E0,0E0,0E0,0E0,0E0,0E0,0E0,0E0,0E0,0E0],"parents":[2147483647,0,0,1,1,2,2,3,3,4,4,5,5,6,6,7,7,8,8,9,9,10,10,11,11,12,12,13,13,15,15,16,16,17,17,18,18,19,19,20,20,21,21,25,25,27,27],"right_children":[2,4,6,8,10,12,14,16,18,20,22,24,26,28,-1,30,32,34,36,38,40,42,-1,-1,-1,44,-1,46,-1,-1,-1,-1,-1,-1,-1,-1,-1,-1,-1,-1,-1,-1,-1,-1,-1,-1,-1],"split_conditions":[5.712E1,4.096E1,4.82E1,3.32E2,2.32E-1,6.318E1,8.294E1,6.33E0,9E-1,4.54E2,4.588E1,1.65E-1,1.73E-1,2.17E-1,-1.08965695E-1,2.2E0,8.444E2,1.663E3,1.866E1,4.6E-1,1.005E2,2.91E-2,-1.0406556E-1,-3.6867637E-2,-8.750868E-2,6.834E1,-1.4474194E-1,6.95E1,-7.4233286E-2,5.3043306E-2,5.093993E-3,-1.9085674E-2,-1.0405388E-3,7.275112E-2,5.7195015E-2,3.9549556E-2,2.6681626E-2,-4.0238395E-2,1.5157634E-2,2.9874388E-2,-5.4440875E-2,1.5395365E-2,-3.682412E-2,-2.4522917E-2,-1.16744414E-1,-5.4607275E-3,-3.295368E-2],"split_indices":[4,4,11,1,14,4,4,3,2,1,3,14,14,14,0,17,8,1,2,2,12,13,0,0,0,4,0,4,0,0,0,0,0,0,0,0,0,0,0,0,0,0,0,0,0,0,0],"split_type":[0,0,0,0,0,0,0,0,0,0,0,0,0,0,0,0,0,0,0,0,0,0,0,0,0,0,0,0,0,0,0,0,0,0,0,0,0,0,0,0,0,0,0,0,0,0,0],"sum_hessian":[5.45E2,3.99E2,1.46E2,2.98E2,1.01E2,9.6E1,5E1,6.1E1,2.37E2,7.8E1,2.3E1,1.3E1,8.3E1,4.2E1,8E0,3.5E1,2.6E1,1.29E2,1.08E2,2.1E1,5.7E1,1.6E1,7E0,5E0,8E0,2.9E1,5.4E1,3.5E1,7E0,3.1E1,4E0,2.2E1,4E0,9.1E1,3.8E1,5.2E1,5.6E1,1.1E1,1E1,5.4E1,3E0,4E0,1.2E1,3E0,2.6E1,2.2E1,1.3E1],"tree_param":{"num_deleted":"0","num_feature":"21","num_nodes":"47","size_leaf_vector":"1"}},{"base_weights":[2.9856427E-2,3.982575E-1,-2.1114616E0,1.8768597E-1,6.25259E-1,-2.6416305E-1,-2.5605786E0,2.5272766E-1,-7.568335E-1,7.3192304E-1,3.1628957E-1,-4.8628923E-1,-1.5742936E-3,-4.5674235E-2,-2.6519704E0,2.8117758E-1,-7.035508E-2,-2.7997842E-1,-8.649596E-2,7.854027E-1,5.0493133E-1,3.7213454E-1,-0E0,-8.207935E-3,-3.4558095E-2,2.238219E-3,-2.4435513E-3,-2.291375E0,-1.5087421E-1,1.6871095E-2,-2.6665984E-2,-3.1591654E-2,8.025753E-3,3.3236522E-2,4.765603E-2,-3.8218435E-2,3.2546986E-2,3.1494822E-3,2.129297E-2,-8.541713E-3,7.105704E-3,-7.009115E-2,-1.2118166E-1],"categories":[],"categories_nodes":[],"categories_segments":[],"categories_sizes":[],"default_left":[0,0,0,0,0,0,0,0,0,0,0,0,0,0,0,0,0,0,0,0,0,0,0,0,0,0,0,0,0,0,0,0,0,0,0,0,0,0,0,0,0,0,0],"id":4,"left_children":[1,3,5,7,9,11,13,15,17,19,21,23,25,-1,27,29,-1,31,-1,33,35,37,39,-1,-1,-1,-1,41,-1,-1,-1,-1,-1,-1,-1,-1,-1,-1,-1,-1,-1,-1,-1],"loss_changes":[4.3533356E2,2.2315178E1,6.624304E1,1.5253412E1,7.111725E0,9.420215E-1,7.0054016E0,1.1191351E1,6.739002E0,1.5016708E0,1.0603442E0,3.9496922E-1,2.2323353E-2,0E0,5.9490967E-1,1.060523E1,0E0,2.0084267E0,0E0,1.8964233E0,6.9727116E0,7.713375E-1,2.6710013E-1,0E0,0E0,0E0,0E0,3.3770752E-1,0E0,0E0,0E0,0E0,0E0,0E0,0E0,0E0,0E0,0E0,0E0,0E0,0E0,0E0,0E0],"parents":[2147483647,0,0,1,1,2,2,3,3,4,4,5,5,6,6,7,7,8,8,9,9,10,10,11,11,12,12,14,14,15,15,17,17,19,19,20,20,21,21,22,22,27,27],"right_children":[2,4,6,8,10,12,14,16,18,20,22,24,26,-1,28,30,-1,32,-1,34,36,38,40,-1,-1,-1,-1,42,-1,-1,-1,-1,-1,-1,-1,-1,-1,-1,-1,-1,-1,-1,-1],"split_conditions":[6.318E1,5.27E1,3.41E-1,5.021E1,3.342E1,1.8142E3,1.3967E3,1E0,4.01E-1,1.7224E3,5.924E1,6.905E1,2.0438E3,-4.5674235E-2,8.285E1,2.9E-1,-7.035508E-2,2.877E-1,-8.649596E-2,7.245E2,5.34E1,9.946E2,1.2636E3,-8.207935E-3,-3.4558095E-2,2.238219E-3,-2.4435513E-3,3.6E-2,-1.5087421E-1,1.6871095E-2,-2.6665984E-2,-3.1591654E-2,8.025753E-3,3.3236522E-2,4.765603E-2,-3.8218435E-2,3.2546986E-2,3.1494822E-3,2.129297E-2,-8.541713E-3,7.105704E-3,-7.009115E-2,-1.2118166E-1],"split_indices":[2,10,6,2,2,0,0,18,6,0,2,2,0,0,2,14,0,5,0,0,10,0,0,0,0,0,0,7,0,0,0,0,0,0,0,0,0,0,0,0,0,0,0],"split_type":[0,0,0,0,0,0,0,0,0,0,0,0,0,0,0,0,0,0,0,0,0,0,0,0,0,0,0,0,0,0,0,0,0,0,0,0,0,0,0,0,0,0,0],"sum_hessian":[5.5E2,4.7E2,8E1,2.45E2,2.25E2,1.6E1,6.4E1,2.3E2,1.5E1,1.66E2,5.9E1,8E0,8E0,4E0,6E1,2.27E2,3E0,1.1E1,4E0,1.32E2,3.4E1,5E1,9E0,4E0,4E0,3E0,5E0,3.4E1,2.6E1,2.13E2,1.4E1,6E0,5E0,8E1,5.2E1,3E0,3.1E1,8E0,4.2E1,4E0,5E0,6E0,2.8E1],"tree_param":{"num_deleted":"0","num_feature":"21","num_nodes":"43","size_leaf_vector":"1"}},{"base_weights":[1.0300089E-2,6.312107E-1,-1.7483237E0,8.415832E-1,-1.5580856E-2,-2.362047E0,-8.2241637E-1,4.237056E-1,9.6003443E-1,2.559369E-1,-1.0668836E0,-1.2724882E0,-2.487351E0,-5.069226E-1,-1.8920926E0,8.570049E-1,-3.3868566E-1,1.2794273E0,6.094762E-1,-2.591604E-2,6.697204E-1,-4.472507E-1,-9.161275E-2,-3.1814475E-2,-8.3996944E-2,-1.04104154E-1,-1.3662492E-1,-1.2292627E0,-2.2128421E-1,-6.367331E-2,-1.1924561E-1,3.0820144E-2,6.0557462E-2,-1.9261496E-2,-2.3076953E-3,6.517252E-2,3.387027E-2,3.6317E-2,2.4718184E-2,-3.7403982E-2,1.0009303E-2,3.8949903E-2,-1.4614581E-2,-5.5878637E-3,-5.745858E-2,-8.261166E-3,-8.3634995E-2,-2.0215634E-2,3.749755E-3],"categories":[],"categories_nodes":[],"categories_segments":[],"categories_sizes":[],"default_left":[0,0,0,0,0,0,0,0,0,0,0,0,0,0,0,0,0,0,0,0,0,0,0,0,0,0,0,0,0,0,0,0,0,0,0,0,0,0,0,0,0,0,0,0,0,0,0,0,0],"id":5,"left_children":[1,3,5,7,9,11,13,15,17,19,21,23,25,27,29,31,33,35,37,39,41,43,-1,-1,-1,-1,-1,45,47,-1,-1,-1,-1,-1,-1,-1,-1,-1,-1,-1,-1,-1,-1,-1,-1,-1,-1,-1,-1],"loss_changes":[6.026552E2,5.5611145E1,7.956708E1,1.4700256E1,2.9184328E1,8.200104E0,1.8712044E1,2.3466135E1,2.5791153E1,9.528451E0,8.911804E0,1.5508652E0,1.3799133E0,9.28035E0,5.6038666E-1,2.9050407E0,2.9308915E-1,7.1229553E-1,1.0793419E0,8.205398E0,3.745534E0,2.8068469E0,0E0,0E0,0E0,0E0,0E0,5.673689E0,1.961217E0,0E0,0E0,0E0,0E0,0E0,0E0,0E0,0E0,0E0,0E0,0E0,0E0,0E0,0E0,0E0,0E0,0E0,0E0,0E0,0E0],"parents":[2147483647,0,0,1,1,2,2,3,3,4,4,5,5,6,6,7,7,8,8,9,9,10,10,11,11,12,12,13,13,14,14,15,15,16,16,17,17,18,18,19,19,20,20,21,21,27,27,28,28],"right_children":[2,4,6,8,10,12,14,16,18,20,22,24,26,28,30,32,34,36,38,40,42,44,-1,-1,-1,-1,-1,46,48,-1,-1,-1,-1,-1,-1,-1,-1,-1,-1,-1,-1,-1,-1,-1,-1,-1,-1,-1,-1],"split_conditions":[5.712E1,4.096E1,4.73E1,3.32E2,2.32E-1,6.226E1,8.145E1,6.33E0,4.6E-1,1.543E3,3.87E-1,1.65E-1,7.952E1,5.72E2,8.3E1,1.1751E3,8.444E2,7.8E1,1.733E1,4.6E-1,4.11E-1,5.022E1,-9.161275E-2,-3.1814475E-2,-8.3996944E-2,-1.04104154E-1,-1.3662492E-1,7.32E1,1.9037E3,-6.367331E-2,-1.1924561E-1,3.0820144E-2,6.0557462E-2,-1.9261496E-2,-2.3076953E-3,6.517252E-2,3.387027E-2,3.6317E-2,2.4718184E-2,-3.7403982E-2,1.0009303E-2,3.8949903E-2,-1.4614581E-2,-5.5878637E-3,-5.745858E-2,-8.261166E-3,-8.3634995E-2,-2.0215634E-2,3.749755E-3],"split_indices":[4,4,11,1,14,4,4,3,2,1,6,14,4,1,16,0,8,15,4,2,6,4,0,0,0,0,0,16,0,0,0,0,0,0,0,0,0,0,0,0,0,0,0,0,0,0,0,0,0],"split_type":[0,0,0,0,0,0,0,0,0,0,0,0,0,0,0,0,0,0,0,0,0,0,0,0,0,0,0,0,0,0,0,0,0,0,0,0,0,0,0,0,0,0,0,0,0,0,0,0,0],"sum_hessian":[5.5E2,4.07E2,1.43E2,3.07E2,1E2,8.5E1,5.8E1,6.9E1,2.38E2,8E1,2E1,1E1,7.5E1,4.6E1,1.2E1,4.4E1,2.5E1,1.23E2,1.15E2,4.8E1,3.2E1,1.2E1,8E0,5E0,5E0,3.2E1,4.3E1,1.2E1,3.4E1,7E0,5E0,2.8E1,1.6E1,2.1E1,4E0,1.17E2,6E0,5.4E1,6.1E1,1.1E1,3.7E1,2.9E1,3E0,9E0,3E0,4E0,8E0,2.1E1,1.3E1],"tree_param":{"num_deleted":"0","num_feature":"21","num_nodes":"49","size_leaf_vector":"1"}},{"base_weights":[1.0500352E-2,6.074592E-1,-1.6407453E0,7.932664E-1,1.0179808E-2,-2.157157E0,-7.452795E-1,9.373355E-1,5.7693386E-1,2.2299865E-1,-1.5075369E0,-1.3805089E0,-2.4094958E0,-5.068722E-1,-8.7871276E-2,1.0251418E0,5.842777E-1,3.1066105E-2,4.0358987E-1,2.8219858E-1,-5.1807463E-2,-3.423597E-2,-9.915804E-2,-3.751556E-1,-9.12833E-2,-1.028687E-1,-1.3399285E-1,-2.9033664E-1,-1.2473663E0,5.5636413E-2,3.2448478E-2,3.75616E-2,7.493491E-4,1.1312211E-2,2.6364649E-2,-1.7411387E-2,1.777102E-2,-4.5987625E-2,1.1223621E-2,-4.0907856E-2,-5.6535206E-3,-2.0990686E-2,-7.638863E-2],"categories":[],"categories_nodes":[],"categories_segments":[],"categories_sizes":[],"default_left":[0,0,0,0,0,0,0,0,0,0,0,0,0,0,0,0,0,0,0,0,0,0,0,0,0,0,0,0,0,0,0,0,0,0,0,0,0,0,0,0,0,0,0],"id":6,"left_children":[1,3,5,7,9,11,13,15,17,19,21,23,25,27,-1,29,31,-1,33,35,-1,-1,-1,37,-1,-1,-1,39,41,-1,-1,-1,-1,-1,-1,-1,-1,-1,-1,-1,-1,-1,-1],"loss_changes":[5.420567E2,4.474704E1,6.56167E1,8.907181E0,3.1538599E1,1.43246765E1,1.2154446E1,4.9131927E0,6.1624527E-1,6.6275687E0,3.0715237E0,1.0283508E1,4.8641968E-1,6.859864E0,0E0,3.8791199E0,3.6188965E0,0E0,4.415574E-1,3.9558473E0,0E0,0E0,0E0,3.2149868E0,0E0,0E0,0E0,3.2762635E0,1.4843712E0,0E0,0E0,0E0,0E0,0E0,0E0,0E0,0E0,0E0,0E0,0E0,0E0,0E0,0E0],"parents":[2147483647,0,0,1,1,2,2,3,3,4,4,5,5,6,6,7,7,8,8,9,9,10,10,11,11,12,12,13,13,15,15,16,16,18,18,19,19,23,23,27,27,28,28],"right_children":[2,4,6,8,10,12,14,16,18,20,22,24,26,28,-1,30,32,-1,34,36,-1,-1,-1,38,-1,-1,-1,40,42,-1,-1,-1,-1,-1,-1,-1,-1,-1,-1,-1,-1,-1,-1],"split_conditions":[5.629E1,4.096E1,4.82E1,3.9E0,2.52E-1,6.786E1,8.294E1,2.19E0,3.191E1,1.005E2,2.71E-1,1.65E-1,1.83E-1,2.01E-1,-8.7871276E-2,2.737E1,8.129E2,3.1066105E-2,1.0153E3,4.4E1,-5.1807463E-2,-3.423597E-2,-9.915804E-2,3.84E-2,-9.12833E-2,-1.028687E-1,-1.3399285E-1,4.6E-1,6.175E1,5.5636413E-2,3.2448478E-2,3.75616E-2,7.493491E-4,1.1312211E-2,2.6364649E-2,-1.7411387E-2,1.777102E-2,-4.5987625E-2,1.1223621E-2,-4.0907856E-2,-5.6535206E-3,-2.0990686E-2,-7.638863E-2],"split_indices":[4,4,11,2,14,4,4,17,2,12,5,14,14,14,0,4,8,0,0,11,0,0,0,7,0,0,0,2,4,0,0,0,0,0,0,0,0,0,0,0,0,0,0],"split_type":[0,0,0,0,0,0,0,0,0,0,0,0,0,0,0,0,0,0,0,0,0,0,0,0,0,0,0,0,0,0,0,0,0,0,0,0,0,0,0,0,0,0,0],"sum_hessian":[5.48E2,4.03E2,1.45E2,3.07E2,9.6E1,9.1E1,5.4E1,1.82E2,1.25E2,8.5E1,1.1E1,2.4E1,6.7E1,4.5E1,9E0,1.44E2,3.8E1,9.7E1,2.8E1,8.2E1,3E0,5E0,6E0,8E0,1.6E1,3.3E1,3.4E1,3.6E1,9E0,1.15E2,2.9E1,2.9E1,9E0,1.3E1,1.5E1,8E0,7.4E1,4E0,4E0,8E0,2.8E1,3E0,6E0],"tree_param":{"num_deleted":"0","num_feature":"21","num_nodes":"43","size_leaf_vector":"1"}},{"base_weights":[-2.3990981E-3,6.1141646E-1,-1.6440802E0,8.087456E-1,5.4331243E-2,-2.0037813E0,-6.292855E-1,1.0046195E0,5.5917305E-1,1.9615565E-1,-1.2884338E0,-9.795195E-1,-2.2103145E0,-3.396599E-1,-7.270982E-2,1.0997473E0,6.533869E-1,5.973626E-1,3.5118854E-1,2.568264E-1,-6.1165538E-2,-3.1534594E-2,-9.000187E-2,-1.4165771E0,-1.3436083E-1,-1.9468565E0,-1.2881474E-1,-1.5867808E-1,-6.1451484E-2,3.6646772E-2,5.8933187E-2,1.5097819E-2,4.5100134E-2,3.2806646E-2,2.5842601E-2,4.392814E-3,2.1653948E-2,1.744002E-2,-1.6061531E-2,-8.912253E-2,-3.3799153E-2,9.173522E-3,-2.6152987E-2,-7.940262E-2,-1.1226865E-1,-1.8103112E-2,2.4448663E-3],"categories":[],"categories_nodes":[],"categories_segments":[],"categories_sizes":[],"default_left":[0,0,0,0,0,0,0,0,0,0,0,0,0,0,0,0,0,0,0,0,0,0,0,0,0,0,0,0,0,0,0,0,0,0,0,0,0,0,0,0,0,0,0,0,0,0,0],"id":7,"left_children":[1,3,5,7,9,11,13,15,17,19,21,23,25,27,-1,29,31,33,35,37,-1,-1,-1,39,41,43,-1,45,-1,-1,-1,-1,-1,-1,-1,-1,-1,-1,-1,-1,-1,-1,-1,-1,-1,-1,-1],"loss_changes":[5.442531E2,4.30719E1,5.2134064E1,1.3458435E1,1.994894E1,2.0362762E1,8.883297E0,4.4854584E0,7.2792816E-1,8.398939E0,1.9866886E0,7.0422344E0,3.1134033E0,4.655961E0,0E0,2.563385E0,2.8399725E0,5.4595947E-2,4.058385E-1,5.006091E0,0E0,0E0,0E0,2.0717793E0,1.1182501E0,2.0490112E0,0E0,1.188894E0,0E0,0E0,0E0,0E0,0E0,0E0,0E0,0E0,0E0,0E0,0E0,0E0,0E0,0E0,0E0,0E0,0E0,0E0,0E0],"parents":[2147483647,0,0,1,1,2,2,3,3,4,4,5,5,6,6,7,7,8,8,9,9,10,10,11,11,12,12,13,13,15,15,16,16,17,17,18,18,19,19,23,23,24,24,25,25,27,27],"right_children":[2,4,6,8,10,12,14,16,18,20,22,24,26,28,-1,30,32,34,36,38,-1,-1,-1,40,42,44,-1,46,-1,-1,-1,-1,-1,-1,-1,-1,-1,-1,-1,-1,-1,-1,-1,-1,-1,-1,-1],"split_conditions":[5.712E1,3.972E1,4.9E1,4.6E-1,2.52E-1,6.346E1,5.763E1,2.562E1,3.191E1,1.005E2,2.71E-1,6.027E1,8.294E1,8.083E1,-7.270982E-2,5.421E2,2.95E-2,1.733E1,7.97E2,2.4E-1,-6.1165538E-2,-3.1534594E-2,-9.000187E-2,3.91E-1,3.88E-1,1.83E-1,-1.2881474E-1,1.6595E3,-6.1451484E-2,3.6646772E-2,5.8933187E-2,1.5097819E-2,4.5100134E-2,3.2806646E-2,2.5842601E-2,4.392814E-3,2.1653948E-2,1.744002E-2,-1.6061531E-2,-8.912253E-2,-3.3799153E-2,9.173522E-3,-2.6152987E-2,-7.940262E-2,-1.1226865E-1,-1.8103112E-2,2.4448663E-3],"split_indices":[4,4,11,2,14,4,3,3,2,12,5,2,4,2,0,0,13,4,0,14,0,0,0,6,6,14,0,0,0,0,0,0,0,0,0,0,0,0,0,0,0,0,0,0,0,0,0],"split_type":[0,0,0,0,0,0,0,0,0,0,0,0,0,0,0,0,0,0,0,0,0,0,0,0,0,0,0,0,0,0,0,0,0,0,0,0,0,0,0,0,0,0,0,0,0,0,0],"sum_hessian":[5.38E2,3.92E2,1.46E2,2.89E2,1.03E2,1.07E2,3.9E1,1.6E2,1.29E2,9.4E1,9E0,1.9E1,8.8E1,3E1,9E0,1.24E2,3.6E1,1.07E2,2.2E1,9.1E1,3E0,5E0,4E0,1.2E1,7E0,5.5E1,3.3E1,2.6E1,4E0,2.4E1,1E2,1.6E1,2E1,5.7E1,5E1,6E0,1.6E1,7.9E1,1.2E1,7E0,5E0,4E0,3E0,2.8E1,2.7E1,1.3E1,1.3E1],"tree_param":{"num_deleted":"0","num_feature":"21","num_nodes":"47","size_leaf_vector":"1"}},{"base_weights":[-2.07804E-2,5.602282E-1,-1.6022952E0,7.179172E-1,3.819916E-2,-1.0241779E0,-2.1422987E0,2.639341E-1,8.4556115E-1,-2.1867663E-1,6.249441E-1,-5.135453E-1,-1.5610491E0,-5.8016814E-2,-1.14569046E-1,7.330181E-1,-4.049065E-1,6.7929894E-1,5.7153862E-2,6.973536E-2,-1.1305726E0,8.2266164E-1,-3.95728E-2,-1.1867639E0,-8.5072264E-2,-1.3885527E-2,-1.6695586E0,4.0657558E-2,-0E0,-2.1950023E-2,-6.6727675E-3,5.21318E-2,2.6317863E-2,1.0056385E-2,-2.3954298E-2,-3.0214775E-2,-8.533005E-2,4.9645174E-3,4.5417484E-2,-3.3363772E-3,-8.6505465E-2,1.4948669E-2,-1.0051617E-2,-3.682713E-2,-8.6861566E-2],"categories":[],"categories_nodes":[],"categories_segments":[],"categories_sizes":[],"default_left":[0,0,0,0,0,0,0,0,0,0,0,0,0,0,0,0,0,0,0,0,0,0,0,0,0,0,0,0,0,0,0,0,0,0,0,0,0,0,0,0,0,0,0,0,0],"id":8,"left_children":[1,3,5,7,9,11,13,15,17,19,21,23,25,-1,-1,27,29,31,-1,33,35,37,-1,39,41,-1,43,-1,-1,-1,-1,-1,-1,-1,-1,-1,-1,-1,-1,-1,-1,-1,-1,-1,-1],"loss_changes":[5.027069E2,3.282424E1,4.3380524E1,1.7455978E1,1.4345021E1,1.9003387E1,7.975525E0,2.1977842E1,1.0863571E1,1.7543037E1,8.775588E0,1.1021642E1,4.2155304E0,0E0,0E0,2.435007E0,1.5255833E-1,7.963127E0,0E0,3.7462182E0,3.588028E0,1.4206352E0,0E0,8.833368E0,1.1636584E0,0E0,4.9355316E-1,0E0,0E0,0E0,0E0,0E0,0E0,0E0,0E0,0E0,0E0,0E0,0E0,0E0,0E0,0E0,0E0,0E0,0E0],"parents":[2147483647,0,0,1,1,2,2,3,3,4,4,5,5,6,6,7,7,8,8,9,9,10,10,11,11,12,12,15,15,16,16,17,17,19,19,20,20,21,21,23,23,24,24,26,26],"right_children":[2,4,6,8,10,12,14,16,18,20,22,24,26,-1,-1,28,30,32,-1,34,36,38,-1,40,42,-1,44,-1,-1,-1,-1,-1,-1,-1,-1,-1,-1,-1,-1,-1,-1,-1,-1,-1,-1],"split_conditions":[5.712E1,4.096E1,7.403E1,3.32E2,2.054E3,2.01E0,3.23E-1,6.33E0,6E-1,6E-1,3.239E3,5.72E2,3.32E2,-5.8016814E-2,-1.14569046E-1,3.015E-1,8.444E2,1.18E0,5.7153862E-2,2.19E0,3.78E-1,6E-1,-3.95728E-2,2.279E-1,6.175E1,-1.3885527E-2,2.603E-1,4.0657558E-2,-0E0,-2.1950023E-2,-6.6727675E-3,5.21318E-2,2.6317863E-2,1.0056385E-2,-2.3954298E-2,-3.0214775E-2,-8.533005E-2,4.9645174E-3,4.5417484E-2,-3.3363772E-3,-8.6505465E-2,1.4948669E-2,-1.0051617E-2,-3.682713E-2,-8.6861566E-2],"split_indices":[4,4,4,1,1,17,6,3,3,3,1,1,1,0,0,5,8,4,0,17,6,3,0,5,4,0,5,0,0,0,0,0,0,0,0,0,0,0,0,0,0,0,0,0,0],"split_type":[0,0,0,0,0,0,0,0,0,0,0,0,0,0,0,0,0,0,0,0,0,0,0,0,0,0,0,0,0,0,0,0,0,0,0,0,0,0,0,0,0,0,0,0,0],"sum_hessian":[5.45E2,3.99E2,1.46E2,3.06E2,9.3E1,7.2E1,7.4E1,6.8E1,2.38E2,6.5E1,2.8E1,3.8E1,3.4E1,1.1E1,6.3E1,4E1,2.8E1,1.55E2,8.3E1,5E1,1.5E1,2.5E1,3E0,1.4E1,2.4E1,3E0,3.1E1,3.6E1,4E0,2.4E1,4E0,4.4E1,1.11E2,4.1E1,9E0,9E0,6E0,3E0,2.2E1,5E0,9E0,5E0,1.9E1,3E0,2.8E1],"tree_param":{"num_deleted":"0","num_feature":"21","num_nodes":"45","size_leaf_vector":"1"}},{"base_weights":[-1.935564E-2,5.276692E-1,-1.447226E0,6.457286E-1,-1.9464873E-1,-1.8985089E0,-5.995791E-1,2.4433573E-1,7.704127E-1,1.44473E-1,-1.2294763E0,-1.0190849E0,-2.031757E0,-4.0254214E-1,-7.644629E-2,6.8386406E-1,-4.2599013E-1,1.0367453E0,4.7794074E-1,3.0884498E-1,-4.1883907E-1,-9.026458E-2,-3.8147646E-1,-1.3344009E0,7.831697E-3,-1.744219E0,-2.3471644E0,-8.929922E-1,-1.7924388E-1,2.3398241E-2,5.0311394E-2,-2.2516798E-2,-5.5949558E-3,5.317549E-2,1.924726E-2,2.9878939E-2,1.9581351E-2,5.854401E-3,3.009536E-2,1.8658595E-2,-4.1293416E-2,2.0149253E-2,-5.4778446E-2,-3.2394983E-2,-7.400674E-2,-9.0171896E-2,-4.2712472E-2,-9.16191E-2,-1.3236807E-1,1.9374419E-3,-5.798585E-2,-1.6644642E-2,3.752699E-3],"categories":[],"categories_nodes":[],"categories_segments":[],"categories_sizes":[],"default_left":[0,0,0,0,0,0,0,0,0,0,0,0,0,0,0,0,0,0,0,0,0,0,0,0,0,0,0,0,0,0,0,0,0,0,0,0,0,0,0,0,0,0,0,0,0,0,0,0,0,0,0,0,0],"id":9,"left_children":[1,3,5,7,9,11,13,15,17,19,21,23,25,27,-1,29,31,33,35,37,39,-1,41,43,-1,45,47,49,51,-1,-1,-1,-1,-1,-1,-1,-1,-1,-1,-1,-1,-1,-1,-1,-1,-1,-1,-1,-1,-1,-1,-1,-1],"loss_changes":[4.257635E2,3.3769707E1,5.6373657E1,1.6676315E1,1.9938347E1,9.108185E0,9.079639E0,2.4476538E1,1.9449905E1,4.099844E0,5.9287243E0,5.8876314E0,3.1149902E0,4.7704787E0,0E0,2.8616066E0,1.4572859E-1,1.7834015E0,9.578514E-1,1.7683132E0,3.577177E0,0E0,4.432002E0,2.8776169E-2,0E0,7.233887E-1,4.1888428E-1,3.6362915E0,1.3401648E0,0E0,0E0,0E0,0E0,0E0,0E0,0E0,0E0,0E0,0E0,0E0,0E0,0E0,0E0,0E0,0E0,0E0,0E0,0E0,0E0,0E0,0E0,0E0,0E0],"parents":[2147483647,0,0,1,1,2,2,3,3,4,4,5,5,6,6,7,7,8,8,9,9,10,10,11,11,12,12,13,13,15,15,16,16,17,17,18,18,19,19,20,20,22,22,23,23,25,25,26,26,27,27,28,28],"right_children":[2,4,6,8,10,12,14,16,18,20,22,24,26,28,-1,30,32,34,36,38,40,-1,42,44,-1,46,48,50,52,-1,-1,-1,-1,-1,-1,-1,-1,-1,-1,-1,-1,-1,-1,-1,-1,-1,-1,-1,-1,-1,-1,-1,-1],"split_conditions":[5.712E1,4.79E1,4.82E1,3.86E2,2.21E-1,6.318E1,8.294E1,6.75E0,4.6E-1,4.03E-2,4.878E1,6.006E1,2.02E-1,5.72E2,-7.644629E-2,6E-1,8.444E2,3.01E-1,1.733E1,2.234E3,4.928E1,-9.026458E-2,5.022E1,4.28E0,7.831697E-3,4.71E1,1.9756E3,3E0,1.9037E3,2.3398241E-2,5.0311394E-2,-2.2516798E-2,-5.5949558E-3,5.317549E-2,1.924726E-2,2.9878939E-2,1.9581351E-2,5.854401E-3,3.009536E-2,1.8658595E-2,-4.1293416E-2,2.0149253E-2,-5.4778446E-2,-3.2394983E-2,-7.400674E-2,-9.0171896E-2,-4.2712472E-2,-9.16191E-2,-1.3236807E-1,1.9374419E-3,-5.798585E-2,-1.6644642E-2,3.752699E-3],"split_indices":[4,4,11,1,14,4,4,3,2,7,2,2,14,1,0,3,8,14,4,1,4,0,2,19,0,11,0,19,0,0,0,0,0,0,0,0,0,0,0,0,0,0,0,0,0,0,0,0,0,0,0,0,0],"split_type":[0,0,0,0,0,0,0,0,0,0,0,0,0,0,0,0,0,0,0,0,0,0,0,0,0,0,0,0,0,0,0,0,0,0,0,0,0,0,0,0,0,0,0,0,0,0,0,0,0,0,0,0,0],"sum_hessian":[5.43E2,3.93E2,1.5E2,3.38E2,5.5E1,9.7E1,5.3E1,8.1E1,2.57E2,4.2E1,1.3E1,1.4E1,8.3E1,4.5E1,8E0,4.9E1,3.2E1,1.33E2,1.24E2,3.3E1,9E0,7E0,6E0,1.1E1,3E0,4.7E1,3.6E1,1.3E1,3.2E1,3.1E1,1.8E1,2.9E1,3E0,1.27E2,6E0,4.9E1,7.5E1,2.1E1,1.2E1,3E0,6E0,3E0,3E0,3E0,8E0,4.3E1,4E0,1.6E1,2E1,3E0,1E1,2E1,1.2E1],"tree_param":{"num_deleted":"0","num_feature":"21","num_nodes":"53","size_leaf_vector":"1"}},{"base_weights":[-3.5512755E-3,5.1762396E-1,-1.4294621E0,6.1981404E-1,-2.1219034E-1,-1.7516166E0,-3.043128E-1,2.4581893E-1,7.317025E-1,1.1937527E-2,-7.0142694E-2,-7.2246504E-1,-1.9112488E0,-1.529943E-1,-5.6568056E-2,6.8542653E-1,-4.731003E-1,5.616213E-1,1.0026929E0,-5.3150326E-2,1.2163349E-1,1.7239603E-3,-1.0490651E0,-1.5658723E0,-1.0923691E-1,-5.9507594E-2,-2.5017828E-2,3.8169753E-2,-9.007801E-3,-1.780379E-2,-3.8358223E-2,4.2577907E-2,2.1047356E-2,5.398674E-2,4.2300776E-2,-3.3640822E-3,3.1744495E-2,-7.07984E-2,-1.1610369E-2,-8.095177E-2,-2.8230513E-2,-6.531674E-3,6.388187E-3],"categories":[],"categories_nodes":[],"categories_segments":[],"categories_sizes":[],"default_left":[0,0,0,0,0,0,0,0,0,0,0,0,0,0,0,0,0,0,0,0,0,0,0,0,0,0,0,0,0,0,0,0,0,0,0,0,0,0,0,0,0,0,0],"id":10,"left_children":[1,3,5,7,9,11,13,15,17,19,-1,21,23,25,-1,27,29,31,33,-1,35,-1,37,39,-1,41,-1,-1,-1,-1,-1,-1,-1,-1,-1,-1,-1,-1,-1,-1,-1,-1,-1],"loss_changes":[4.08077E2,3.0153343E1,5.254474E1,1.4493927E1,1.3498881E1,1.7084412E1,3.9534943E0,2.6577026E1,1.177092E1,5.105592E0,0E0,4.340336E0,5.460663E0,8.884512E-1,0E0,3.7052364E0,7.1571445E-1,6.4072266E0,1.3724518E-1,0E0,3.9779534E0,0E0,3.1028738E0,1.369339E0,0E0,3.4997314E-1,0E0,0E0,0E0,0E0,0E0,0E0,0E0,0E0,0E0,0E0,0E0,0E0,0E0,0E0,0E0,0E0,0E0],"parents":[2147483647,0,0,1,1,2,2,3,3,4,4,5,5,6,6,7,7,8,8,9,9,11,11,12,12,13,13,15,15,16,16,17,17,18,18,20,20,22,22,23,23,25,25],"right_children":[2,4,6,8,10,12,14,16,18,20,-1,22,24,26,-1,28,30,32,34,-1,36,-1,38,40,-1,42,-1,-1,-1,-1,-1,-1,-1,-1,-1,-1,-1,-1,-1,-1,-1,-1,-1],"split_conditions":[5.629E1,4.79E1,5.06E1,3.86E2,4.11E-1,6.238E1,6.838E1,7.65E0,6E-1,4.4E1,-7.0142694E-2,1.96E0,7.952E1,7.999E1,-5.6568056E-2,3.015E-1,4.038E1,5.38E0,3.136E1,-5.3150326E-2,2.234E3,1.7239603E-3,2.988E-1,8.791E2,-1.0923691E-1,3.61E-2,-2.5017828E-2,3.8169753E-2,-9.007801E-3,-1.780379E-2,-3.8358223E-2,4.2577907E-2,2.1047356E-2,5.398674E-2,4.2300776E-2,-3.3640822E-3,3.1744495E-2,-7.07984E-2,-1.1610369E-2,-8.095177E-2,-2.8230513E-2,-6.531674E-3,6.388187E-3],"split_indices":[4,4,11,1,6,4,3,3,3,11,0,17,4,4,0,5,3,4,3,0,1,0,5,9,0,7,0,0,0,0,0,0,0,0,0,0,0,0,0,0,0,0,0],"split_type":[0,0,0,0,0,0,0,0,0,0,0,0,0,0,0,0,0,0,0,0,0,0,0,0,0,0,0,0,0,0,0,0,0,0,0,0,0,0,0,0,0,0,0],"sum_hessian":[5.47E2,4.01E2,1.46E2,3.52E2,4.9E1,1.13E2,3.3E1,8.2E1,2.7E2,4.2E1,7E0,1.6E1,9.7E1,2.9E1,4E0,5.1E1,3.1E1,1.68E2,1.02E2,3E0,3.9E1,5E0,1.1E1,4.6E1,5.1E1,2.4E1,5E0,4.7E1,4E0,2.4E1,7E0,5.3E1,1.15E2,6.4E1,3.8E1,2.9E1,1E1,7E0,4E0,4.3E1,3E0,1.8E1,6E0],"tree_param":{"num_deleted":"0","num_feature":"21","num_nodes":"43","size_leaf_vector":"1"}},{"base_weights":[-2.3040835E-2,2.3526321E-1,-1.4131511E0,4.6852967E-1,-1.196616E0,-1.7432623E0,-2.2155842E-1,5.5664057E-1,-2.5142565E-1,-7.0334435E-1,-1.8062888E0,-1.2809092E0,-1.081231E-1,-8.8039935E-2,-2.3975423E-2,9.818072E-2,6.974846E-1,-6.519289E-1,1.753599E-1,-1.1172432E0,3.256896E-2,-5.1627357E-2,-9.653299E-2,-7.706063E-2,-2.623098E-1,-1.2666057E-2,-1.0843138E-2,2.6545877E-2,-2.4143552E-2,4.7075E-2,2.1783078E-2,-4.059031E-2,1.2273525E-2,-2.9520954E-3,1.5196048E-2,-2.2799304E-2,-6.5559335E-2,1.0591911E-2,-3.045831E-2,-1.3349969E-3,-0E0],"categories":[],"categories_nodes":[],"categories_segments":[],"categories_sizes":[],"default_left":[0,0,0,0,0,0,0,0,0,0,0,0,0,0,0,0,0,0,0,0,0,0,0,0,0,0,0,0,0,0,0,0,0,0,0,0,0,0,0,0,0],"id":11,"left_children":[1,3,5,7,9,11,13,15,17,19,21,23,-1,25,-1,27,29,31,33,35,-1,-1,-1,-1,37,-1,39,-1,-1,-1,-1,-1,-1,-1,-1,-1,-1,-1,-1,-1,-1],"loss_changes":[1.8788538E2,1.4778598E2,3.1672653E1,2.4276123E1,1.712413E1,9.2901E0,5.5541E-1,2.174163E1,7.3409963E0,2.0960203E1,3.0841827E-1,8.1651535E0,0E0,1.494653E-1,0E0,2.062801E1,1.5999329E1,3.4123316E0,6.7526567E-1,2.8163033E0,0E0,0E0,0E0,0E0,1.484468E0,0E0,3.6968966E-3,0E0,0E0,0E0,0E0,0E0,0E0,0E0,0E0,0E0,0E0,0E0,0E0,0E0,0E0],"parents":[2147483647,0,0,1,1,2,2,3,3,4,4,5,5,6,6,7,7,8,8,9,9,10,10,11,11,13,13,15,15,16,16,17,17,18,18,19,19,24,24,26,26],"right_children":[2,4,6,8,10,12,14,16,18,20,22,24,-1,26,-1,28,30,32,34,36,-1,-1,-1,-1,38,-1,40,-1,-1,-1,-1,-1,-1,-1,-1,-1,-1,-1,-1,-1,-1],"split_conditions":[6.318E1,4.966E1,5.06E1,4.809E1,1.83E-1,2.1992E3,7.999E1,3.79E2,5.31E1,7.91E2,5.35E2,4.73E1,-1.081231E-1,1.4791E3,-2.3975423E-2,7.65E0,4.6E-1,6.027E1,1.4082E3,4.61E2,3.256896E-2,-5.1627357E-2,-9.653299E-2,-7.706063E-2,4.9E1,-1.2666057E-2,2.2037E3,2.6545877E-2,-2.4143552E-2,4.7075E-2,2.1783078E-2,-4.059031E-2,1.2273525E-2,-2.9520954E-3,1.5196048E-2,-2.2799304E-2,-6.5559335E-2,1.0591911E-2,-3.045831E-2,-1.3349969E-3,-0E0],"split_indices":[2,3,11,2,14,0,2,1,10,1,1,11,0,0,0,3,2,2,0,1,0,0,0,0,11,0,0,0,0,0,0,0,0,0,0,0,0,0,0,0,0],"split_type":[0,0,0,0,0,0,0,0,0,0,0,0,0,0,0,0,0,0,0,0,0,0,0,0,0,0,0,0,0,0,0,0,0,0,0,0,0,0,0,0,0],"sum_hessian":[5.21E2,4.4E2,8.1E1,3.79E2,6.1E1,6.3E1,1.8E1,3.38E2,4.1E1,3.5E1,2.6E1,3.2E1,3.1E1,1.3E1,5E0,8E1,2.58E2,2.1E1,2E1,2.7E1,8E0,5E0,2.1E1,2.5E1,7E0,3E0,1E1,4.6E1,3.4E1,1.32E2,1.26E2,1.8E1,3E0,7E0,1.3E1,7E0,2E1,3E0,4E0,6E0,4E0],"tree_param":{"num_deleted":"0","num_feature":"21","num_nodes":"41","size_leaf_vector":"1"}},{"base_weights":[4.825973E-3,4.5077005E-1,-1.2617406E0,6.133912E-1,-3.2635862E-3,-1.5766274E0,-3.8068247E-1,2.3896651E-1,7.011734E-1,-4.4310337E-1,1.9424294E-1,-1.2845635E0,-1.026146E-1,-1.9557266E-1,-5.7911493E-2,8.949803E-1,2.2415537E-3,9.29695E-1,4.410141E-1,-8.110545E-1,1.0704847E-1,4.708717E-1,-2.1462065E-1,-1.4295462E0,-6.36803E-1,-4.9764174E-1,-3.1103E-2,8.008097E-3,5.2850235E-2,-1.3073315E-2,1.9429198E-2,4.7441997E-2,1.32139195E-2,2.4271665E-2,1.2183878E-2,-2.587503E-2,-5.870989E-2,-1.2312793E-2,1.7090077E-2,3.9610326E-2,1.2769364E-2,1.256952E-2,-5.908909E-2,-3.869115E-2,-7.551671E-2,-4.8034944E-2,5.917467E-3,-0E0,-3.9748292E-2,1.4711576E-2,-5.1610316E-3],"categories":[],"categories_nodes":[],"categories_segments":[],"categories_sizes":[],"default_left":[0,0,0,0,0,0,0,0,0,0,0,0,0,0,0,0,0,0,0,0,0,0,0,0,0,0,0,0,0,0,0,0,0,0,0,0,0,0,0,0,0,0,0,0,0,0,0,0,0,0,0],"id":12,"left_children":[1,3,5,7,9,11,13,15,17,19,21,23,-1,25,-1,27,29,31,33,35,37,39,41,43,45,47,49,-1,-1,-1,-1,-1,-1,-1,-1,-1,-1,-1,-1,-1,-1,-1,-1,-1,-1,-1,-1,-1,-1,-1,-1],"loss_changes":[3.0153555E2,2.9228035E1,3.776735E1,9.302963E0,9.232435E0,1.1200302E1,5.107504E0,8.760077E0,1.3424141E1,6.8373795E0,8.383234E0,5.081352E0,0E0,1.5214455E0,0E0,1.4948702E0,4.4952188E0,1.2076035E0,7.905407E-1,1.3552246E0,1.254875E0,2.7395983E0,1.3911361E1,1.410492E0,3.6222029E0,1.6996741E0,5.2744144E-1,0E0,0E0,0E0,0E0,0E0,0E0,0E0,0E0,0E0,0E0,0E0,0E0,0E0,0E0,0E0,0E0,0E0,0E0,0E0,0E0,0E0,0E0,0E0,0E0],"parents":[2147483647,0,0,1,1,2,2,3,3,4,4,5,5,6,6,7,7,8,8,9,9,10,10,11,11,13,13,15,15,16,16,17,17,18,18,19,19,20,20,21,21,22,22,23,23,24,24,25,25,26,26],"right_children":[2,4,6,8,10,12,14,16,18,20,22,24,-1,26,-1,28,30,32,34,36,38,40,42,44,46,48,50,-1,-1,-1,-1,-1,-1,-1,-1,-1,-1,-1,-1,-1,-1,-1,-1,-1,-1,-1,-1,-1,-1,-1,-1],"split_conditions":[5.712E1,3.972E1,4.9E1,2.88E2,4.54E2,8.285E1,8.294E1,3.9E0,4.6E-1,4.6E-1,4.966E1,4.71E1,-1.026146E-1,5.99E2,-5.7911493E-2,3.3E1,4.6E-1,7.9E1,3.191E1,3.78E-1,3.86E-2,4.6E-1,3.99E-2,6.2E1,1.243E3,6.2E1,6.107E1,8.008097E-3,5.2850235E-2,-1.3073315E-2,1.9429198E-2,4.7441997E-2,1.32139195E-2,2.4271665E-2,1.2183878E-2,-2.587503E-2,-5.870989E-2,-1.2312793E-2,1.7090077E-2,3.9610326E-2,1.2769364E-2,1.256952E-2,-5.908909E-2,-3.869115E-2,-7.551671E-2,-4.8034944E-2,5.917467E-3,-0E0,-3.9748292E-2,1.4711576E-2,-5.1610316E-3],"split_indices":[4,4,11,1,1,4,4,4,2,2,4,11,0,1,0,1,2,15,2,6,7,2,7,4,1,4,2,0,0,0,0,0,0,0,0,0,0,0,0,0,0,0,0,0,0,0,0,0,0,0,0],"split_type":[0,0,0,0,0,0,0,0,0,0,0,0,0,0,0,0,0,0,0,0,0,0,0,0,0,0,0,0,0,0,0,0,0,0,0,0,0,0,0,0,0,0,0,0,0,0,0,0,0,0,0],"sum_hessian":[5.32E2,3.94E2,1.38E2,2.9E2,1.04E2,1.01E2,3.7E1,5.6E1,2.34E2,3.2E1,7.2E1,6.5E1,3.6E1,3.1E1,6E0,1.4E1,4.2E1,1.23E2,1.11E2,1.9E1,1.3E1,4.3E1,2.9E1,5.2E1,1.3E1,1E1,2.1E1,3E0,1.1E1,2.5E1,1.7E1,1.19E2,4E0,8.9E1,2.2E1,1.2E1,7E0,5E0,8E0,1.6E1,2.7E1,2E1,9E0,7E0,4.5E1,9E0,4E0,4E0,6E0,3E0,1.8E1],"tree_param":{"num_deleted":"0","num_feature":"21","num_nodes":"51","size_leaf_vector":"1"}},{"base_weights":[-1.6860956E-2,4.1502342E-1,-1.2390707E0,5.6400365E-1,-3.660408E-2,-1.563942E0,-3.8529387E-1,2.4305058E-1,6.485866E-1,2.4673967E-1,-3.1007937E-1,-1.2599089E0,-9.2941806E-2,-2.3613833E-1,-5.2021798E-2,6.3424563E-1,-3.1281847E-1,5.121956E-1,4.4549353E-2,7.376373E-2,4.0584603E-1,-1.63561E-1,-5.967002E-2,-1.1169995E0,-1.1942194E-1,-6.707634E-2,-7.6470524E-1,1.7845822E-2,4.5850247E-2,-4.0913573E-3,-1.785258E-2,3.8836647E-2,2.0376401E-2,7.993029E-3,-1.41297905E-2,1.1912882E-2,3.1170143E-2,-3.864107E-2,6.6646375E-3,-2.0898318E-2,-6.203815E-2,-9.089476E-3,1.5073423E-3,-1.5689721E-2,-5.5608373E-2],"categories":[],"categories_nodes":[],"categories_segments":[],"categories_sizes":[],"default_left":[0,0,0,0,0,0,0,0,0,0,0,0,0,0,0,0,0,0,0,0,0,0,0,0,0,0,0,0,0,0,0,0,0,0,0,0,0,0,0,0,0,0,0,0,0],"id":13,"left_children":[1,3,5,7,9,11,13,15,17,19,21,23,-1,25,-1,27,29,31,-1,33,35,37,-1,39,-1,41,43,-1,-1,-1,-1,-1,-1,-1,-1,-1,-1,-1,-1,-1,-1,-1,-1,-1,-1],"loss_changes":[2.8299817E2,2.6717674E1,3.803395E1,7.843048E0,7.7541065E0,6.4015656E0,3.5353785E0,1.4147552E1,7.172714E0,1.270659E0,6.26967E0,5.529274E0,0E0,2.9037876E0,0E0,2.525176E0,2.0276713E-1,3.8013725E0,0E0,7.999383E-1,6.7680407E-1,8.305719E0,0E0,3.55476E0,0E0,3.2176977E-1,7.618079E-1,0E0,0E0,0E0,0E0,0E0,0E0,0E0,0E0,0E0,0E0,0E0,0E0,0E0,0E0,0E0,0E0,0E0,0E0],"parents":[2147483647,0,0,1,1,2,2,3,3,4,4,5,5,6,6,7,7,8,8,9,9,10,10,11,11,13,13,15,15,16,16,17,17,19,19,20,20,21,21,23,23,25,25,26,26],"right_children":[2,4,6,8,10,12,14,16,18,20,22,24,-1,26,-1,28,30,32,-1,34,36,38,-1,40,-1,42,44,-1,-1,-1,-1,-1,-1,-1,-1,-1,-1,-1,-1,-1,-1,-1,-1,-1,-1],"split_conditions":[5.712E1,4.096E1,4.9E1,3.32E2,2.03E0,7.952E1,8.294E1,6.33E0,6E-1,1.147E3,4.11E-1,1E0,-9.2941806E-2,5.763E1,-5.2021798E-2,6.811E2,1.46E0,1.18E0,4.4549353E-2,6E-1,6E-1,8.349E2,-5.967002E-2,1.96E0,-1.1942194E-1,1.6595E3,1.1002E3,1.7845822E-2,4.5850247E-2,-4.0913573E-3,-1.785258E-2,3.8836647E-2,2.0376401E-2,7.993029E-3,-1.41297905E-2,1.1912882E-2,3.1170143E-2,-3.864107E-2,6.6646375E-3,-2.0898318E-2,-6.203815E-2,-9.089476E-3,1.5073423E-3,-1.5689721E-2,-5.5608373E-2],"split_indices":[4,4,11,1,17,4,4,3,3,1,6,18,0,3,0,0,17,4,0,3,3,9,0,17,0,0,0,0,0,0,0,0,0,0,0,0,0,0,0,0,0,0,0,0,0],"split_type":[0,0,0,0,0,0,0,0,0,0,0,0,0,0,0,0,0,0,0,0,0,0,0,0,0,0,0,0,0,0,0,0,0,0,0,0,0,0,0,0,0,0,0,0,0],"sum_hessian":[5.34E2,3.95E2,1.39E2,2.97E2,9.8E1,1E2,3.9E1,6.3E1,2.34E2,4.8E1,5E1,5.2E1,4.8E1,3.3E1,6E0,3.7E1,2.6E1,1.52E2,8.2E1,2.4E1,2.4E1,4.4E1,6E0,4.8E1,4E0,2.6E1,7E0,2E1,1.7E1,5E0,2.1E1,4.1E1,1.11E2,2E1,4E0,1.5E1,9E0,1.4E1,3E1,8E0,4E1,1.2E1,1.4E1,4E0,3E0],"tree_param":{"num_deleted":"0","num_feature":"21","num_nodes":"45","size_leaf_vector":"1"}},{"base_weights":[1.1578252E-2,4.2362356E-1,-1.2025374E0,5.4981273E-1,6.987788E-2,-6.2442523E-1,-1.5673608E0,2.0598872E-1,6.388958E-1,1.4846733E-1,-6.2401213E-2,-2.1787224E-2,-1.0349331E0,-1.6901E0,-9.4918066E-1,4.8446903E-1,-2.8293306E-1,8.4141344E-1,4.0172988E-1,-3.306353E-1,3.2909444E-1,-1.6093597E-2,5.3065974E-2,-6.675522E-2,-5.990653E-1,-7.303419E-2,-2.0130918E0,-4.23846E-1,-6.4978465E-2,1.3538651E-2,4.0795542E-2,-1.6280793E-2,-2.2075928E-3,4.4055782E-2,2.669054E-2,2.3618363E-2,1.4818531E-2,-2.6280329E-2,4.687695E-4,1.9488854E-2,-4.0264804E-2,-0E0,9.655861E-3,-4.335798E-2,-1.2179392E-2,-5.0005592E-2,-1.07682705E-1,2.2954883E-3,-4.650396E-2],"categories":[],"categories_nodes":[],"categories_segments":[],"categories_sizes":[],"default_left":[0,0,0,0,0,0,0,0,0,0,0,0,0,0,0,0,0,0,0,0,0,0,0,0,0,0,0,0,0,0,0,0,0,0,0,0,0,0,0,0,0,0,0,0,0,0,0,0,0],"id":14,"left_children":[1,3,5,7,9,11,13,15,17,19,-1,21,23,25,27,29,31,33,35,37,39,-1,41,-1,43,-1,45,47,-1,-1,-1,-1,-1,-1,-1,-1,-1,-1,-1,-1,-1,-1,-1,-1,-1,-1,-1,-1,-1],"loss_changes":[2.6657553E2,1.766587E1,2.7274826E1,8.758179E0,1.1054094E1,1.3230711E1,4.353592E0,8.598842E0,1.0680695E1,8.849089E0,0E0,5.605939E-1,3.193489E0,1.6768036E0,2.221982E0,2.5035162E0,1.8305922E-1,9.0249634E-1,5.943413E-1,1.9127357E0,5.366331E0,0E0,1.3296735E-1,0E0,1.1072183E0,0E0,1.0904007E0,2.0335646E0,0E0,0E0,0E0,0E0,0E0,0E0,0E0,0E0,0E0,0E0,0E0,0E0,0E0,0E0,0E0,0E0,0E0,0E0,0E0,0E0,0E0],"parents":[2147483647,0,0,1,1,2,2,3,3,4,4,5,5,6,6,7,7,8,8,9,9,11,11,12,12,13,13,14,14,15,15,16,16,17,17,18,18,19,19,20,20,22,22,24,24,26,26,27,27],"right_children":[2,4,6,8,10,12,14,16,18,20,-1,22,24,26,28,30,32,34,36,38,40,-1,42,-1,44,-1,46,48,-1,-1,-1,-1,-1,-1,-1,-1,-1,-1,-1,-1,-1,-1,-1,-1,-1,-1,-1,-1,-1],"split_conditions":[5.924E1,3.972E1,1.65E-1,2.88E2,2.58E-1,7.161E1,4.82E1,6.26E0,9E-1,4.7E2,-6.2401213E-2,4.53E1,4.9E1,2.2651E3,6.42E1,1.1751E3,8.435E2,3.326E1,2.245E1,4.6E-1,1.005E2,-1.6093597E-2,1.42E-1,-6.675522E-2,7.91E2,-7.303419E-2,1.76E-1,2.17E-1,-6.4978465E-2,1.3538651E-2,4.0795542E-2,-1.6280793E-2,-2.2075928E-3,4.4055782E-2,2.669054E-2,2.3618363E-2,1.4818531E-2,-2.6280329E-2,4.687695E-4,1.9488854E-2,-4.0264804E-2,-0E0,9.655861E-3,-4.335798E-2,-1.2179392E-2,-5.0005592E-2,-1.07682705E-1,2.2954883E-3,-4.650396E-2],"split_indices":[4,4,14,1,14,4,11,3,2,1,0,11,11,0,4,0,8,3,2,2,12,0,14,0,1,0,14,14,0,0,0,0,0,0,0,0,0,0,0,0,0,0,0,0,0,0,0,0,0],"split_type":[0,0,0,0,0,0,0,0,0,0,0,0,0,0,0,0,0,0,0,0,0,0,0,0,0,0,0,0,0,0,0,0,0,0,0,0,0,0,0,0,0,0,0,0,0,0,0,0,0],"sum_hessian":[5.31E2,3.97E2,1.34E2,2.92E2,1.05E2,5.3E1,8.1E1,6.1E1,2.31E2,1E2,5E0,2.2E1,3.1E1,6.6E1,1.5E1,3.9E1,2.2E1,1.23E2,1.08E2,2.7E1,7.3E1,4E0,1.8E1,1.7E1,1.4E1,4.2E1,2.4E1,7E0,8E0,2.5E1,1.4E1,1.8E1,4E0,1.07E2,1.6E1,6.2E1,4.6E1,1.7E1,1E1,7E1,3E0,1.4E1,4E0,7E0,7E0,4E0,2E1,4E0,3E0],"tree_param":{"num_deleted":"0","num_feature":"21","num_nodes":"49","size_leaf_vector":"1"}},{"base_weights":[-2.3843681E-2,3.6047167E-1,-1.1689869E0,4.954676E-1,-3.67114E-2,-1.4496809E0,-5.5444854E-1,1.482721E-1,5.82316E-1,1.00180745E-1,-1.0208851E0,-9.2041874E-1,-8.185199E-2,-1.0061452E0,-2.9172873E-1,4.4743377E-1,-2.6347804E-1,7.852229E-1,3.670624E-1,-3.7239507E-1,2.7140126E-1,-3.170539E-1,-7.8229494E-2,-1.1415796E-1,-5.9595108E-2,-6.030545E-1,-6.2077153E-2,-1.2745139E-1,-3.9950203E-2,-4.229584E-3,2.8886307E-2,-1.4944171E-2,-3.6539347E-3,4.198446E-2,2.5141036E-2,2.0704266E-2,9.215641E-3,-4.9101852E-2,-1.0927744E-3,1.6611421E-2,-3.875488E-2,1.21594E-2,-4.115162E-2,-3.1660456E-2,1.5195726E-2,-1.4351237E-3,-4.609626E-2,-8.073316E-4,-3.274693E-2],"categories":[],"categories_nodes":[],"categories_segments":[],"categories_sizes":[],"default_left":[0,0,0,0,0,0,0,0,0,0,0,0,0,0,0,0,0,0,0,0,0,0,0,0,0,0,0,0,0,0,0,0,0,0,0,0,0,0,0,0,0,0,0,0,0,0,0,0,0],"id":15,"left_children":[1,3,5,7,9,11,13,15,17,19,21,23,-1,25,27,29,31,33,35,37,39,41,-1,43,-1,45,-1,47,-1,-1,-1,-1,-1,-1,-1,-1,-1,-1,-1,-1,-1,-1,-1,-1,-1,-1,-1,-1,-1],"loss_changes":[2.4167491E2,2.21011E1,2.280043E1,9.097687E0,1.4340536E1,7.558716E0,4.9168262E0,7.896616E0,1.0297272E1,7.6160326E0,4.2905703E0,5.643261E0,0E0,5.850086E-1,2.305535E0,2.662982E0,1.22973084E-1,1.3662109E0,9.0364265E-1,5.220738E0,4.605457E0,2.242428E0,0E0,1.9613789E0,0E0,1.3436282E0,0E0,1.3314004E0,0E0,0E0,0E0,0E0,0E0,0E0,0E0,0E0,0E0,0E0,0E0,0E0,0E0,0E0,0E0,0E0,0E0,0E0,0E0,0E0,0E0],"parents":[2147483647,0,0,1,1,2,2,3,3,4,4,5,5,6,6,7,7,8,8,9,9,10,10,11,11,13,13,14,14,15,15,16,16,17,17,18,18,19,19,20,20,21,21,23,23,25,25,27,27],"right_children":[2,4,6,8,10,12,14,16,18,20,22,24,-1,26,28,30,32,34,36,38,40,42,-1,44,-1,46,-1,48,-1,-1,-1,-1,-1,-1,-1,-1,-1,-1,-1,-1,-1,-1,-1,-1,-1,-1,-1,-1,-1],"split_conditions":[5.924E1,4.093E1,4.82E1,2.88E2,2.52E-1,1.67E-1,6.027E1,5.6E0,4.6E-1,4.7E2,3.87E-1,6.775E1,-8.185199E-2,5.6E1,8.083E1,6.9E1,8.435E2,3.326E1,3.191E1,8.105E2,1.005E2,4.29E2,-7.8229494E-2,6.209E1,-5.9595108E-2,6.838E1,-6.2077153E-2,2.17E-1,-3.9950203E-2,-4.229584E-3,2.8886307E-2,-1.4944171E-2,-3.6539347E-3,4.198446E-2,2.5141036E-2,2.0704266E-2,9.215641E-3,-4.9101852E-2,-1.0927744E-3,1.6611421E-2,-3.875488E-2,1.21594E-2,-4.115162E-2,-3.1660456E-2,1.5195726E-2,-1.4351237E-3,-4.609626E-2,-8.073316E-4,-3.274693E-2],"split_indices":[4,4,11,1,14,14,2,3,2,1,6,4,0,15,2,16,8,3,2,8,12,1,0,2,0,3,0,14,0,0,0,0,0,0,0,0,0,0,0,0,0,0,0,0,0,0,0,0,0],"split_type":[0,0,0,0,0,0,0,0,0,0,0,0,0,0,0,0,0,0,0,0,0,0,0,0,0,0,0,0,0,0,0,0,0,0,0,0,0,0,0,0,0,0,0,0,0,0,0,0,0],"sum_hessian":[5.47E2,4.1E2,1.37E2,3.06E2,1.04E2,9.3E1,4.4E1,6.2E1,2.44E2,9.2E1,1.2E1,2.6E1,6.7E1,1.5E1,2.9E1,3.6E1,2.6E1,1.24E2,1.2E2,2.4E1,6.8E1,6E0,6E0,7E0,1.9E1,7E0,8E0,2.3E1,6E0,7E0,2.9E1,2.1E1,5E0,1.02E2,2.2E1,9.4E1,2.6E1,8E0,1.6E1,6.5E1,3E0,3E0,3E0,3E0,4E0,3E0,4E0,2E1,3E0],"tree_param":{"num_deleted":"0","num_feature":"21","num_nodes":"49","size_leaf_vector":"1"}},{"base_weights":[-1.4870695E-2,1.7353536E-1,-1.1042837E0,3.594886E-1,-1.0053941E0,-1.4257E0,-1.8982673E-1,4.564504E-1,5.8557518E-2,-5.828568E-1,-1.4639062E0,-1.1255748E0,-1.9046464E0,-4.3827023E-2,-3.8718436E-2,8.870708E-2,5.8101374E-1,-1.678141E-1,2.10199E-1,-9.1152525E-1,2.7283639E-2,-9.897699E-1,-8.3338626E-2,-5.2074933E-1,-6.355091E-2,-5.6338638E-2,-2.0821528E0,-6.938739E-3,6.8780896E-3,2.356053E-2,-2.1246454E-2,3.4862276E-2,2.0276565E-2,9.974004E-3,-2.5667643E-2,2.8626397E-3,1.4752475E-2,-1.9122485E-2,-5.405279E-2,-5.5879842E-2,-2.3083674E-2,-4.7445495E-2,1.13339415E-2,-6.553239E-2,-1.2198754E-1,-5.761406E-4,3.57803E-3],"categories":[],"categories_nodes":[],"categories_segments":[],"categories_sizes":[],"default_left":[0,0,0,0,0,0,0,0,0,0,0,0,0,0,0,0,0,0,0,0,0,0,0,0,0,0,0,0,0,0,0,0,0,0,0,0,0,0,0,0,0,0,0,0,0,0,0],"id":16,"left_children":[1,3,5,7,9,11,13,15,17,19,21,23,25,27,-1,29,31,33,35,37,-1,39,-1,41,-1,-1,43,-1,45,-1,-1,-1,-1,-1,-1,-1,-1,-1,-1,-1,-1,-1,-1,-1,-1,-1,-1],"loss_changes":[1.0578424E2,9.653694E1,2.190583E1,1.1009716E1,1.0566391E1,5.6028137E0,1.676444E0,1.3028202E1,3.2662816E0,1.2774077E1,7.7783585E-1,2.4137497E0,9.454346E-2,1.0080225E-1,0E0,1.47434635E1,3.9718475E0,4.9565372E0,6.8759847E-1,1.772255E0,0E0,6.86636E-2,0E0,3.1674943E0,0E0,0E0,5.656357E-1,0E0,2.1110956E-2,0E0,0E0,0E0,0E0,0E0,0E0,0E0,0E0,0E0,0E0,0E0,0E0,0E0,0E0,0E0,0E0,0E0,0E0],"parents":[2147483647,0,0,1,1,2,2,3,3,4,4,5,5,6,6,7,7,8,8,9,9,10,10,11,11,12,12,13,13,15,15,16,16,17,17,18,18,19,19,21,21,23,23,26,26,28,28],"right_children":[2,4,6,8,10,12,14,16,18,20,22,24,26,28,-1,30,32,34,36,38,-1,40,-1,42,-1,-1,44,-1,46,-1,-1,-1,-1,-1,-1,-1,-1,-1,-1,-1,-1,-1,-1,-1,-1,-1,-1],"split_conditions":[6.34E1,4.928E1,4.9E1,3.191E1,1.83E-1,2.04E-1,8.315E1,3.8E2,5.26E1,7.91E2,6.3E2,7.041E1,2.956E-1,1.6595E3,-3.8718436E-2,7.65E0,4.6E-1,4.721E1,1.2477E3,4.61E2,2.7283639E-2,9.89E1,-8.3338626E-2,5.15E1,-6.355091E-2,-5.6338638E-2,2.0354E3,-6.938739E-3,2.38E-1,2.356053E-2,-2.1246454E-2,3.4862276E-2,2.0276565E-2,9.974004E-3,-2.5667643E-2,2.8626397E-3,1.4752475E-2,-1.9122485E-2,-5.405279E-2,-5.5879842E-2,-2.3083674E-2,-4.7445495E-2,1.13339415E-2,-6.553239E-2,-1.2198754E-1,-5.761406E-4,3.57803E-3],"split_indices":[2,3,11,2,14,14,2,1,10,1,1,2,5,0,0,3,2,2,0,1,0,12,0,10,0,0,0,0,5,0,0,0,0,0,0,0,0,0,0,0,0,0,0,0,0,0,0],"split_type":[0,0,0,0,0,0,0,0,0,0,0,0,0,0,0,0,0,0,0,0,0,0,0,0,0,0,0,0,0,0,0,0,0,0,0,0,0,0,0,0,0,0,0,0,0,0,0],"sum_hessian":[5.13E2,4.38E2,7.5E1,3.79E2,5.9E1,5.5E1,2E1,2.86E2,9.3E1,3.2E1,2.7E1,3.6E1,1.9E1,1.7E1,3E0,7.3E1,2.13E2,3.7E1,5.6E1,2.5E1,7E0,1E1,1.7E1,8E0,2.8E1,5E0,1.4E1,6E0,1.1E1,4.2E1,3.1E1,1.26E2,8.7E1,1.8E1,1.9E1,2.1E1,3.5E1,7E0,1.8E1,7E0,3E0,5E0,3E0,6E0,8E0,8E0,3E0],"tree_param":{"num_deleted":"0","num_feature":"21","num_nodes":"47","size_leaf_vector":"1"}},{"base_weights":[-1.527548E-2,4.2062005E-1,-8.172163E-1,5.6489867E-1,2.1761954E-1,-4.3920207E-1,-1.2698145E0,2.2746404E-1,6.451017E-1,-2.4539047E-1,3.5299197E-1,-7.86704E-1,-6.75E-2,-5.1521957E-1,-1.4809235E0,5.0252306E-1,-2.578026E-1,4.5780757E-1,8.3484936E-1,1.9470515E-2,-7.1885306E-1,5.418945E-1,2.2596727E-1,-4.0745956E-1,-1.1331075E0,4.123814E-2,-5.906378E-1,-6.355472E-1,-3.5635376E-4,-1.3016893E0,-1.9045442E0,1.4130346E-2,4.7475435E-2,-1.5649527E-2,-1.3940809E-4,1.8954925E-2,3.7872907E-2,4.477712E-2,2.5678445E-2,-1.4588356E-2,9.541627E-3,-1.10709425E-2,-5.8135875E-2,3.0176876E-2,-1.0020982E-2,6.195583E-3,1.5664924E-2,7.059488E-3,-4.3122914E-2,-2.2420986E-2,-5.979214E-2,7.322599E-3,-1.0256813E-2,-6.988825E-3,-4.516858E-2,-3.592089E-2,-9.116553E-3,-4.850059E-2,-7.4676774E-2,-1.1617459E-1,-6.314347E-2],"categories":[],"categories_nodes":[],"categories_segments":[],"categories_sizes":[],"default_left":[0,0,0,0,0,0,0,0,0,0,0,0,0,0,0,0,0,0,0,0,0,0,0,0,0,0,0,0,0,0,0,0,0,0,0,0,0,0,0,0,0,0,0,0,0,0,0,0,0,0,0,0,0,0,0,0,0,0,0,0,0],"id":17,"left_children":[1,3,5,7,9,11,13,15,17,19,21,23,25,27,29,31,33,35,37,39,41,43,45,47,49,51,53,55,-1,57,59,-1,-1,-1,-1,-1,-1,-1,-1,-1,-1,-1,-1,-1,-1,-1,-1,-1,-1,-1,-1,-1,-1,-1,-1,-1,-1,-1,-1,-1,-1],"loss_changes":[1.8460278E2,9.815529E0,3.1093864E1,5.1516075E0,9.123127E0,1.3165699E1,1.2418747E1,5.4931035E0,5.1747055E0,4.2221932E0,2.4882355E0,6.346943E0,2.9804337E0,1.1539545E0,2.1355286E0,2.1642337E0,1.786552E-1,1.5567646E0,9.201317E-1,1.21894E0,2.2536597E0,2.1746445E0,5.3242993E-1,6.9340353E0,4.590912E-1,1.1388199E0,1.0384109E0,3.7986755E-1,0E0,1.4228134E0,1.2771759E0,0E0,0E0,0E0,0E0,0E0,0E0,0E0,0E0,0E0,0E0,0E0,0E0,0E0,0E0,0E0,0E0,0E0,0E0,0E0,0E0,0E0,0E0,0E0,0E0,0E0,0E0,0E0,0E0,0E0,0E0],"parents":[2147483647,0,0,1,1,2,2,3,3,4,4,5,5,6,6,7,7,8,8,9,9,10,10,11,11,12,12,13,13,14,14,15,15,16,16,17,17,18,18,19,19,20,20,21,21,22,22,23,23,24,24,25,25,26,26,27,27,29,29,30,30],"right_children":[2,4,6,8,10,12,14,16,18,20,22,24,26,28,30,32,34,36,38,40,42,44,46,48,50,52,54,56,-1,58,60,-1,-1,-1,-1,-1,-1,-1,-1,-1,-1,-1,-1,-1,-1,-1,-1,-1,-1,-1,-1,-1,-1,-1,-1,-1,-1,-1,-1,-1,-1],"split_conditions":[4.966E1,2.562E1,6.95E1,2.1E2,3.98E2,5.26E1,1.4E-1,3.5E0,7.156E2,1.5998E3,4.6E-1,1.82E-1,5.65E1,8.702E2,1.446E3,8.8E-1,8.692E2,6E-1,1.777E3,4.6E-1,4.045E1,2.47E-1,1.0153E3,5.558E1,3.98E2,6.239E1,5.6E1,2.4033E3,-3.5635376E-4,1.83E-1,2.257E3,1.4130346E-2,4.7475435E-2,-1.5649527E-2,-1.3940809E-4,1.8954925E-2,3.7872907E-2,4.477712E-2,2.5678445E-2,-1.4588356E-2,9.541627E-3,-1.10709425E-2,-5.8135875E-2,3.0176876E-2,-1.0020982E-2,6.195583E-3,1.5664924E-2,7.059488E-3,-4.3122914E-2,-2.2420986E-2,-5.979214E-2,7.322599E-3,-1.0256813E-2,-6.988825E-3,-4.516858E-2,-3.592089E-2,-9.116553E-3,-4.850059E-2,-7.4676774E-2,-1.1617459E-1,-6.314347E-2],"split_indices":[4,4,4,1,1,10,14,3,0,0,2,14,3,9,1,3,9,3,1,2,4,14,0,4,1,2,15,0,0,14,1,0,0,0,0,0,0,0,0,0,0,0,0,0,0,0,0,0,0,0,0,0,0,0,0,0,0,0,0,0,0],"split_type":[0,0,0,0,0,0,0,0,0,0,0,0,0,0,0,0,0,0,0,0,0,0,0,0,0,0,0,0,0,0,0,0,0,0,0,0,0,0,0,0,0,0,0,0,0,0,0,0,0,0,0,0,0,0,0,0,0,0,0,0,0],"sum_hessian":[5.26E2,3.41E2,1.85E2,1.98E2,1.43E2,1.02E2,8.3E1,3.9E1,1.59E2,3.2E1,1.11E2,5.2E1,5E1,1.9E1,6.4E1,2.5E1,1.4E1,8.2E1,7.7E1,2.1E1,1.1E1,4.3E1,6.8E1,2.6E1,2.6E1,4.2E1,8E0,1.5E1,4E0,4.8E1,1.6E1,1.8E1,7E0,1.1E1,3E0,6.7E1,1.5E1,6.3E1,1.4E1,7E0,1.4E1,6E0,5E0,4E1,3E0,3.3E1,3.5E1,1.2E1,1.4E1,3E0,2.3E1,3E1,1.2E1,4E0,4E0,1.2E1,3E0,2E1,2.8E1,8E0,8E0],"tree_param":{"num_deleted":"0","num_feature":"21","num_nodes":"61","size_leaf_vector":"1"}},{"base_weights":[-2.2670191E-3,3.55998E-1,-9.9429995E-1,5.0040245E-1,1.04833335E-1,-1.2729098E0,-3.1722918E-1,6.0954773E-1,3.5143295E-1,1.5293786E-1,-5.252405E-2,-1.0941001E0,-1.5473447E0,-1.7408338E-1,-4.6356242E-2,1.99565E-1,7.174599E-1,4.0790018E-1,2.6961932E-1,1.0182171E-2,3.6271042E-1,-1.1334254E0,-8.810173E-3,-5.6417E-2,-8.981209E-2,-4.8956567E-1,-1.7934501E-2,4.3405544E-2,-9.360122E-3,3.2964688E-2,4.531848E-2,2.0996105E-2,5.0298264E-3,5.4572388E-3,1.639168E-2,6.244796E-3,-2.318165E-2,2.5644714E-2,-1.1892834E-3,-5.8919426E-2,-2.4660526E-2,-7.889679E-3,-5.4433078E-2,1.3673382E-2,-4.3946253E-3],"categories":[],"categories_nodes":[],"categories_segments":[],"categories_sizes":[],"default_left":[0,0,0,0,0,0,0,0,0,0,0,0,0,0,0,0,0,0,0,0,0,0,0,0,0,0,0,0,0,0,0,0,0,0,0,0,0,0,0,0,0,0,0,0,0],"id":18,"left_children":[1,3,5,7,9,11,13,15,17,19,-1,21,23,25,-1,27,29,31,33,35,37,39,-1,-1,-1,41,43,-1,-1,-1,-1,-1,-1,-1,-1,-1,-1,-1,-1,-1,-1,-1,-1,-1,-1],"loss_changes":[1.9553828E2,1.4539814E1,2.6978424E1,3.8520737E0,8.351706E0,3.0972748E0,3.5698576E0,6.224468E0,3.350668E-1,4.2712736E0,0E0,2.0516891E0,1.643753E0,1.7631717E0,0E0,8.5049E0,5.095062E-1,1.3845158E-1,3.782742E-1,4.752753E0,3.4277482E0,1.0651627E0,0E0,0E0,0E0,2.0887299E0,5.355119E-1,0E0,0E0,0E0,0E0,0E0,0E0,0E0,0E0,0E0,0E0,0E0,0E0,0E0,0E0,0E0,0E0,0E0,0E0],"parents":[2147483647,0,0,1,1,2,2,3,3,4,4,5,5,6,6,7,7,8,8,9,9,11,11,12,12,13,13,15,15,16,16,17,17,18,18,19,19,20,20,21,21,25,25,26,26],"right_children":[2,4,6,8,10,12,14,16,18,20,-1,22,24,26,-1,28,30,32,34,36,38,40,-1,-1,-1,42,44,-1,-1,-1,-1,-1,-1,-1,-1,-1,-1,-1,-1,-1,-1,-1,-1,-1,-1],"split_conditions":[5.712E1,3.246E1,4.9E1,4.6E-1,2.58E-1,2.2288E3,8.294E1,2.38E2,1.659E1,1.792E3,-5.252405E-2,8.504E2,1.76E-1,5.99E2,-4.6356242E-2,3.62E0,8.435E2,2.58E-1,5.958E2,3.538E1,4.966E1,2.28E0,-8.810173E-3,-5.6417E-2,-8.981209E-2,1.8E-1,6.107E1,4.3405544E-2,-9.360122E-3,3.2964688E-2,4.531848E-2,2.0996105E-2,5.0298264E-3,5.4572388E-3,1.639168E-2,6.244796E-3,-2.318165E-2,2.5644714E-2,-1.1892834E-3,-5.8919426E-2,-2.4660526E-2,-7.889679E-3,-5.4433078E-2,1.3673382E-2,-4.3946253E-3],"split_indices":[4,4,11,2,14,0,4,1,2,1,0,8,14,1,0,3,8,14,0,3,4,17,0,0,0,14,2,0,0,0,0,0,0,0,0,0,0,0,0,0,0,0,0,0,0],"split_type":[0,0,0,0,0,0,0,0,0,0,0,0,0,0,0,0,0,0,0,0,0,0,0,0,0,0,0,0,0,0,0,0,0,0,0,0,0,0,0,0,0,0,0,0,0],"sum_hessian":[5.48E2,4.03E2,1.45E2,2.55E2,1.48E2,1.02E2,4.3E1,1.45E2,1.1E2,1.43E2,5E0,6.5E1,3.7E1,3.6E1,7E0,3.1E1,1.14E2,6.2E1,4.8E1,8.6E1,5.7E1,6.2E1,3E0,1.6E1,2.1E1,1.1E1,2.5E1,1.1E1,2E1,9.1E1,2.3E1,5.9E1,3E0,1.4E1,3.4E1,7E1,1.6E1,4.1E1,1.6E1,5.7E1,5E0,8E0,3E0,4E0,2.1E1],"tree_param":{"num_deleted":"0","num_feature":"21","num_nodes":"45","size_leaf_vector":"1"}},{"base_weights":[-1.3310943E-3,3.0574873E-1,-9.325479E-1,4.1723686E-1,2.9233965E-4,-1.1197762E0,-1.8687837E-1,9.008893E-2,4.999551E-1,7.562811E-2,-1.0939758E0,-4.1474065E-1,-1.2214692E0,2.0980306E-2,-6.391334E-1,3.766443E-1,-2.1523978E-1,6.568437E-1,3.2679394E-1,-2.6375115E-1,2.3371103E-1,-6.7133896E-2,-2.7338982E-2,-5.4542005E-2,3.0070144E-1,-9.910954E-1,-1.3931613E0,1.0580682E-2,-5.000505E-2,-3.7882585E-2,-1.3828628E-2,7.4039786E-3,3.6845617E-2,-1.3413701E-4,-1.3205029E-2,3.0225521E-2,4.2573687E-2,1.9952422E-2,1.201055E-2,-3.7137568E-3,-5.436737E-2,6.075583E-3,2.3677047E-2,1.9279737E-2,4.7204723E-3,-3.8078543E-2,-7.561182E-2,-3.90121E-2,-7.283678E-2,-1.0343735E-2,-0E0],"categories":[],"categories_nodes":[],"categories_segments":[],"categories_sizes":[],"default_left":[0,0,0,0,0,0,0,0,0,0,0,0,0,0,0,0,0,0,0,0,0,0,0,0,0,0,0,0,0,0,0,0,0,0,0,0,0,0,0,0,0,0,0,0,0,0,0,0,0,0,0],"id":19,"left_children":[1,3,5,7,9,11,13,15,17,19,21,23,25,27,29,31,33,35,37,39,41,-1,-1,-1,43,45,47,-1,49,-1,-1,-1,-1,-1,-1,-1,-1,-1,-1,-1,-1,-1,-1,-1,-1,-1,-1,-1,-1,-1,-1],"loss_changes":[1.5333528E2,1.3682194E1,1.8228249E1,7.878975E0,8.966591E0,6.9297028E0,2.707368E0,5.434318E0,6.071232E0,5.5845947E0,2.952671E-2,7.6626816E0,2.0197296E0,2.973861E-1,7.376289E-2,2.4374046E0,2.8418446E-1,5.823288E-1,5.534029E-1,4.9527826E0,1.7934763E0,0E0,0E0,0E0,5.5698276E-2,3.7643738E0,5.8799744E-1,0E0,1.33681E-1,0E0,0E0,0E0,0E0,0E0,0E0,0E0,0E0,0E0,0E0,0E0,0E0,0E0,0E0,0E0,0E0,0E0,0E0,0E0,0E0,0E0,0E0],"parents":[2147483647,0,0,1,1,2,2,3,3,4,4,5,5,6,6,7,7,8,8,9,9,10,10,11,11,12,12,13,13,14,14,15,15,16,16,17,17,18,18,19,19,20,20,24,24,25,25,26,26,28,28],"right_children":[2,4,6,8,10,12,14,16,18,20,22,24,26,28,30,32,34,36,38,40,42,-1,-1,-1,44,46,48,-1,50,-1,-1,-1,-1,-1,-1,-1,-1,-1,-1,-1,-1,-1,-1,-1,-1,-1,-1,-1,-1,-1,-1],"split_conditions":[5.924E1,3.972E1,5.06E1,2.94E2,2.58E-1,6.318E1,7.999E1,3.62E0,4.6E-1,4.7E2,4.6E-1,6.027E1,7.952E1,6.42E1,7.91E2,1.1751E3,5.5E1,8.435E2,1.866E1,2.22E0,1.5615E3,-6.7133896E-2,-2.7338982E-2,-5.4542005E-2,8.104E2,5.06E0,6.44E2,1.0580682E-2,1.4791E3,-3.7882585E-2,-1.3828628E-2,7.4039786E-3,3.6845617E-2,-1.3413701E-4,-1.3205029E-2,3.0225521E-2,4.2573687E-2,1.9952422E-2,1.201055E-2,-3.7137568E-3,-5.436737E-2,6.075583E-3,2.3677047E-2,1.9279737E-2,4.7204723E-3,-3.8078543E-2,-7.561182E-2,-3.90121E-2,-7.283678E-2,-1.0343735E-2,-0E0],"split_indices":[4,4,11,1,14,4,4,3,2,1,2,2,4,2,1,0,15,8,2,17,0,0,0,0,8,19,1,0,0,0,0,0,0,0,0,0,0,0,0,0,0,0,0,0,0,0,0,0,0,0,0],"split_type":[0,0,0,0,0,0,0,0,0,0,0,0,0,0,0,0,0,0,0,0,0,0,0,0,0,0,0,0,0,0,0,0,0,0,0,0,0,0,0,0,0,0,0,0,0,0,0,0,0,0,0],"sum_hessian":[5.34E2,4.02E2,1.32E2,2.94E2,1.08E2,1.05E2,2.7E1,6E1,2.34E2,1.02E2,6E0,1.4E1,9.1E1,1.9E1,8E0,3.1E1,2.9E1,1.21E2,1.13E2,3.2E1,7E1,3E0,3E0,7E0,7E0,4.2E1,4.9E1,5E0,1.4E1,5E0,3E0,2E1,1.1E1,6E0,2.3E1,9.9E1,2.2E1,5.9E1,5.4E1,2.7E1,5E0,4.9E1,2.1E1,4E0,3E0,3.1E1,1.1E1,6E0,4.3E1,3E0,1.1E1],"tree_param":{"num_deleted":"0","num_feature":"21","num_nodes":"51","size_leaf_vector":"1"}},{"base_weights":[-2.28647E-2,2.8435E-1,-8.6086875E-1,3.8617253E-1,-2.6065243E-2,-1.0905925E0,-3.012683E-1,1.16053455E-1,4.5996696E-1,-2.986382E-1,1.4699067E-1,-6.9074124E-1,-1.25967E0,-1.6093208E-1,-4.0901396E-2,3.971003E-1,-2.311061E-1,6.191971E-1,2.8755987E-1,-6.642132E-2,-8.746065E-1,2.3290834E-1,-3.044803E-1,1.7312245E-2,-8.0931467E-1,-1.4045471E0,-9.8344636E-1,-3.7991467E-1,-3.1444326E-2,2.5624264E-2,1.2156172E-3,-1.382474E-3,-1.2874876E-2,2.7831018E-2,4.2237606E-2,1.7591296E-2,9.248298E-3,-3.6968328E-2,1.1019239E-2,-6.789713E-2,-1.1441794E-2,7.402902E-3,2.475356E-2,-2.5374923E-2,5.096077E-3,-5.861793E-2,-1.807234E-2,-6.291907E-2,-9.1101855E-2,-1.8046534E-2,-5.198555E-2,-3.399062E-2,-4.7501023E-3,1.2060885E-2,-4.3322253E-3],"categories":[],"categories_nodes":[],"categories_segments":[],"categories_sizes":[],"default_left":[0,0,0,0,0,0,0,0,0,0,0,0,0,0,0,0,0,0,0,0,0,0,0,0,0,0,0,0,0,0,0,0,0,0,0,0,0,0,0,0,0,0,0,0,0,0,0,0,0,0,0,0,0,0,0],"id":20,"left_children":[1,3,5,7,9,11,13,15,17,19,21,23,25,27,-1,29,31,33,35,37,39,41,43,-1,45,47,49,51,53,-1,-1,-1,-1,-1,-1,-1,-1,-1,-1,-1,-1,-1,-1,-1,-1,-1,-1,-1,-1,-1,-1,-1,-1,-1,-1],"loss_changes":[1.4009625E2,1.2625771E1,1.8301064E1,5.8689995E0,4.728927E0,5.898247E0,2.9613419E0,6.5478663E0,6.1825867E0,5.064037E0,2.4299083E0,4.3841753E0,1.2212143E0,9.677183E-1,0E0,1.5253835E0,1.2545085E-1,1.0975075E0,6.3947487E-1,5.811982E0,2.9639435E0,1.0191071E0,9.173522E-1,0E0,4.300745E0,8.414459E-2,4.6538925E-1,9.687153E-1,3.6666673E-1,0E0,0E0,0E0,0E0,0E0,0E0,0E0,0E0,0E0,0E0,0E0,0E0,0E0,0E0,0E0,0E0,0E0,0E0,0E0,0E0,0E0,0E0,0E0,0E0,0E0,0E0],"parents":[2147483647,0,0,1,1,2,2,3,3,4,4,5,5,6,6,7,7,8,8,9,9,10,10,11,11,12,12,13,13,15,15,16,16,17,17,18,18,19,19,20,20,21,21,22,22,24,24,25,25,26,26,27,27,28,28],"right_children":[2,4,6,8,10,12,14,16,18,20,22,24,26,28,-1,30,32,34,36,38,40,42,44,-1,46,48,50,52,54,-1,-1,-1,-1,-1,-1,-1,-1,-1,-1,-1,-1,-1,-1,-1,-1,-1,-1,-1,-1,-1,-1,-1,-1,-1,-1],"split_conditions":[5.712E1,4.096E1,4.9E1,3.32E2,4.59E1,6.834E1,8.294E1,5.6E0,4.6E-1,4.55E1,4.966E1,3.32E2,4.59E1,6.44E2,-4.0901396E-2,4.2E-2,1.46E0,8.435E2,2.509E1,4.09E2,8.113E2,2.029E3,5.558E1,1.7312245E-2,1.243E3,4.21E-2,7.161E1,3.34E0,6.107E1,2.5624264E-2,1.2156172E-3,-1.382474E-3,-1.2874876E-2,2.7831018E-2,4.2237606E-2,1.7591296E-2,9.248298E-3,-3.6968328E-2,1.1019239E-2,-6.789713E-2,-1.1441794E-2,7.402902E-3,2.475356E-2,-2.5374923E-2,5.096077E-3,-5.861793E-2,-1.807234E-2,-6.291907E-2,-9.1101855E-2,-1.8046534E-2,-5.198555E-2,-3.399062E-2,-4.7501023E-3,1.2060885E-2,-4.3322253E-3],"split_indices":[4,4,11,1,11,4,4,3,2,11,3,1,11,1,0,7,17,8,2,1,8,1,3,0,1,7,4,19,2,0,0,0,0,0,0,0,0,0,0,0,0,0,0,0,0,0,0,0,0,0,0,0,0,0,0],"split_type":[0,0,0,0,0,0,0,0,0,0,0,0,0,0,0,0,0,0,0,0,0,0,0,0,0,0,0,0,0,0,0,0,0,0,0,0,0,0,0,0,0,0,0,0,0,0,0,0,0,0,0,0,0,0,0],"sum_hessian":[5.42E2,3.97E2,1.45E2,2.99E2,9.8E1,1.02E2,4.3E1,6.5E1,2.34E2,3.8E1,6E1,3.2E1,7E1,3.5E1,8E0,3.6E1,2.9E1,1.2E2,1.14E2,2.8E1,1E1,5.1E1,9E0,3E0,2.9E1,4.3E1,2.7E1,1.2E1,2.3E1,2.7E1,9E0,4E0,2.5E1,9.7E1,2.3E1,6.8E1,4.6E1,8E0,2E1,5E0,5E0,4E1,1.1E1,6E0,3E0,1.5E1,1.4E1,3.5E1,8E0,3E0,2.4E1,5E0,7E0,3E0,2E1],"tree_param":{"num_deleted":"0","num_feature":"21","num_nodes":"55","size_leaf_vector":"1"}},{"base_weights":[6.485668E-3,1.6971317E-1,-9.3948233E-1,3.054649E-1,-7.794297E-1,-1.1401201E0,-1.683543E-1,3.8187683E-1,5.57177E-2,-3.611458E-1,-9.8210996E-1,-8.509518E-1,-1.3995713E0,-2.2569586E-2,-3.2397922E-2,8.192385E-2,4.8840344E-1,1.2109595E-1,-2.3602429E-1,4.8993308E-2,-1.0462459E0,-5.192822E-2,-1.8525384E-2,-9.123774E-1,-7.626091E-3,-4.64811E-2,-8.5394315E-2,-7.748174E-3,4.912371E-2,1.9751502E-2,-1.618897E-2,2.9984755E-2,1.5413681E-2,-4.1187797E-3,9.539885E-3,1.0029926E-2,-3.530235E-2,-1.7517064E-2,2.5633117E-2,-2.3252474E-2,-6.4097695E-2,-4.9485374E-2,-2.1071961E-2,1.5934126E-4,4.6116165E-3],"categories":[],"categories_nodes":[],"categories_segments":[],"categories_sizes":[],"default_left":[0,0,0,0,0,0,0,0,0,0,0,0,0,0,0,0,0,0,0,0,0,0,0,0,0,0,0,0,0,0,0,0,0,0,0,0,0,0,0,0,0,0,0,0,0],"id":21,"left_children":[1,3,5,7,9,11,13,15,17,19,21,23,25,27,-1,29,31,33,35,37,39,-1,-1,41,-1,-1,-1,-1,43,-1,-1,-1,-1,-1,-1,-1,-1,-1,-1,-1,-1,-1,-1,-1,-1],"loss_changes":[8.500687E1,6.0749146E1,1.220932E1,7.7974358E0,4.512886E0,3.385582E0,1.1768643E0,9.96814E0,1.8862997E0,6.0516977E0,8.2087326E-1,1.1701012E0,2.785122E0,1.6057268E-1,0E0,1.0805396E1,4.375225E0,1.1753271E0,3.886184E0,2.7880657E0,3.2506943E-1,0E0,0E0,5.8071136E-1,0E0,0E0,0E0,0E0,9.966908E-3,0E0,0E0,0E0,0E0,0E0,0E0,0E0,0E0,0E0,0E0,0E0,0E0,0E0,0E0,0E0,0E0],"parents":[2147483647,0,0,1,1,2,2,3,3,4,4,5,5,6,6,7,7,8,8,9,9,10,10,11,11,12,12,13,13,15,15,16,16,17,17,18,18,19,19,20,20,23,23,28,28],"right_children":[2,4,6,8,10,12,14,16,18,20,22,24,26,28,-1,30,32,34,36,38,40,-1,-1,42,-1,-1,-1,-1,44,-1,-1,-1,-1,-1,-1,-1,-1,-1,-1,-1,-1,-1,-1,-1,-1],"split_conditions":[6.34E1,4.966E1,4.9E1,3.191E1,5.763E1,2.2491E3,7.603E1,3.98E2,1.6595E3,9.9E1,8.497E2,5.69E0,2.988E-1,1.4791E3,-3.2397922E-2,7.65E0,9E-1,1.0153E3,3.04E-2,4.61E2,3.91E-2,-5.192822E-2,-1.8525384E-2,2.27E0,-7.626091E-3,-4.64811E-2,-8.5394315E-2,-7.748174E-3,2.254E-1,1.9751502E-2,-1.618897E-2,2.9984755E-2,1.5413681E-2,-4.1187797E-3,9.539885E-3,1.0029926E-2,-3.530235E-2,-1.7517064E-2,2.5633117E-2,-2.3252474E-2,-6.4097695E-2,-4.9485374E-2,-2.1071961E-2,1.5934126E-4,4.6116165E-3],"split_indices":[2,3,11,2,3,0,2,1,0,12,8,19,5,0,0,3,2,0,13,1,7,0,0,17,0,0,0,0,5,0,0,0,0,0,0,0,0,0,0,0,0,0,0,0,0],"split_type":[0,0,0,0,0,0,0,0,0,0,0,0,0,0,0,0,0,0,0,0,0,0,0,0,0,0,0,0,0,0,0,0,0,0,0,0,0,0,0,0,0,0,0,0,0],"sum_hessian":[5.49E2,4.69E2,8E1,4.11E2,5.8E1,6.3E1,1.7E1,3.14E2,9.7E1,2E1,3.8E1,3.2E1,3.1E1,1.4E1,3E0,8.3E1,2.31E2,8E1,1.7E1,1.3E1,7E0,3.4E1,4E0,2.9E1,3E0,1.4E1,1.7E1,5E0,9E0,4.7E1,3.6E1,1.41E2,9E1,2E1,6E1,9E0,8E0,7E0,6E0,3E0,4E0,2.4E1,5E0,6E0,3E0],"tree_param":{"num_deleted":"0","num_feature":"21","num_nodes":"45","size_leaf_vector":"1"}},{"base_weights":[-3.3028151E-3,3.01172E-1,-7.4197716E-1,4.271265E-1,1.3684255E-1,-9.7729486E-1,-2.1214493E-1,1.5518995E-1,4.893791E-1,-1.5066642E-1,2.4406669E-1,-6.799818E-1,-1.3001219E0,2.4782747E-3,-7.7135307E-1,-2.3315546E-1,3.8327646E-1,3.444468E-1,6.766962E-1,-4.066738E-2,-4.302744E-2,2.8356448E-1,-2.783672E-2,-1.17186345E-1,-8.8434327E-1,-1.3502429E0,-1.7432012E-2,6.397224E-2,-1.9193878E-2,-4.2980677E-1,-5.186063E-2,-2.823988E-2,-3.3604142E-3,3.6645126E-2,6.4309933E-3,1.4224671E-2,2.997689E-2,3.5661306E-2,6.0532046E-3,-1.474817E-2,1.0540164E-2,1.575768E-2,-3.3525713E-2,-1.8266847E-2,1.9098965E-2,-2.3337336E-2,-4.6837207E-2,-5.434974E-2,-8.0369994E-2,-2.8091695E-3,8.63894E-3,-2.9477287E-2,-4.8840693E-3],"categories":[],"categories_nodes":[],"categories_segments":[],"categories_sizes":[],"default_left":[0,0,0,0,0,0,0,0,0,0,0,0,0,0,0,0,0,0,0,0,0,0,0,0,0,0,0,0,0,0,0,0,0,0,0,0,0,0,0,0,0,0,0,0,0,0,0,0,0,0,0,0,0],"id":22,"left_children":[1,3,5,7,9,11,13,15,17,19,21,23,25,27,29,31,33,35,37,39,-1,41,-1,43,45,47,-1,49,-1,51,-1,-1,-1,-1,-1,-1,-1,-1,-1,-1,-1,-1,-1,-1,-1,-1,-1,-1,-1,-1,-1,-1,-1],"loss_changes":[1.2171771E2,7.8125E0,1.9373001E1,3.5162125E0,5.2251997E0,9.379822E0,6.079751E0,3.824582E0,4.4157486E0,3.4668548E0,4.0210285E0,6.5820217E0,1.7915039E0,8.7163335E-1,6.7874336E-1,7.7940136E-1,2.223515E0,1.2856836E0,1.35252E0,2.692463E0,0E0,3.7321234E0,0E0,2.2436473E0,3.633728E-1,1.2327347E0,0E0,4.5279956E-1,0E0,2.9811645E-1,0E0,0E0,0E0,0E0,0E0,0E0,0E0,0E0,0E0,0E0,0E0,0E0,0E0,0E0,0E0,0E0,0E0,0E0,0E0,0E0,0E0,0E0,0E0],"parents":[2147483647,0,0,1,1,2,2,3,3,4,4,5,5,6,6,7,7,8,8,9,9,10,10,11,11,12,12,13,13,14,14,15,15,16,16,17,17,18,18,19,19,21,21,23,23,24,24,25,25,27,27,29,29],"right_children":[2,4,6,8,10,12,14,16,18,20,22,24,26,28,30,32,34,36,38,40,-1,42,-1,44,46,48,-1,50,-1,52,-1,-1,-1,-1,-1,-1,-1,-1,-1,-1,-1,-1,-1,-1,-1,-1,-1,-1,-1,-1,-1,-1,-1],"split_conditions":[5.395E1,2.562E1,5.41E1,2.1E2,4.33E2,1.95E-1,7.808E1,7.52E1,7.79E2,2.22E0,2.58E-1,6.369E1,2.22E0,5.65E1,1.28E-1,5.4E1,3.62E0,6E-1,7.5E1,4.6E-1,-4.302744E-2,1.005E2,-2.783672E-2,6.006E1,6.95E1,2.0354E3,-1.7432012E-2,1.6595E3,-1.9193878E-2,7.91E2,-5.186063E-2,-2.823988E-2,-3.3604142E-3,3.6645126E-2,6.4309933E-3,1.4224671E-2,2.997689E-2,3.5661306E-2,6.0532046E-3,-1.474817E-2,1.0540164E-2,1.575768E-2,-3.3525713E-2,-1.8266847E-2,1.9098965E-2,-2.3337336E-2,-4.6837207E-2,-5.434974E-2,-8.0369994E-2,-2.8091695E-3,8.63894E-3,-2.9477287E-2,-4.8840693E-3],"split_indices":[4,4,10,1,1,14,4,16,0,17,14,4,17,3,14,1,4,3,15,2,0,12,0,2,4,0,0,0,0,1,0,0,0,0,0,0,0,0,0,0,0,0,0,0,0,0,0,0,0,0,0,0,0],"split_type":[0,0,0,0,0,0,0,0,0,0,0,0,0,0,0,0,0,0,0,0,0,0,0,0,0,0,0,0,0,0,0,0,0,0,0,0,0,0,0,0,0,0,0,0,0,0,0,0,0,0,0,0,0],"sum_hessian":[5.39E2,3.82E2,1.57E2,2.15E2,1.67E2,1.08E2,4.9E1,4.1E1,1.74E2,4.5E1,1.22E2,5.8E1,5E1,3.6E1,1.3E1,1.5E1,2.6E1,1E2,7.4E1,4E1,5E0,1.17E2,5E0,1.6E1,4.2E1,4.7E1,3E0,3.2E1,4E0,7E0,6E0,4E0,1.1E1,1E1,1.6E1,8.3E1,1.7E1,6.9E1,5E0,2E1,2E1,1.14E2,3E0,1.1E1,5E0,6E0,3.6E1,2.6E1,2.1E1,1.5E1,1.7E1,4E0,3E0],"tree_param":{"num_deleted":"0","num_feature":"21","num_nodes":"53","size_leaf_vector":"1"}},{"base_weights":[-1.0439609E-2,1.5405476E-1,-8.660835E-1,2.7455357E-1,-6.211843E-1,-1.1080875E0,-2.1759005E-1,3.5349438E-1,9.184193E-2,-3.45459E-1,-1.0004103E0,-8.720639E-1,-1.4279609E0,3.862237E-2,-4.2880142E-1,8.85479E-2,4.4746253E-1,1.7468339E-1,-9.601012E-2,-6.4612055E-1,2.6046965E-2,-2.528037E-2,-5.3291004E-2,-4.6920177E-2,-1.0663666E-2,-1.1348755E0,-9.058966E-2,6.8300324E-3,-3.6590766E-2,-4.2051043E-2,-1.6981153E-1,2.0124875E-2,-1.5058184E-2,2.5786161E-2,1.4925464E-2,7.039097E-3,2.3332475E-2,3.1775967E-3,-4.7383633E-2,-3.619549E-2,-6.1754026E-3,-3.6877032E-2,-6.97501E-2,-2.8911938E-3,-0E0,-3.0693046E-3,-1.2297987E-2],"categories":[],"categories_nodes":[],"categories_segments":[],"categories_sizes":[],"default_left":[0,0,0,0,0,0,0,0,0,0,0,0,0,0,0,0,0,0,0,0,0,0,0,0,0,0,0,0,0,0,0,0,0,0,0,0,0,0,0,0,0,0,0,0,0,0,0],"id":23,"left_children":[1,3,5,7,9,11,13,15,17,19,21,23,25,27,29,31,33,35,37,39,-1,-1,-1,-1,-1,41,-1,-1,43,-1,45,-1,-1,-1,-1,-1,-1,-1,-1,-1,-1,-1,-1,-1,-1,-1,-1],"loss_changes":[7.592738E1,4.2359634E1,1.327993E1,5.576975E0,5.8981075E0,3.2810745E0,1.4084533E0,6.7035294E0,1.8920717E0,9.987337E0,1.1309433E-1,1.3891487E0,4.615631E-1,1.03430346E-1,1.2507513E0,9.062886E0,1.8083267E0,7.0499897E-1,5.1766796E0,9.641514E-1,0E0,0E0,0E0,0E0,0E0,5.149498E-1,0E0,0E0,4.0022107E-3,0E0,3.6730915E-2,0E0,0E0,0E0,0E0,0E0,0E0,0E0,0E0,0E0,0E0,0E0,0E0,0E0,0E0,0E0,0E0],"parents":[2147483647,0,0,1,1,2,2,3,3,4,4,5,5,6,6,7,7,8,8,9,9,10,10,11,11,12,12,13,13,14,14,15,15,16,16,17,17,18,18,19,19,25,25,28,28,30,30],"right_children":[2,4,6,8,10,12,14,16,18,20,22,24,26,28,30,32,34,36,38,40,-1,-1,-1,-1,-1,42,-1,-1,44,-1,46,-1,-1,-1,-1,-1,-1,-1,-1,-1,-1,-1,-1,-1,-1,-1,-1],"split_conditions":[6.318E1,4.942E1,4.83E1,2.509E1,1.83E-1,3.006E-1,7.24E1,3.98E2,5.022E1,7.91E2,2E0,2.27E0,5.1E1,4.67E0,5.06E1,7.65E0,4.6E-1,2.46E-1,2.21E-1,1.73E-1,2.6046965E-2,-2.528037E-2,-5.3291004E-2,-4.6920177E-2,-1.0663666E-2,8.285E1,-9.058966E-2,6.8300324E-3,7.934E2,-4.2051043E-2,7.999E1,2.0124875E-2,-1.5058184E-2,2.5786161E-2,1.4925464E-2,7.039097E-3,2.3332475E-2,3.1775967E-3,-4.7383633E-2,-3.619549E-2,-6.1754026E-3,-3.6877032E-2,-6.97501E-2,-2.8911938E-3,-0E0,-3.0693046E-3,-1.2297987E-2],"split_indices":[2,3,11,2,14,5,2,1,2,1,17,17,10,19,11,3,2,14,14,14,0,0,0,0,0,2,0,0,8,0,2,0,0,0,0,0,0,0,0,0,0,0,0,0,0,0,0],"split_type":[0,0,0,0,0,0,0,0,0,0,0,0,0,0,0,0,0,0,0,0,0,0,0,0,0,0,0,0,0,0,0,0,0,0,0,0,0,0,0,0,0,0,0,0,0,0,0],"sum_hessian":[5.37E2,4.51E2,8.6E1,3.91E2,6E1,6.2E1,2.4E1,2.72E2,1.19E2,3.6E1,2.4E1,3.8E1,2.4E1,1.1E1,1.3E1,7.2E1,2E2,8.3E1,3.6E1,2.7E1,9E0,4E0,2E1,3.4E1,4E0,1.6E1,8E0,5E0,6E0,4E0,9E0,4E1,3.2E1,1.35E2,6.5E1,7.6E1,7E0,3.1E1,5E0,2.3E1,4E0,8E0,8E0,3E0,3E0,5E0,4E0],"tree_param":{"num_deleted":"0","num_feature":"21","num_nodes":"47","size_leaf_vector":"1"}},{"base_weights":[-1.1812691E-2,2.432186E-1,-8.046234E-1,3.9366707E-1,8.737377E-2,-4.5567313E-1,-1.0316955E0,1.2732904E-1,4.5378456E-1,1.20344184E-1,-7.188231E-1,-3.670742E-2,-6.981028E-1,-4.3672213E-1,-1.1005245E0,3.6604002E-1,-2.112823E-1,3.626487E-1,6.0755545E-1,-1.315681E-1,2.2276315E-1,-1.2561249E-3,-5.5500943E-2,-1.5293426E-2,3.8734514E-2,-0E0,-7.671599E-1,-4.7281887E-2,2.1747265E-3,-9.120692E-1,-1.3049662E0,7.525131E-3,3.8290102E-2,-2.1629475E-2,-6.2908614E-3,2.4776002E-2,1.38495555E-2,2.6461324E-2,3.6339518E-2,-6.54446E-4,-4.215585E-2,4.390332E-3,1.9978754E-2,-2.5682566E-3,1.14572365E-2,-2.7494079E-2,-4.9228884E-2,-2.2857597E-2,-4.805694E-2,-5.489949E-2,-8.3889924E-2],"categories":[],"categories_nodes":[],"categories_segments":[],"categories_sizes":[],"default_left":[0,0,0,0,0,0,0,0,0,0,0,0,0,0,0,0,0,0,0,0,0,0,0,0,0,0,0,0,0,0,0,0,0,0,0,0,0,0,0,0,0,0,0,0,0,0,0,0,0,0,0],"id":24,"left_children":[1,3,5,7,9,11,13,15,17,19,21,23,25,27,29,31,33,35,37,39,41,-1,-1,-1,43,-1,45,-1,-1,47,49,-1,-1,-1,-1,-1,-1,-1,-1,-1,-1,-1,-1,-1,-1,-1,-1,-1,-1,-1,-1],"loss_changes":[1.0963747E2,9.530611E0,9.840408E0,3.2145119E0,5.4225283E0,5.3856564E0,2.6008148E0,3.3260238E0,2.0510292E0,5.0953445E0,2.0295815E0,4.6498775E-1,1.6747494E0,2.5752416E0,1.2850494E0,1.8610418E0,2.1127081E-1,1.0260706E0,5.9473038E-2,4.7086563E0,3.2568464E0,0E0,0E0,0E0,3.2119817E-1,0E0,7.69598E-1,0E0,0E0,3.1169128E-1,2.7240753E-1,0E0,0E0,0E0,0E0,0E0,0E0,0E0,0E0,0E0,0E0,0E0,0E0,0E0,0E0,0E0,0E0,0E0,0E0,0E0,0E0],"parents":[2147483647,0,0,1,1,2,2,3,3,4,4,5,5,6,6,7,7,8,8,9,9,10,10,11,11,12,12,13,13,14,14,15,15,16,16,17,17,18,18,19,19,20,20,24,24,26,26,29,29,30,30],"right_children":[2,4,6,8,10,12,14,16,18,20,22,24,26,28,30,32,34,36,38,40,42,-1,-1,-1,44,-1,46,-1,-1,48,50,-1,-1,-1,-1,-1,-1,-1,-1,-1,-1,-1,-1,-1,-1,-1,-1,-1,-1,-1,-1],"split_conditions":[5.924E1,2.562E1,1.67E-1,2.1E2,2.58E-1,7.062E1,6.242E1,3.62E0,6E-1,5.07E2,6E-1,4.5E1,9.8E-2,6.058E1,2.984E-1,6E-1,6.3E1,1.18E0,8.555E2,2.22E0,6E-1,-1.2561249E-3,-5.5500943E-2,-1.5293426E-2,1.663E3,-0E0,7.35E1,-4.7281887E-2,2.1747265E-3,5.15E2,5.1E1,7.525131E-3,3.8290102E-2,-2.1629475E-2,-6.2908614E-3,2.4776002E-2,1.38495555E-2,2.6461324E-2,3.6339518E-2,-6.54446E-4,-4.215585E-2,4.390332E-3,1.9978754E-2,-2.5682566E-3,1.14572365E-2,-2.7494079E-2,-4.9228884E-2,-2.2857597E-2,-4.805694E-2,-5.489949E-2,-8.3889924E-2],"split_indices":[4,4,14,1,14,4,4,3,3,1,3,11,14,4,5,3,1,4,9,17,3,0,0,0,1,0,16,0,0,1,10,0,0,0,0,0,0,0,0,0,0,0,0,0,0,0,0,0,0,0,0],"split_type":[0,0,0,0,0,0,0,0,0,0,0,0,0,0,0,0,0,0,0,0,0,0,0,0,0,0,0,0,0,0,0,0,0,0,0,0,0,0,0,0,0,0,0,0,0,0,0,0,0,0,0],"sum_hessian":[5.4E2,4.09E2,1.31E2,2.07E2,2.02E2,5.3E1,7.8E1,3.9E1,1.68E2,1.95E2,7E0,2E1,3.3E1,9E0,6.9E1,2.3E1,1.6E1,1.08E2,6E1,5.6E1,1.39E2,3E0,4E0,4E0,1.6E1,3E0,3E1,4E0,5E0,3.9E1,3E1,1.6E1,7E0,3E0,1.3E1,4E1,6.8E1,4E1,2E1,4.9E1,7E0,8E1,5.9E1,1.1E1,5E0,1.7E1,1.3E1,5E0,3.4E1,2.2E1,8E0],"tree_param":{"num_deleted":"0","num_feature":"21","num_nodes":"51","size_leaf_vector":"1"}},{"base_weights":[-7.84056E-3,2.7695537E-1,-5.795266E-1,3.820607E-1,1.3731492E-1,-4.3206334E-1,-1.1752441E0,8.78783E-2,4.1820532E-1,-1.4914297E-1,2.3737867E-1,-1.4004907E-1,-7.2078925E-1,-1.2644083E0,-1.8368842E-2,-3.270036E-1,2.8382987E-1,4.6558797E-1,2.7414563E-1,-3.6963288E-2,-3.9034862E-2,2.559604E-1,-1.05022E-2,-4.36606E-1,-1.2420743E-2,-4.069E-1,-8.83645E-1,-1.4004946E0,-4.142889E-2,-2.4743713E-2,-5.207169E-4,2.762662E-3,2.9409444E-2,2.746445E-2,1.8272966E-2,6.100844E-3,1.7901117E-2,8.569832E-3,-6.3770027E-3,1.37549E-2,-1.5465681E-2,-3.464685E-2,9.869003E-3,-6.2826346E-3,1.1443676E-2,-2.2848316E-2,-0E0,-3.507943E-2,-4.9993016E-2,-5.0569504E-2,-8.7814055E-2],"categories":[],"categories_nodes":[],"categories_segments":[],"categories_sizes":[],"default_left":[0,0,0,0,0,0,0,0,0,0,0,0,0,0,0,0,0,0,0,0,0,0,0,0,0,0,0,0,0,0,0,0,0,0,0,0,0,0,0,0,0,0,0,0,0,0,0,0,0,0,0],"id":25,"left_children":[1,3,5,7,9,11,13,15,17,19,21,23,25,27,-1,29,31,33,35,37,-1,39,-1,41,43,45,47,49,-1,-1,-1,-1,-1,-1,-1,-1,-1,-1,-1,-1,-1,-1,-1,-1,-1,-1,-1,-1,-1,-1,-1],"loss_changes":[8.811024E1,5.193981E0,1.5143852E1,2.09243E0,4.544483E0,1.2122536E1,1.8934555E0,2.0396183E0,1.0407085E0,2.7941267E0,1.0310788E0,2.750505E0,3.2430534E0,4.553032E-1,0E0,3.6948574E-1,1.0858356E0,8.3919716E-1,5.207939E-1,6.968867E-1,0E0,1.3041029E0,0E0,3.7615538E0,1.4665141E0,5.4131174E-1,1.2277603E-1,9.9258804E-1,0E0,0E0,0E0,0E0,0E0,0E0,0E0,0E0,0E0,0E0,0E0,0E0,0E0,0E0,0E0,0E0,0E0,0E0,0E0,0E0,0E0,0E0,0E0],"parents":[2147483647,0,0,1,1,2,2,3,3,4,4,5,5,6,6,7,7,8,8,9,9,10,10,11,11,12,12,13,13,15,15,16,16,17,17,18,18,19,19,21,21,23,23,24,24,25,25,26,26,27,27],"right_children":[2,4,6,8,10,12,14,16,18,20,22,24,26,28,-1,30,32,34,36,38,-1,40,-1,42,44,46,48,50,-1,-1,-1,-1,-1,-1,-1,-1,-1,-1,-1,-1,-1,-1,-1,-1,-1,-1,-1,-1,-1,-1,-1],"split_conditions":[5.022E1,2.562E1,2.21E-1,1.04E2,3.98E2,6.95E1,4.82E1,5.15E1,1.494E3,2.22E0,4.966E1,5.14E1,3.66E-1,2.688E3,-1.8368842E-2,4.44E0,3.22E-2,1.214E1,6.3E1,1.91E2,-3.9034862E-2,2.52E-1,-1.05022E-2,2.514E3,1.243E3,8.451E2,8.285E1,7.52E2,-4.142889E-2,-2.4743713E-2,-5.207169E-4,2.762662E-3,2.9409444E-2,2.746445E-2,1.8272966E-2,6.100844E-3,1.7901117E-2,8.569832E-3,-6.3770027E-3,1.37549E-2,-1.5465681E-2,-3.464685E-2,9.869003E-3,-6.2826346E-3,1.1443676E-2,-2.2848316E-2,-0E0,-3.507943E-2,-4.9993016E-2,-5.0569504E-2,-8.7814055E-2],"split_indices":[4,4,14,1,1,4,11,10,1,17,4,10,6,1,0,4,13,4,15,1,0,14,0,1,1,8,4,1,0,0,0,0,0,0,0,0,0,0,0,0,0,0,0,0,0,0,0,0,0,0,0],"split_type":[0,0,0,0,0,0,0,0,0,0,0,0,0,0,0,0,0,0,0,0,0,0,0,0,0,0,0,0,0,0,0,0,0,0,0,0,0,0,0,0,0,0,0,0,0,0,0,0,0,0,0],"sum_hessian":[5.39E2,3.6E2,1.79E2,2.04E2,1.56E2,1.45E2,3.4E1,2.3E1,1.81E2,4E1,1.16E2,7.3E1,7.2E1,3E1,4E0,7E0,1.6E1,1.34E2,4.7E1,3.5E1,5E0,1.12E2,4E0,2.1E1,5.2E1,2.6E1,4.6E1,2.1E1,9E0,4E0,3E0,1E1,6E0,7E1,6.4E1,1.8E1,2.9E1,1E1,2.5E1,1.09E2,3E0,1.5E1,6E0,3.6E1,1.6E1,2.3E1,3E0,2.1E1,2.5E1,1.2E1,9E0],"tree_param":{"num_deleted":"0","num_feature":"21","num_nodes":"51","size_leaf_vector":"1"}},{"base_weights":[-5.101679E-3,1.9463897E-1,-6.949977E-1,2.6825038E-1,-1.515218E-1,-3.4015274E-1,-8.8744164E-1,9.549005E-2,3.2111663E-1,1.3025774E-1,-4.3190888E-1,-1.629082E-2,-6.8932104E-1,-9.19393E-1,-2.4740864E-3,4.14915E-1,-5.0133437E-2,4.43401E-1,1.7290416E-1,1.6322663E-2,4.179818E-2,-1.8431008E-1,-9.240472E-1,-1.6884425E-1,9.759337E-2,-8.6909395E-1,-3.9466143E-1,-8.589741E-1,-7.221555E-2,3.828363E-2,-0E0,-1.112166E-2,8.000493E-3,2.0063642E-2,3.0213503E-2,1.0370517E-2,5.7370253E-3,-6.294095E-3,6.9093606E-3,3.9626905E-3,-3.1196883E-2,-6.4746006E-3,-5.8169987E-2,-1.5351929E-2,1.9198314E-3,1.5269098E-2,-3.0301284E-4,-2.1451663E-2,-5.1149756E-2,-2.7840678E-2,-5.0573293E-3,-3.5532452E-2,-5.0732102E-2],"categories":[],"categories_nodes":[],"categories_segments":[],"categories_sizes":[],"default_left":[0,0,0,0,0,0,0,0,0,0,0,0,0,0,0,0,0,0,0,0,0,0,0,0,0,0,0,0,0,0,0,0,0,0,0,0,0,0,0,0,0,0,0,0,0,0,0,0,0,0,0,0,0],"id":26,"left_children":[1,3,5,7,9,11,13,15,17,19,21,23,25,27,-1,29,31,33,35,-1,37,39,41,43,45,47,49,51,-1,-1,-1,-1,-1,-1,-1,-1,-1,-1,-1,-1,-1,-1,-1,-1,-1,-1,-1,-1,-1,-1,-1,-1,-1],"loss_changes":[7.3632866E1,1.0601609E1,7.769905E0,3.0512276E0,5.85396E0,4.8938313E0,1.9192085E0,3.8715727E0,4.592087E0,5.9167826E-1,4.227409E0,4.4056538E-1,6.4303493E-1,8.759537E-1,0E0,3.7315483E0,2.105669E0,6.193199E-1,1.8482709E-1,0E0,4.5501384E-1,3.1165369E0,2.0022058E0,3.5368803E-1,3.3331537E-1,2.2860813E-1,3.5382473E-1,6.995888E-1,0E0,0E0,0E0,0E0,0E0,0E0,0E0,0E0,0E0,0E0,0E0,0E0,0E0,0E0,0E0,0E0,0E0,0E0,0E0,0E0,0E0,0E0,0E0,0E0,0E0],"parents":[2147483647,0,0,1,1,2,2,3,3,4,4,5,5,6,6,7,7,8,8,9,9,10,10,11,11,12,12,13,13,15,15,16,16,17,17,18,18,20,20,21,21,22,22,23,23,24,24,25,25,26,26,27,27],"right_children":[2,4,6,8,10,12,14,16,18,20,22,24,26,28,-1,30,32,34,36,-1,38,40,42,44,46,48,50,52,-1,-1,-1,-1,-1,-1,-1,-1,-1,-1,-1,-1,-1,-1,-1,-1,-1,-1,-1,-1,-1,-1,-1,-1,-1],"split_conditions":[6.226E1,4.79E1,1.51E-1,3.8E2,2.01E0,7.808E1,8.791E2,7.86E0,4.26E0,8.4E2,2.08E-1,8.377E2,5.44E1,1E0,-2.4740864E-3,3.66E-1,4.6E-1,8.435E2,3.168E1,1.6322663E-2,1.4866E3,5.712E1,1.91E2,6.97E2,6.775E1,6.98E1,7.91E2,8.285E1,-7.221555E-2,3.828363E-2,-0E0,-1.112166E-2,8.000493E-3,2.0063642E-2,3.0213503E-2,1.0370517E-2,5.7370253E-3,-6.294095E-3,6.9093606E-3,3.9626905E-3,-3.1196883E-2,-6.4746006E-3,-5.8169987E-2,-1.5351929E-2,1.9198314E-3,1.5269098E-2,-3.0301284E-4,-2.1451663E-2,-5.1149756E-2,-2.7840678E-2,-5.0573293E-3,-3.5532452E-2,-5.0732102E-2],"split_indices":[4,4,14,1,17,4,9,4,2,8,14,9,10,18,0,6,2,8,2,0,0,4,1,1,4,16,1,4,0,0,0,0,0,0,0,0,0,0,0,0,0,0,0,0,0,0,0,0,0,0,0,0,0],"split_type":[0,0,0,0,0,0,0,0,0,0,0,0,0,0,0,0,0,0,0,0,0,0,0,0,0,0,0,0,0,0,0,0,0,0,0,0,0,0,0,0,0,0,0,0,0,0,0,0,0,0,0,0,0],"sum_hessian":[5.32E2,4.13E2,1.19E2,3.41E2,7.2E1,4.3E1,7.6E1,8.1E1,2.6E2,3.6E1,3.6E1,2.3E1,2E1,7.3E1,3E0,2.5E1,5.6E1,1.41E2,1.19E2,1E1,2.6E1,2.5E1,1.1E1,1E1,1.3E1,1.1E1,9E0,6.8E1,5E0,1.3E1,1.2E1,3.1E1,2.5E1,1.15E2,2.6E1,7.2E1,4.7E1,9E0,1.7E1,1.6E1,9E0,3E0,8E0,6E0,4E0,4E0,9E0,4E0,7E0,5E0,4E0,3.8E1,3E1],"tree_param":{"num_deleted":"0","num_feature":"21","num_nodes":"53","size_leaf_vector":"1"}},{"base_weights":[-9.8004965E-3,1.0616954E-1,-6.578044E-1,2.1647751E-1,-6.226876E-1,-1.9661887E-1,-8.871967E-1,2.5015128E-1,-1.01661E-1,-3.6241105E-1,-9.789893E-1,-7.168475E-2,-2.5155518E-2,-6.4592427E-1,-1.1468867E0,7.969892E-2,3.0777028E-1,6.783884E-2,-3.8404998E-1,-5.642024E-1,2.1355396E-2,-6.8297267E-1,-6.1721314E-2,4.5547616E-2,-2.5719234E-1,-3.5237767E-2,-2.3812999E-3,-8.8028115E-1,-1.4487668E0,1.4050834E-2,-1.40445875E-2,2.0742455E-2,9.073052E-3,5.5500907E-3,-8.075862E-3,1.2859414E-2,-2.8706262E-2,-3.2229308E-2,-5.9284917E-3,-4.3141145E-2,-1.413509E-2,-2.0963398E-3,9.291732E-3,-3.8467278E-3,-1.5891608E-2,-1.4727222E-2,-5.2132405E-2,-3.9471753E-2,-8.700411E-2],"categories":[],"categories_nodes":[],"categories_segments":[],"categories_sizes":[],"default_left":[0,0,0,0,0,0,0,0,0,0,0,0,0,0,0,0,0,0,0,0,0,0,0,0,0,0,0,0,0,0,0,0,0,0,0,0,0,0,0,0,0,0,0,0,0,0,0,0,0],"id":27,"left_children":[1,3,5,7,9,11,13,15,17,19,21,23,-1,25,27,29,31,33,35,37,-1,39,-1,41,43,-1,-1,45,47,-1,-1,-1,-1,-1,-1,-1,-1,-1,-1,-1,-1,-1,-1,-1,-1,-1,-1,-1,-1],"loss_changes":[4.108123E1,3.7318798E1,8.497948E0,4.357586E0,5.1680202E0,1.0169013E0,2.5259972E0,3.5214977E0,1.9244053E0,6.1494546E0,8.5552025E-1,5.113238E-1,0E0,9.8235035E-1,5.03849E-1,6.9027185E0,3.5439014E0,2.6036942E-1,2.0076048E0,9.219036E-1,0E0,6.4936924E-1,0E0,1.9398358E-1,3.4448206E-2,0E0,0E0,1.080843E0,2.940979E-1,0E0,0E0,0E0,0E0,0E0,0E0,0E0,0E0,0E0,0E0,0E0,0E0,0E0,0E0,0E0,0E0,0E0,0E0,0E0,0E0],"parents":[2147483647,0,0,1,1,2,2,3,3,4,4,5,5,6,6,7,7,8,8,9,9,10,10,11,11,13,13,14,14,15,15,16,16,17,17,18,18,19,19,21,21,23,23,24,24,27,27,28,28],"right_children":[2,4,6,8,10,12,14,16,18,20,22,24,-1,26,28,30,32,34,36,38,-1,40,-1,42,44,-1,-1,46,48,-1,-1,-1,-1,-1,-1,-1,-1,-1,-1,-1,-1,-1,-1,-1,-1,-1,-1,-1,-1],"split_conditions":[6.34E1,4.966E1,1.51E-1,5.021E1,1.83E-1,3.69E-1,2.04E-1,3.98E2,2.01E0,7.91E2,4.57E0,2.131E3,-2.5155518E-2,4.13E-1,8.425E2,1.256E1,4.26E0,2.21E-1,1.67E-1,1.73E-1,2.1355396E-2,4.15E0,-6.1721314E-2,2.38E-1,6.905E1,-3.5237767E-2,-2.3812999E-3,6.786E1,2.887E-1,1.4050834E-2,-1.40445875E-2,2.0742455E-2,9.073052E-3,5.5500907E-3,-8.075862E-3,1.2859414E-2,-2.8706262E-2,-3.2229308E-2,-5.9284917E-3,-4.3141145E-2,-1.413509E-2,-2.0963398E-3,9.291732E-3,-3.8467278E-3,-1.5891608E-2,-1.4727222E-2,-5.2132405E-2,-3.9471753E-2,-8.700411E-2],"split_indices":[2,3,14,2,14,6,14,1,17,1,19,1,0,6,9,3,2,14,14,14,0,19,0,5,2,0,0,2,5,0,0,0,0,0,0,0,0,0,0,0,0,0,0,0,0,0,0,0,0],"split_type":[0,0,0,0,0,0,0,0,0,0,0,0,0,0,0,0,0,0,0,0,0,0,0,0,0,0,0,0,0,0,0,0,0,0,0,0,0,0,0,0,0,0,0,0,0,0,0,0,0],"sum_hessian":[5.44E2,4.62E2,8.2E1,4.02E2,6E1,2.8E1,5.4E1,3.64E2,3.8E1,3.6E1,2.4E1,2.1E1,7E0,3E1,2.4E1,9.3E1,2.71E2,2.4E1,1.4E1,2.9E1,7E0,1.3E1,1.1E1,1.3E1,8E0,2.7E1,3E0,1.5E1,9E0,6E1,3.3E1,1.45E2,1.26E2,2.1E1,3E0,3E0,1.1E1,2.4E1,5E0,8E0,5E0,8E0,5E0,3E0,5E0,4E0,1.1E1,4E0,5E0],"tree_param":{"num_deleted":"0","num_feature":"21","num_nodes":"49","size_leaf_vector":"1"}},{"base_weights":[-8.561613E-3,1.929703E-1,-6.663318E-1,2.5889558E-1,-1.322064E-1,-8.0298287E-1,-9.454048E-2,9.284617E-2,3.1043538E-1,1.2567562E-1,-3.9672592E-1,-7.164696E-1,-1.1242772E0,-2.8547412E-2,-2.0443361E-2,2.7679333E-1,-2.257571E-1,4.3507364E-1,1.874337E-1,1.4842629E-2,6.025828E-2,-5.265571E-1,2.208032E-2,-6.6525424E-1,-6.145596E-2,-8.3917034E-1,-6.994515E-2,3.186378E-3,-1.0502452E-1,2.3115348E-2,9.2183484E-4,-5.600413E-3,-2.16027E-2,1.916358E-2,2.9150218E-2,1.2185968E-2,6.5529863E-3,-7.1969265E-3,6.5108174E-3,-3.3769574E-2,2.2334366E-3,-3.552294E-2,-2.0358628E-2,-5.9220165E-2,-2.906906E-2,1.428603E-3,-7.898035E-3],"categories":[],"categories_nodes":[],"categories_segments":[],"categories_sizes":[],"default_left":[0,0,0,0,0,0,0,0,0,0,0,0,0,0,0,0,0,0,0,0,0,0,0,0,0,0,0,0,0,0,0,0,0,0,0,0,0,0,0,0,0,0,0,0,0,0,0],"id":28,"left_children":[1,3,5,7,9,11,13,15,17,19,21,23,25,27,-1,29,31,33,35,-1,37,39,-1,41,-1,43,-1,-1,45,-1,-1,-1,-1,-1,-1,-1,-1,-1,-1,-1,-1,-1,-1,-1,-1,-1,-1],"loss_changes":[6.9505684E1,8.64328E0,9.445045E0,2.7892723E0,4.715572E0,1.7622452E0,4.6317106E-1,4.814691E0,3.750204E0,3.3832902E-1,3.9416442E0,1.1195831E0,8.993149E-2,1.6607495E-1,0E0,2.4356933E0,6.0118127E-1,6.3781166E-1,3.4307623E-1,0E0,4.030717E-1,2.6437817E0,0E0,4.8561096E-1,0E0,2.027998E-1,0E0,0E0,1.09389305E-1,0E0,0E0,0E0,0E0,0E0,0E0,0E0,0E0,0E0,0E0,0E0,0E0,0E0,0E0,0E0,0E0,0E0,0E0],"parents":[2147483647,0,0,1,1,2,2,3,3,4,4,5,5,6,6,7,7,8,8,9,9,10,10,11,11,12,12,13,13,15,15,16,16,17,17,18,18,20,20,21,21,23,23,25,25,28,28],"right_children":[2,4,6,8,10,12,14,16,18,20,22,24,26,28,-1,30,32,34,36,-1,38,40,-1,42,-1,44,-1,-1,46,-1,-1,-1,-1,-1,-1,-1,-1,-1,-1,-1,-1,-1,-1,-1,-1,-1,-1],"split_conditions":[6.238E1,4.79E1,5.06E1,3.86E2,2.01E0,9.391E1,6.838E1,7.65E0,4.6E-1,8.028E2,3.038E-1,6.89E0,3.9E-1,4.78E0,-2.0443361E-2,3.72E-1,2.86E2,8.702E2,2.245E1,1.4842629E-2,1.4082E3,5.414E1,2.208032E-2,8.451E2,-6.145596E-2,9.562E1,-6.994515E-2,3.186378E-3,1.3412E3,2.3115348E-2,9.2183484E-4,-5.600413E-3,-2.16027E-2,1.916358E-2,2.9150218E-2,1.2185968E-2,6.5529863E-3,-7.1969265E-3,6.5108174E-3,-3.3769574E-2,2.2334366E-3,-3.552294E-2,-2.0358628E-2,-5.9220165E-2,-2.906906E-2,1.428603E-3,-7.898035E-3],"split_indices":[4,4,11,1,17,4,3,3,2,8,5,19,6,19,0,6,1,9,2,0,0,2,0,8,0,4,0,0,0,0,0,0,0,0,0,0,0,0,0,0,0,0,0,0,0,0,0],"split_type":[0,0,0,0,0,0,0,0,0,0,0,0,0,0,0,0,0,0,0,0,0,0,0,0,0,0,0,0,0,0,0,0,0,0,0,0,0,0,0,0,0,0,0,0,0,0,0],"sum_hessian":[5.22E2,4E2,1.22E2,3.33E2,6.7E1,9.8E1,2.4E1,8E1,2.53E2,3.4E1,3.3E1,8E1,1.8E1,2.1E1,3E0,5.1E1,2.9E1,1.24E2,1.29E2,8E0,2.6E1,2.9E1,4E0,7.5E1,5E0,1.1E1,7E0,9E0,1.2E1,2.9E1,2.2E1,2E1,9E0,9.5E1,2.9E1,6.2E1,6.7E1,6E0,2E1,2.3E1,6E0,6.2E1,1.3E1,3E0,8E0,3E0,9E0],"tree_param":{"num_deleted":"0","num_feature":"21","num_nodes":"47","size_leaf_vector":"1"}},{"base_weights":[-1.7660729E-3,1.8033075E-1,-6.286298E-1,2.3845163E-1,-1.3565202E-1,-1.8892294E-1,-7.5185496E-1,3.3842215E-1,1.6291454E-1,1.9591434E-3,-9.027093E-1,-3.687877E-2,-3.3119005E-1,-5.440121E-1,-9.144673E-1,2.1980472E-1,4.4672433E-1,-5.6651384E-2,2.2644061E-1,8.694725E-2,-5.063379E-1,-1.3902115E-2,-5.582089E-2,-1.1657486E-1,5.657031E-2,-2.138291E-2,-0E0,-1.32137E-3,-6.2703377E-1,-6.0751265E-1,-1.1413403E0,9.23305E-3,2.2099575E-2,2.380677E-2,1.3354539E-4,8.717604E-3,-1.308342E-2,6.5466366E-3,1.6724247E-2,2.0041479E-2,-5.9149944E-4,-3.4779217E-2,-5.90977E-3,-8.516311E-3,-2.232241E-3,5.4343273E-3,-0E0,1.5949046E-2,-1.7314665E-2,-3.6428567E-2,-1.8401656E-2,-3.4711067E-2,-1.4173716E-2,-6.876127E-2,-3.789971E-2],"categories":[],"categories_nodes":[],"categories_segments":[],"categories_sizes":[],"default_left":[0,0,0,0,0,0,0,0,0,0,0,0,0,0,0,0,0,0,0,0,0,0,0,0,0,0,0,0,0,0,0,0,0,0,0,0,0,0,0,0,0,0,0,0,0,0,0,0,0,0,0,0,0,0,0],"id":29,"left_children":[1,3,5,7,9,11,13,15,17,19,21,23,25,27,29,31,33,35,37,39,41,-1,-1,43,45,-1,-1,47,49,51,53,-1,-1,-1,-1,-1,-1,-1,-1,-1,-1,-1,-1,-1,-1,-1,-1,-1,-1,-1,-1,-1,-1,-1,-1],"loss_changes":[6.1342537E1,7.6825485E0,6.320015E0,2.5528526E0,6.95296E0,5.56644E-1,2.5336723E0,1.7621346E0,2.8612833E0,2.4212406E0,8.8510895E-1,1.24308035E-1,4.761908E-1,1.9187593E0,2.683361E0,4.3354273E-1,9.564743E-1,2.2328973E0,1.5400791E0,1.5628586E0,4.2404366E-1,0E0,0E0,5.6957453E-3,2.4849655E-2,0E0,0E0,8.8665926E-1,6.2153625E-1,3.797617E-1,1.254715E0,0E0,0E0,0E0,0E0,0E0,0E0,0E0,0E0,0E0,0E0,0E0,0E0,0E0,0E0,0E0,0E0,0E0,0E0,0E0,0E0,0E0,0E0,0E0,0E0],"parents":[2147483647,0,0,1,1,2,2,3,3,4,4,5,5,6,6,7,7,8,8,9,9,10,10,11,11,12,12,13,13,14,14,15,15,16,16,17,17,18,18,19,19,20,20,23,23,24,24,27,27,28,28,29,29,30,30],"right_children":[2,4,6,8,10,12,14,16,18,20,22,24,26,28,30,32,34,36,38,40,42,-1,-1,44,46,-1,-1,48,50,52,54,-1,-1,-1,-1,-1,-1,-1,-1,-1,-1,-1,-1,-1,-1,-1,-1,-1,-1,-1,-1,-1,-1,-1,-1],"split_conditions":[6.238E1,5E1,1.37E-1,1.812E1,2.41E-1,7.378E1,2.0438E3,5.421E2,3.86E2,5.65E1,5.162E1,6.786E1,2.5046E3,1.51E-1,2.988E-1,6E-1,1.005E2,6E-1,6E-1,4.55E1,1.67E-1,-1.3902115E-2,-5.582089E-2,6.338E1,6.95E1,-2.138291E-2,-0E0,6.775E1,8.3E1,2.6196E3,9.93E1,9.23305E-3,2.2099575E-2,2.380677E-2,1.3354539E-4,8.717604E-3,-1.308342E-2,6.5466366E-3,1.6724247E-2,2.0041479E-2,-5.9149944E-4,-3.4779217E-2,-5.90977E-3,-8.516311E-3,-2.232241E-3,5.4343273E-3,-0E0,1.5949046E-2,-1.7314665E-2,-3.6428567E-2,-1.8401656E-2,-3.4711067E-2,-1.4173716E-2,-6.876127E-2,-3.789971E-2],"split_indices":[4,4,14,4,14,4,0,0,1,3,4,4,0,14,5,3,12,3,3,11,14,0,0,4,4,0,0,4,16,0,12,0,0,0,0,0,0,0,0,0,0,0,0,0,0,0,0,0,0,0,0,0,0,0,0],"split_type":[0,0,0,0,0,0,0,0,0,0,0,0,0,0,0,0,0,0,0,0,0,0,0,0,0,0,0,0,0,0,0,0,0,0,0,0,0,0,0,0,0,0,0,0,0,0,0,0,0,0,0,0,0,0,0],"sum_hessian":[5.35E2,4.15E2,1.2E2,3.51E2,6.4E1,2.7E1,9.3E1,1.49E2,2.02E2,5.5E1,9E0,1.4E1,1.3E1,4.3E1,5E1,7.3E1,7.6E1,4.5E1,1.57E2,4.8E1,7E0,3E0,6E0,8E0,6E0,1E1,3E0,6E0,3.7E1,2.3E1,2.7E1,6.5E1,8E0,7.1E1,5E0,2.1E1,2.4E1,8.5E1,7.2E1,1.1E1,3.7E1,4E0,3E0,3E0,5E0,3E0,3E0,3E0,3E0,2.5E1,1.2E1,1.7E1,6E0,1.5E1,1.2E1],"tree_param":{"num_deleted":"0","num_feature":"21","num_nodes":"55","size_leaf_vector":"1"}},{"base_weights":[-2.8908595E-2,1.5876006E-1,-5.6201816E-1,2.3825134E-1,-4.1515987E-2,-2.8485253E-1,-7.544027E-1,3.012042E-1,1.6346657E-1,5.061E-2,-4.3780357E-1,-6.150244E-2,-5.910826E-1,-8.278377E-1,-4.3767416E-1,1.992992E-1,3.929989E-1,8.561663E-2,2.2900727E-1,8.6879745E-2,-3.8108964E-2,-9.530615E-2,-9.108214E-1,-1.2912707E-1,1.1723432E-1,-3.300902E-1,-7.1101016E-1,-3.3524875E-2,-9.806251E-1,-2.8852653E-2,-6.3134724E-1,-2.9485433E-3,1.1601086E-2,2.0965232E-2,2.2240803E-3,2.9658997E-3,1.385015E-2,2.9652081E-3,1.3184971E-2,-1.9482881E-3,7.3992177E-3,-2.5016671E-2,1.29253E-2,-5.4691523E-2,-1.9180117E-2,-1.8499818E-2,-1.8963255E-3,-1.4323938E-3,9.906677E-3,-5.543403E-3,-2.2054682E-2,-2.1844983E-2,-4.5900412E-2,-3.31826E-2,-6.150296E-2,8.764624E-3,-1.253923E-2,-3.710249E-2,-1.5397682E-2],"categories":[],"categories_nodes":[],"categories_segments":[],"categories_sizes":[],"default_left":[0,0,0,0,0,0,0,0,0,0,0,0,0,0,0,0,0,0,0,0,0,0,0,0,0,0,0,0,0,0,0,0,0,0,0,0,0,0,0,0,0,0,0,0,0,0,0,0,0,0,0,0,0,0,0,0,0,0,0],"id":30,"left_children":[1,3,5,7,9,11,13,15,17,19,21,23,25,27,29,31,33,35,37,39,-1,41,43,45,47,49,51,-1,53,55,57,-1,-1,-1,-1,-1,-1,-1,-1,-1,-1,-1,-1,-1,-1,-1,-1,-1,-1,-1,-1,-1,-1,-1,-1,-1,-1,-1,-1],"loss_changes":[5.4555634E1,6.445407E0,7.25296E0,1.264883E0,4.2593412E0,4.0021787E0,1.4416199E0,1.3123684E0,6.377468E-1,2.7697759E0,3.3767424E0,4.5145965E-1,4.4369793E-1,7.639923E-1,1.3409629E0,6.732824E-1,6.6840935E-1,2.7206156E-1,3.7595105E-1,7.164345E-1,0E0,2.159772E0,3.0103397E-1,5.3829515E-1,1.4064221E-1,1.3924468E-1,3.7127686E-1,0E0,1.4452801E0,3.6865416E-1,9.6088886E-2,0E0,0E0,0E0,0E0,0E0,0E0,0E0,0E0,0E0,0E0,0E0,0E0,0E0,0E0,0E0,0E0,0E0,0E0,0E0,0E0,0E0,0E0,0E0,0E0,0E0,0E0,0E0,0E0],"parents":[2147483647,0,0,1,1,2,2,3,3,4,4,5,5,6,6,7,7,8,8,9,9,10,10,11,11,12,12,13,13,14,14,15,15,16,16,17,17,18,18,19,19,21,21,22,22,23,23,24,24,25,25,26,26,28,28,29,29,30,30],"right_children":[2,4,6,8,10,12,14,16,18,20,22,24,26,28,30,32,34,36,38,40,-1,42,44,46,48,50,52,-1,54,56,58,-1,-1,-1,-1,-1,-1,-1,-1,-1,-1,-1,-1,-1,-1,-1,-1,-1,-1,-1,-1,-1,-1,-1,-1,-1,-1,-1,-1],"split_conditions":[5.924E1,3.972E1,1.65E-1,1.812E1,2.4E-1,7.808E1,5.31E1,5.421E2,7.57E1,1.005E2,5.022E1,8.08E1,8.294E1,2.04E-1,6.42E1,6E-1,7.6E1,2.52E-1,5.053E2,1.1519E3,-3.8108964E-2,3.93E-2,4.15E-2,4.32E0,1.2477E3,3.63E-1,6.98E1,-3.3524875E-2,6.805E1,6.234E1,2.599E-1,-2.9485433E-3,1.1601086E-2,2.0965232E-2,2.2240803E-3,2.9658997E-3,1.385015E-2,2.9652081E-3,1.3184971E-2,-1.9482881E-3,7.3992177E-3,-2.5016671E-2,1.29253E-2,-5.4691523E-2,-1.9180117E-2,-1.8499818E-2,-1.8963255E-3,-1.4323938E-3,9.906677E-3,-5.543403E-3,-2.2054682E-2,-2.1844983E-2,-4.5900412E-2,-3.31826E-2,-6.150296E-2,8.764624E-3,-1.253923E-2,-3.710249E-2,-1.5397682E-2],"split_indices":[4,4,14,4,14,4,10,0,16,12,4,16,4,14,4,4,15,14,0,0,0,7,7,19,0,6,16,0,2,2,5,0,0,0,0,0,0,0,0,0,0,0,0,0,0,0,0,0,0,0,0,0,0,0,0,0,0,0,0],"split_type":[0,0,0,0,0,0,0,0,0,0,0,0,0,0,0,0,0,0,0,0,0,0,0,0,0,0,0,0,0,0,0,0,0,0,0,0,0,0,0,0,0,0,0,0,0,0,0,0,0,0,0,0,0,0,0,0,0,0,0],"sum_hessian":[5.43E2,4.02E2,1.41E2,2.88E2,1.14E2,5.9E1,8.2E1,1.54E2,1.34E2,9.3E1,2.1E1,3.5E1,2.4E1,6.5E1,1.7E1,7.5E1,7.9E1,6.3E1,7.1E1,9E1,3E0,1.3E1,8E0,2.6E1,9E0,9E0,1.5E1,3.5E1,3E1,6E0,1.1E1,8E0,6.7E1,7.3E1,6E0,5.7E1,6E0,1.3E1,5.8E1,2.9E1,6.1E1,6E0,7E0,5E0,3E0,6E0,2E1,3E0,6E0,4E0,5E0,8E0,7E0,1.5E1,1.5E1,3E0,3E0,7E0,4E0],"tree_param":{"num_deleted":"0","num_feature":"21","num_nodes":"59","size_leaf_vector":"1"}},{"base_weights":[-6.0103917E-3,7.473096E-2,-6.3677216E-1,-2.9878322E-2,1.6083662E-1,-4.5351326E-1,-1.0641688E0,-1.9530909E-1,7.543311E-2,2.1417436E-1,-1.5801443E-1,-5.6904125E-1,-2.5102302E-2,-5.0702304E-1,-6.460782E-2,-9.66426E-2,-6.5579873E-1,2.1330957E-1,-1.1267902E-2,2.515358E-1,-7.858021E-3,-6.415202E-2,-3.817242E-2,-4.4225267E-1,-5.0842173E-2,2.7223618E-3,-5.85674E-3,-3.326819E-2,-9.846329E-3,-9.433324E-4,-1.9472593E-2,-1.8274296E-2,-4.2581838E-2,-9.290709E-4,1.4581934E-2,4.644214E-3,-8.903767E-3,1.5762491E-2,3.409339E-3,1.2249899E-2,-1.4050401E-2,-1.5555468E-2,2.8916497E-3,-2.4093894E-2,-1.9609618E-3],"categories":[],"categories_nodes":[],"categories_segments":[],"categories_sizes":[],"default_left":[0,0,0,0,0,0,0,0,0,0,0,0,0,0,0,0,0,0,0,0,0,0,0,0,0,0,0,0,0,0,0,0,0,0,0,0,0,0,0,0,0,0,0,0,0],"id":31,"left_children":[1,3,5,7,9,11,13,15,17,19,21,23,25,27,-1,29,31,33,35,37,39,41,-1,43,-1,-1,-1,-1,-1,-1,-1,-1,-1,-1,-1,-1,-1,-1,-1,-1,-1,-1,-1,-1,-1],"loss_changes":[2.8267284E1,4.4405603E0,4.300045E0,3.894349E0,4.6312923E0,2.203E0,1.4513302E0,3.8142138E0,1.6483558E0,1.9508886E0,2.0845351E0,1.4483318E0,9.317899E-2,1.2644947E-1,0E0,1.6142871E0,4.198413E-1,9.9540687E-1,1.4844216E0,2.2648592E0,2.4207463E0,1.0976983E0,0E0,4.081006E-1,0E0,0E0,0E0,0E0,0E0,0E0,0E0,0E0,0E0,0E0,0E0,0E0,0E0,0E0,0E0,0E0,0E0,0E0,0E0,0E0,0E0],"parents":[2147483647,0,0,1,1,2,2,3,3,4,4,5,5,6,6,7,7,8,8,9,9,10,10,11,11,12,12,13,13,15,15,16,16,17,17,18,18,19,19,20,20,21,21,23,23],"right_children":[2,4,6,8,10,12,14,16,18,20,22,24,26,28,-1,30,32,34,36,38,40,42,-1,44,-1,-1,-1,-1,-1,-1,-1,-1,-1,-1,-1,-1,-1,-1,-1,-1,-1,-1,-1,-1,-1],"split_conditions":[6.95E1,7.91E2,2.04E-1,7.52E1,5.157E1,5.44E1,1.135E3,6.7E1,3.73E2,2.41E-1,2.42E-1,2.9697E3,4.78E0,2.18E-1,-6.460782E-2,2.966E-1,1.6595E3,4.978E2,1.331E3,2.14E1,2.048E3,5.13E1,-3.817242E-2,8.692E2,-5.0842173E-2,2.7223618E-3,-5.85674E-3,-3.326819E-2,-9.846329E-3,-9.433324E-4,-1.9472593E-2,-1.8274296E-2,-4.2581838E-2,-9.290709E-4,1.4581934E-2,4.644214E-3,-8.903767E-3,1.5762491E-2,3.409339E-3,1.2249899E-2,-1.4050401E-2,-1.5555468E-2,2.8916497E-3,-2.4093894E-2,-1.9609618E-3],"split_indices":[2,1,14,16,2,10,1,15,1,14,14,0,19,14,0,5,0,0,0,2,1,10,0,9,0,0,0,0,0,0,0,0,0,0,0,0,0,0,0,0,0,0,0,0,0],"split_type":[0,0,0,0,0,0,0,0,0,0,0,0,0,0,0,0,0,0,0,0,0,0,0,0,0,0,0,0,0,0,0,0,0,0,0,0,0,0,0,0,0,0,0,0,0],"sum_hessian":[5.52E2,4.9E2,6.2E1,2.21E2,2.69E2,4.5E1,1.7E1,8.6E1,1.35E2,2.31E2,3.8E1,3.5E1,1E1,6E0,1.1E1,7.2E1,1.4E1,5.2E1,8.3E1,1.98E2,3.3E1,3.4E1,4E0,2.9E1,6E0,5E0,5E0,3E0,3E0,5.8E1,1.4E1,7E0,7E0,1.3E1,3.9E1,5.1E1,3.2E1,1.46E2,5.2E1,1.7E1,1.6E1,1.1E1,2.3E1,2.6E1,3E0],"tree_param":{"num_deleted":"0","num_feature":"21","num_nodes":"45","size_leaf_vector":"1"}},{"base_weights":[-2.1544205E-2,1.4617081E-1,-5.767185E-1,2.2295228E-1,-4.0409025E-2,-3.432045E-1,-7.887128E-1,1.6424991E-1,3.2913363E-1,4.956823E-2,-4.4801533E-1,-1.4250779E-1,-5.425075E-1,-6.0077935E-1,-1.0932559E0,-1.8693896E-2,1.8135542E-1,4.739501E-1,2.5155547E-1,1.0676307E-1,-2.0818429E-1,1.2744555E-2,-6.2393296E-1,-3.5374225E-3,-2.1894444E-2,-3.303967E-1,-6.42656E-1,-6.4469916E-1,-0E0,-1.2484329E0,-2.1442449E-2,6.701278E-3,1.5767232E-2,2.9394448E-2,1.0386904E-2,-7.816291E-3,1.8002013E-2,-1.2385122E-3,1.1750181E-2,5.1422254E-3,-3.629608E-2,-5.117344E-3,-4.0448893E-2,-6.6702063E-3,5.914537E-3,-2.3745513E-2,-4.5032413E-3,-3.6895826E-2,-1.7982496E-2,-3.4768056E-2,-1.7448185E-2,-8.688768E-2,-3.849892E-2],"categories":[],"categories_nodes":[],"categories_segments":[],"categories_sizes":[],"default_left":[0,0,0,0,0,0,0,0,0,0,0,0,0,0,0,0,0,0,0,0,0,0,0,0,0,0,0,0,0,0,0,0,0,0,0,0,0,0,0,0,0,0,0,0,0,0,0,0,0,0,0,0,0],"id":32,"left_children":[1,3,5,7,9,11,13,15,17,19,21,23,25,27,29,-1,31,33,35,37,39,-1,41,43,-1,45,47,49,-1,51,-1,-1,-1,-1,-1,-1,-1,-1,-1,-1,-1,-1,-1,-1,-1,-1,-1,-1,-1,-1,-1,-1,-1],"loss_changes":[4.975555E1,5.9008713E0,5.75457E0,1.710433E0,4.463087E0,2.2941542E0,2.8367538E0,1.7974925E0,9.5415306E-1,1.4715536E0,2.9163184E0,1.2678833E0,3.2763958E-1,1.0505381E0,1.6681976E0,0E0,1.0860114E0,8.295946E-1,3.1298304E0,1.4100127E0,3.035527E0,0E0,1.5633745E0,3.811845E-1,0E0,3.175043E-1,1.3707876E-1,2.3723221E-1,0E0,2.625311E0,0E0,0E0,0E0,0E0,0E0,0E0,0E0,0E0,0E0,0E0,0E0,0E0,0E0,0E0,0E0,0E0,0E0,0E0,0E0,0E0,0E0,0E0,0E0],"parents":[2147483647,0,0,1,1,2,2,3,3,4,4,5,5,6,6,7,7,8,8,9,9,10,10,11,11,12,12,13,13,14,14,16,16,17,17,18,18,19,19,20,20,22,22,23,23,25,25,26,26,27,27,29,29],"right_children":[2,4,6,8,10,12,14,16,18,20,22,24,26,28,30,-1,32,34,36,38,40,-1,42,44,-1,46,48,50,-1,52,-1,-1,-1,-1,-1,-1,-1,-1,-1,-1,-1,-1,-1,-1,-1,-1,-1,-1,-1,-1,-1,-1,-1],"split_conditions":[6.318E1,4.096E1,1.73E-1,1.2142E3,2.32E-1,7.808E1,4.78E0,3.3E1,3.9E0,9.94E1,2.91E-2,1.51E-1,3.63E-1,7.9E1,2.257E3,-1.8693896E-2,6E-1,1.777E3,2.32E2,8.34E2,2.17E0,1.2744555E-2,4.29E2,1.8578E3,-2.1894444E-2,7.91E2,2.084E3,1.807E3,-0E0,7.463E1,-2.1442449E-2,6.701278E-3,1.5767232E-2,2.9394448E-2,1.0386904E-2,-7.816291E-3,1.8002013E-2,-1.2385122E-3,1.1750181E-2,5.1422254E-3,-3.629608E-2,-5.117344E-3,-4.0448893E-2,-6.6702063E-3,5.914537E-3,-2.3745513E-2,-4.5032413E-3,-3.6895826E-2,-1.7982496E-2,-3.4768056E-2,-1.7448185E-2,-8.688768E-2,-3.849892E-2],"split_indices":[4,4,14,0,14,4,19,1,4,12,13,14,6,15,1,0,3,1,1,1,17,0,1,0,0,1,1,1,0,2,0,0,0,0,0,0,0,0,0,0,0,0,0,0,0,0,0,0,0,0,0,0,0],"split_type":[0,0,0,0,0,0,0,0,0,0,0,0,0,0,0,0,0,0,0,0,0,0,0,0,0,0,0,0,0,0,0,0,0,0,0,0,0,0,0,0,0,0,0,0,0,0,0,0,0,0,0,0,0],"sum_hessian":[5.32E2,4.09E2,1.23E2,2.9E2,1.19E2,6E1,6.3E1,1.89E2,1.01E2,9.8E1,2.1E1,3.1E1,2.9E1,4.1E1,2.2E1,5E0,1.84E2,3.3E1,6.8E1,8.1E1,1.7E1,4E0,1.7E1,2.2E1,9E0,1.1E1,1.8E1,3.8E1,3E0,1.7E1,5E0,1.38E2,4.6E1,2.2E1,1.1E1,1.4E1,5.4E1,4E1,4.1E1,1.1E1,6E0,5E0,1.2E1,1.1E1,1.1E1,6E0,5E0,1.2E1,6E0,3.1E1,7E0,7E0,1E1],"tree_param":{"num_deleted":"0","num_feature":"21","num_nodes":"53","size_leaf_vector":"1"}},{"base_weights":[-1.7049009E-2,1.7437665E-1,-4.603647E-1,1.8307938E-1,-2.509529E-2,-6.518857E-1,-2.2367029E-1,2.4774528E-1,9.940724E-2,-4.0085447E-1,-8.3052725E-1,-1.1020682E-1,-6.3602036E-1,1.4896685E-1,3.251604E-1,1.192642E-1,-3.5977222E-2,-2.0068356E-1,-2.608866E-2,-5.60772E-3,-8.701796E-1,4.9776074E-2,-2.2546649E-1,-3.1973648E-1,-3.9190855E-2,-6.2185917E-3,8.818275E-3,9.647897E-3,1.8651975E-2,9.3844015E-4,8.777951E-3,1.0921973E-3,-2.6799312E-2,-5.0030548E-2,-2.6618833E-2,-1.041415E-3,7.851957E-3,-3.361787E-3,-2.3108471E-2,-2.0434283E-2,-6.2926575E-3],"categories":[],"categories_nodes":[],"categories_segments":[],"categories_sizes":[],"default_left":[0,0,0,0,0,0,0,0,0,0,0,0,0,0,0,0,0,0,0,0,0,0,0,0,0,0,0,0,0,0,0,0,0,0,0,0,0,0,0,0,0],"id":33,"left_children":[1,3,5,7,-1,9,11,13,15,17,19,21,23,25,27,29,-1,31,-1,-1,33,35,37,39,-1,-1,-1,-1,-1,-1,-1,-1,-1,-1,-1,-1,-1,-1,-1,-1,-1],"loss_changes":[4.669811E1,2.3200388E0,7.2917404E0,1.9967365E0,0E0,3.6248016E0,3.4110706E0,1.5329475E0,2.7577858E0,7.912197E-1,1.2854004E0,1.153606E0,3.8696146E-1,7.46089E-1,6.183281E-1,9.1073847E-1,0E0,1.3315616E0,0E0,0E0,1.4729462E0,2.1379626E-1,1.2643178E0,1.5832126E-2,0E0,0E0,0E0,0E0,0E0,0E0,0E0,0E0,0E0,0E0,0E0,0E0,0E0,0E0,0E0,0E0,0E0],"parents":[2147483647,0,0,1,1,2,2,3,3,5,5,6,6,7,7,8,8,9,9,10,10,11,11,12,12,13,13,14,14,15,15,17,17,20,20,21,21,22,22,23,23],"right_children":[2,4,6,8,-1,10,12,14,16,18,20,22,24,26,28,30,-1,32,-1,-1,34,36,38,40,-1,-1,-1,-1,-1,-1,-1,-1,-1,-1,-1,-1,-1,-1,-1,-1,-1],"split_conditions":[5.201E1,1E0,5.26E1,2.562E1,-2.509529E-2,1.82E-1,8.176E1,5.421E2,3.01E-1,9.92E1,3.56E0,6.238E1,3.23E-1,6E-1,6.88E1,1.0153E3,-3.5977222E-2,2.0438E3,-2.608866E-2,-5.60772E-3,8.17E1,1.8129E3,1.37E-1,1.8142E3,-3.9190855E-2,-6.2185917E-3,8.818275E-3,9.647897E-3,1.8651975E-2,9.3844015E-4,8.777951E-3,1.0921973E-3,-2.6799312E-2,-5.0030548E-2,-2.6618833E-2,-1.041415E-3,7.851957E-3,-3.361787E-3,-2.3108471E-2,-2.0434283E-2,-6.2926575E-3],"split_indices":[4,18,10,4,0,14,4,0,14,12,19,4,6,4,16,0,0,0,0,0,16,0,14,0,0,0,0,0,0,0,0,0,0,0,0,0,0,0,0,0,0],"split_type":[0,0,0,0,0,0,0,0,0,0,0,0,0,0,0,0,0,0,0,0,0,0,0,0,0,0,0,0,0,0,0,0,0,0,0,0,0,0,0,0,0],"sum_hessian":[5.48E2,3.83E2,1.65E2,3.79E2,4E0,9E1,7.5E1,2.12E2,1.67E2,3.9E1,5.1E1,6E1,1.5E1,9.5E1,1.17E2,1.64E2,3E0,1.6E1,2.3E1,3E0,4.8E1,2.5E1,3.5E1,6E0,9E0,8E0,8.7E1,3.3E1,8.4E1,6E1,1.04E2,1E1,6E0,3.3E1,1.5E1,1.5E1,1E1,2.2E1,1.3E1,3E0,3E0],"tree_param":{"num_deleted":"0","num_feature":"21","num_nodes":"41","size_leaf_vector":"1"}},{"base_weights":[-1.7139327E-2,8.7766945E-2,-5.3676325E-1,9.730828E-2,-3.049461E-2,-3.482176E-1,-9.179034E-1,2.3323456E-2,1.4951022E-1,-2.2723518E-2,-4.7858512E-1,-6.570416E-1,-1.2759463E0,9.8433584E-2,-1.1094061E-1,1.5621568E-1,-2.1736326E-2,-8.3847724E-2,1.0122709E-2,-5.1928073E-1,-1.8651643E-3,-3.571277E-2,-1.669959E-2,-7.9695456E-2,-2.7780453E-2,2.3022539E-3,9.381542E-3,-2.6815513E-3,-3.8969573E-2,7.30087E-3,1.3309176E-2,-1.4632724E-2,6.0946764E-3,-7.1400614E-3,-0E0,-2.2868803E-2,-4.6853937E-2],