{"learner":{"attributes":{"scikit_learn":"{\"_estimator_type\": \"classifier\"}"},"feature_names":["tenure_years","days_until_renewal","contract_renewals_done","account_manager_changes","share_tier","annual_hours_contracted","cobalt_pass_holder","jetfly_access","aircraft_pref_encoded","region_encoded","utilization_rate_12m","utilization_rate_prior_12m","utilization_rate_delta","flights_12m","flights_prior_12m","flights_90d","days_since_last_flight","longest_gap_days","avg_flight_duration_hrs","trip_purpose_biz_pct","unique_airports_12m","on_time_departure_rate","complaints_12m","escalations_12m","unresolved_issues","avg_satisfaction_score","pct_interactions_complaints","days_since_last_interaction","avg_app_sessions_month","total_email_opens_12m","events_attended_12m","am_calls_12m"],"feature_types":["float","int","int","int","int","int","int","int","int","int","float","float","float","int","int","int","int","int","float","float","int","float","int","int","int","float","float","int","float","int","int","int"],"gradient_booster":{"model":{"cats":{"enc":[],"feature_segments":[],"sorted_idx":[]},"gbtree_model_param":{"num_parallel_tree":"1","num_trees":"500"},"iteration_indptr":[0,1,2,3,4,5,6,7,8,9,10,11,12,13,14,15,16,17,18,19,20,21,22,23,24,25,26,27,28,29,30,31,32,33,34,35,36,37,38,39,40,41,42,43,44,45,46,47,48,49,50,51,52,53,54,55,56,57,58,59,60,61,62,63,64,65,66,67,68,69,70,71,72,73,74,75,76,77,78,79,80,81,82,83,84,85,86,87,88,89,90,91,92,93,94,95,96,97,98,99,100,101,102,103,104,105,106,107,108,109,110,111,112,113,114,115,116,117,118,119,120,121,122,123,124,125,126,127,128,129,130,131,132,133,134,135,136,137,138,139,140,141,142,143,144,145,146,147,148,149,150,151,152,153,154,155,156,157,158,159,160,161,162,163,164,165,166,167,168,169,170,171,172,173,174,175,176,177,178,179,180,181,182,183,184,185,186,187,188,189,190,191,192,193,194,195,196,197,198,199,200,201,202,203,204,205,206,207,208,209,210,211,212,213,214,215,216,217,218,219,220,221,222,223,224,225,226,227,228,229,230,231,232,233,234,235,236,237,238,239,240,241,242,243,244,245,246,247,248,249,250,251,252,253,254,255,256,257,258,259,260,261,262,263,264,265,266,267,268,269,270,271,272,273,274,275,276,277,278,279,280,281,282,283,284,285,286,287,288,289,290,291,292,293,294,295,296,297,298,299,300,301,302,303,304,305,306,307,308,309,310,311,312,313,314,315,316,317,318,319,320,321,322,323,324,325,326,327,328,329,330,331,332,333,334,335,336,337,338,339,340,341,342,343,344,345,346,347,348,349,350,351,352,353,354,355,356,357,358,359,360,361,362,363,364,365,366,367,368,369,370,371,372,373,374,375,376,377,378,379,380,381,382,383,384,385,386,387,388,389,390,391,392,393,394,395,396,397,398,399,400,401,402,403,404,405,406,407,408,409,410,411,412,413,414,415,416,417,418,419,420,421,422,423,424,425,426,427,428,429,430,431,432,433,434,435,436,437,438,439,440,441,442,443,444,445,446,447,448,449,450,451,452,453,454,455,456,457,458,459,460,461,462,463,464,465,466,467,468,469,470,471,472,473,474,475,476,477,478,479,480,481,482,483,484,485,486,487,488,489,490,491,492,493,494,495,496,497,498,499,500],"tree_info":[0,0,0,0,0,0,0,0,0,0,0,0,0,0,0,0,0,0,0,0,0,0,0,0,0,0,0,0,0,0,0,0,0,0,0,0,0,0,0,0,0,0,0,0,0,0,0,0,0,0,0,0,0,0,0,0,0,0,0,0,0,0,0,0,0,0,0,0,0,0,0,0,0,0,0,0,0,0,0,0,0,0,0,0,0,0,0,0,0,0,0,0,0,0,0,0,0,0,0,0,0,0,0,0,0,0,0,0,0,0,0,0,0,0,0,0,0,0,0,0,0,0,0,0,0,0,0,0,0,0,0,0,0,0,0,0,0,0,0,0,0,0,0,0,0,0,0,0,0,0,0,0,0,0,0,0,0,0,0,0,0,0,0,0,0,0,0,0,0,0,0,0,0,0,0,0,0,0,0,0,0,0,0,0,0,0,0,0,0,0,0,0,0,0,0,0,0,0,0,0,0,0,0,0,0,0,0,0,0,0,0,0,0,0,0,0,0,0,0,0,0,0,0,0,0,0,0,0,0,0,0,0,0,0,0,0,0,0,0,0,0,0,0,0,0,0,0,0,0,0,0,0,0,0,0,0,0,0,0,0,0,0,0,0,0,0,0,0,0,0,0,0,0,0,0,0,0,0,0,0,0,0,0,0,0,0,0,0,0,0,0,0,0,0,0,0,0,0,0,0,0,0,0,0,0,0,0,0,0,0,0,0,0,0,0,0,0,0,0,0,0,0,0,0,0,0,0,0,0,0,0,0,0,0,0,0,0,0,0,0,0,0,0,0,0,0,0,0,0,0,0,0,0,0,0,0,0,0,0,0,0,0,0,0,0,0,0,0,0,0,0,0,0,0,0,0,0,0,0,0,0,0,0,0,0,0,0,0,0,0,0,0,0,0,0,0,0,0,0,0,0,0,0,0,0,0,0,0,0,0,0,0,0,0,0,0,0,0,0,0,0,0,0,0,0,0,0,0,0,0,0,0,0,0,0,0,0,0,0,0,0,0,0,0,0,0,0,0,0,0,0,0,0,0,0,0,0,0,0,0,0,0,0,0,0,0,0,0,0,0,0,0,0,0,0,0,0,0,0,0,0,0,0,0,0,0,0,0,0,0,0,0,0,0,0,0,0,0,0,0],"trees":[{"base_weights":[-5.5195905E-2,1.1027062E0,-1.7163172E0,1.7527081E0,4.7623587E-1,2.417316E-2,-7.772903E-2,7.653858E-2,1.8622952E-2,-9.763158E-1,1.2498665E0,-6.964706E-2,3.038532E-2,-2.6832293E-3,6.732004E-2],"categories":[],"categories_nodes":[],"categories_segments":[],"categories_sizes":[],"default_left":[0,0,0,0,0,0,0,0,0,0,0,0,0,0,0],"id":0,"left_children":[1,3,5,7,9,-1,-1,-1,-1,11,13,-1,-1,-1,-1],"loss_changes":[1.9742696E2,2.3316368E1,2.3659523E1,4.6577454E0,3.7558758E1,0E0,0E0,0E0,0E0,1.704353E1,1.275486E1,0E0,0E0,0E0,0E0],"parents":[2147483647,0,0,1,1,2,2,3,3,4,4,9,9,10,10],"right_children":[2,4,6,8,10,-1,-1,-1,-1,12,14,-1,-1,-1,-1],"split_conditions":[4.2E1,1E1,6E0,7E1,1E2,2.417316E-2,-7.772903E-2,7.653858E-2,1.8622952E-2,4.27E0,1E0,-6.964706E-2,3.038532E-2,-2.6832293E-3,6.732004E-2],"split_indices":[20,13,27,27,5,0,0,0,0,0,30,0,0,0,0],"split_type":[0,0,0,0,0,0,0,0,0,0,0,0,0,0,0],"sum_hessian":[1.0059615E2,5.9403847E1,4.1192307E1,2.8115385E1,3.1288462E1,3.4423077E0,3.775E1,2.4423077E1,3.6923077E0,1.0692307E1,2.0596153E1,7.5E0,3.1923077E0,5.1923075E0,1.5403847E1],"tree_param":{"num_deleted":"0","num_feature":"32","num_nodes":"15","size_leaf_vector":"1"}},{"base_weights":[8.5185856E-2,1.5902319E0,-1.2226294E0,1.7633387E0,5.1862466E-1,-1.6847169E0,7.956918E-1,7.262762E-2,3.2607272E-2,3.0648762E-2,7.2015566E-3,-7.544577E-2,2.9400442E-2,-1.946043E-3,6.3315846E-2],"categories":[],"categories_nodes":[],"categories_segments":[],"categories_sizes":[],"default_left":[0,0,0,0,0,0,0,0,0,0,0,0,0,0,0],"id":1,"left_children":[1,3,5,7,9,11,13,-1,-1,-1,-1,-1,-1,-1,-1],"loss_changes":[2.0694606E2,7.702446E0,5.393361E1,5.5282593E-2,3.7528968E-1,2.4101486E1,7.740778E0,0E0,0E0,0E0,0E0,0E0,0E0,0E0,0E0],"parents":[2147483647,0,0,1,1,2,2,3,3,4,4,5,5,6,6],"right_children":[2,4,6,8,10,12,14,-1,-1,-1,-1,-1,-1,-1,-1],"split_conditions":[3.419E-1,2.452E-1,3E0,8E0,3.21E0,1.005E3,6.1E1,7.262762E-2,3.2607272E-2,3.0648762E-2,7.2015566E-3,-7.544577E-2,2.9400442E-2,-1.946043E-3,6.3315846E-2],"split_indices":[10,12,22,15,25,1,29,0,0,0,0,0,0,0,0],"split_type":[0,0,0,0,0,0,0,0,0,0,0,0,0,0,0],"sum_hessian":[1.0311319E2,4.7912277E1,5.5200916E1,4.053253E1,7.379745E0,4.5132393E1,1.0068522E1,3.7344666E1,3.1878672E0,3.1919253E0,4.1878195E0,4.194398E1,3.188411E0,5.188044E0,4.8804784E0],"tree_param":{"num_deleted":"0","num_feature":"32","num_nodes":"15","size_leaf_vector":"1"}},{"base_weights":[2.0176206E-2,1.5708474E0,-1.3087258E0,1.710059E0,2.6467402E-2,4.6647314E-2,-1.6304741E0,7.100827E-2,2.8024038E-2,-7.297961E-2,3.0428251E-2],"categories":[],"categories_nodes":[],"categories_segments":[],"categories_sizes":[],"default_left":[0,0,0,0,0,0,0,0,0,0,0],"id":2,"left_children":[1,3,5,7,-1,-1,9,-1,-1,-1,-1],"loss_changes":[2.0343826E2,4.167038E0,4.426844E1,8.083954E-1,0E0,0E0,2.3622932E1,0E0,0E0,0E0,0E0],"parents":[2147483647,0,0,1,1,2,2,3,3,6,6],"right_children":[2,4,6,8,-1,-1,10,-1,-1,-1,-1],"split_conditions":[3.419E-1,2.452E-1,-2.545E-1,1.388E1,2.6467402E-2,4.6647314E-2,4E0,7.100827E-2,2.8024038E-2,-7.297961E-2,3.0428251E-2],"split_indices":[10,12,12,28,0,0,22,0,0,0,0],"split_type":[0,0,0,0,0,0,0,0,0,0,0],"sum_hessian":[9.670029E1,4.461191E1,5.208838E1,3.7733265E1,6.8786454E0,5.6191773E0,4.64692E1,3.4546986E1,3.1862783E0,4.327831E1,3.1908934E0],"tree_param":{"num_deleted":"0","num_feature":"32","num_nodes":"11","size_leaf_vector":"1"}},{"base_weights":[1.5926199E-2,1.5052463E0,-1.2839314E0,1.6619775E0,4.9381208E-1,-1.5842488E0,3.7758887E-2,7.176899E-2,1.0309632E0,8.304865E-3,2.6561094E-2,2.979446E-2,-7.065296E-2,8.330157E-3,6.0418833E-2],"categories":[],"categories_nodes":[],"categories_segments":[],"categories_sizes":[],"default_left":[0,0,0,0,0,0,0,0,0,0,0,0,0,0,0],"id":3,"left_children":[1,3,5,7,9,11,-1,-1,13,-1,-1,-1,-1,-1,-1],"loss_changes":[2.0070728E2,6.4163895E0,3.861158E1,1.0307388E0,8.161175E-2,2.2370712E1,0E0,0E0,3.1946259E0,0E0,0E0,0E0,0E0,0E0,0E0],"parents":[2147483647,0,0,1,1,2,2,3,3,4,4,5,5,8,8],"right_children":[2,4,6,8,10,12,-1,-1,14,-1,-1,-1,-1,-1,-1],"split_conditions":[3.419E-1,2.731E-1,1.005E3,1.029E1,8.27E2,5E0,3.7758887E-2,7.176899E-2,8.33E-2,8.304865E-3,2.6561094E-2,2.979446E-2,-7.065296E-2,8.330157E-3,6.0418833E-2],"split_indices":[10,10,1,28,1,27,0,0,26,0,0,0,0,0,0],"split_type":[0,0,0,0,0,0,0,0,0,0,0,0,0,0,0],"sum_hessian":[1.01655075E2,4.737301E1,5.428207E1,4.028893E1,7.0840797E0,4.8167812E1,6.114259E0,3.1522194E1,8.766733E0,3.9080482E0,3.1760314E0,3.188687E0,4.4979126E1,3.909854E0,4.856879E0],"tree_param":{"num_deleted":"0","num_feature":"32","num_nodes":"15","size_leaf_vector":"1"}},{"base_weights":[2.1781676E-2,1.1854738E0,-1.3725171E0,1.4171318E0,-5.73534E-2,-1.5418022E0,3.0358998E-2,1.5508354E0,8.6674135E-4,2.6354171E-2,-6.896621E-2,6.469585E-2,3.5738956E-2],"categories":[],"categories_nodes":[],"categories_segments":[],"categories_sizes":[],"default_left":[0,0,0,0,0,0,0,0,0,0,0,0,0],"id":4,"left_children":[1,3,5,7,-1,9,-1,11,-1,-1,-1,-1,-1],"loss_changes":[1.7410764E2,3.7568268E1,1.8919235E1,9.798866E0,0E0,1.9642197E1,0E0,2.1789551E-1,0E0,0E0,0E0,0E0,0E0],"parents":[2147483647,0,0,1,1,2,2,3,3,5,5,7,7],"right_children":[2,4,6,8,-1,10,-1,12,-1,-1,-1,-1,-1],"split_conditions":[3.4E1,2.763E-1,2.38E0,5.144E-1,-5.73534E-2,1.429E-1,3.0358998E-2,1.1E1,8.6674135E-4,2.6354171E-2,-6.896621E-2,6.469585E-2,3.5738956E-2],"split_indices":[20,12,18,11,0,19,0,31,0,0,0,0,0],"split_type":[0,0,0,0,0,0,0,0,0,0,0,0,0],"sum_hessian":[1.0532622E2,5.757059E1,4.7755627E1,5.3384464E1,4.1861267E0,4.4585125E1,3.1705034E0,4.8484367E1,4.9000974E0,3.1278667E0,4.1457256E1,4.2424046E1,6.06032E0],"tree_param":{"num_deleted":"0","num_feature":"32","num_nodes":"13","size_leaf_vector":"1"}},{"base_weights":[1.4199126E-1,1.4418999E0,-1.0815876E0,1.5685639E0,4.830573E-1,-1.4941721E0,8.7011933E-1,6.483602E-2,2.2823222E-2,7.920469E-3,2.6171906E-2,-6.675677E-2,2.8946621E-2,3.5706453E-3,5.6710355E-2],"categories":[],"categories_nodes":[],"categories_segments":[],"categories_sizes":[],"default_left":[0,0,0,0,0,0,0,0,0,0,0,0,0,0,0],"id":5,"left_children":[1,3,5,7,9,11,13,-1,-1,-1,-1,-1,-1,-1,-1],"loss_changes":[1.8106117E2,5.5369034E0,4.8615013E1,1.1510391E0,9.394324E-2,2.0321152E1,4.1793146E0,0E0,0E0,0E0,0E0,0E0,0E0,0E0,0E0],"parents":[2147483647,0,0,1,1,2,2,3,3,4,4,5,5,6,6],"right_children":[2,4,6,8,10,12,14,-1,-1,-1,-1,-1,-1,-1,-1],"split_conditions":[3.419E-1,2.452E-1,3E0,1.46E2,8E0,1.005E3,7.12E2,6.483602E-2,2.2823222E-2,7.920469E-3,2.6171906E-2,-6.675677E-2,2.8946621E-2,3.5706453E-3,5.6710355E-2],"split_indices":[10,12,22,27,15,1,1,0,0,0,0,0,0,0,0],"split_type":[0,0,0,0,0,0,0,0,0,0,0,0,0,0,0],"sum_hessian":[1.11810425E2,5.4206944E1,5.760348E1,4.7135784E1,7.0711594E0,4.7829403E1,9.774077E0,4.4003555E1,3.1322296E0,3.901326E0,3.1698337E0,4.4649105E1,3.1802983E0,4.6590977E0,5.1149797E0],"tree_param":{"num_deleted":"0","num_feature":"32","num_nodes":"15","size_leaf_vector":"1"}},{"base_weights":[-4.192113E-2,1.456956E0,-1.1733319E0,1.0151268E0,6.567646E-2,4.699115E-2,-1.4695929E0,5.7971362E-2,-1.8488639E-4,-6.538058E-2,2.6234865E-2],"categories":[],"categories_nodes":[],"categories_segments":[],"categories_sizes":[],"default_left":[0,0,0,0,0,0,0,0,0,0,0],"id":6,"left_children":[1,3,5,7,-1,-1,9,-1,-1,-1,-1],"loss_changes":[1.6243642E2,1.164772E0,3.9808365E1,6.972989E0,0E0,0E0,1.8462975E1,0E0,0E0,0E0,0E0],"parents":[2147483647,0,0,1,1,2,2,3,3,6,6],"right_children":[2,4,6,8,-1,-1,10,-1,-1,-1,-1],"split_conditions":[3.149E-1,1E0,-2.545E-1,2.302E-1,6.567646E-2,4.699115E-2,9.92E2,5.7971362E-2,-1.8488639E-4,-6.538058E-2,2.6234865E-2],"split_indices":[10,22,12,10,0,0,1,0,0,0,0],"split_type":[0,0,0,0,0,0,0,0,0,0,0],"sum_hessian":[9.381031E1,4.0152428E1,5.3657883E1,1.4082182E1,2.6070248E1,5.6036844E0,4.8054195E1,9.719165E0,4.3630166E0,4.489568E1,3.1585188E0],"tree_param":{"num_deleted":"0","num_feature":"32","num_nodes":"11","size_leaf_vector":"1"}},{"base_weights":[6.588348E-2,1.0181501E0,-6.34396E-2,1.3400925E0,-6.954783E-1,1.4581233E0,1.9325935E-3,-5.8485966E-2,3.3923198E-2,6.016829E-2,2.0832837E-2],"categories":[],"categories_nodes":[],"categories_segments":[],"categories_sizes":[],"default_left":[0,0,0,0,0,0,0,0,0,0,0],"id":7,"left_children":[1,3,-1,5,7,9,-1,-1,-1,-1,-1],"loss_changes":[1.6136217E2,3.7003593E1,0E0,8.057701E0,1.4219448E1,9.9209595E-1,0E0,0E0,0E0,0E0,0E0],"parents":[2147483647,0,0,1,1,3,3,4,4,5,5],"right_children":[2,4,-1,6,8,10,-1,-1,-1,-1,-1],"split_conditions":[4.744E-1,2.763E-1,-6.34396E-2,4.014E-1,1E0,1.46E2,1.9325935E-3,-5.8485966E-2,3.3923198E-2,6.016829E-2,2.0832837E-2],"split_indices":[10,12,0,10,23,27,0,0,0,0,0],"split_type":[0,0,0,0,0,0,0,0,0,0,0],"sum_hessian":[1.00626526E2,6.415016E1,3.6476364E1,5.428604E1,9.864122E0,4.9481293E1,4.804746E0,6.7124324E0,3.15169E0,4.6382614E1,3.0986784E0],"tree_param":{"num_deleted":"0","num_feature":"32","num_nodes":"11","size_leaf_vector":"1"}},{"base_weights":[-6.800576E-3,8.765335E-1,-6.1741516E-2,1.1590692E0,-5.8849983E-2,1.334098E0,-5.2508064E-2,5.870585E-2,1.3811877E-3],"categories":[],"categories_nodes":[],"categories_segments":[],"categories_sizes":[],"default_left":[0,0,0,0,0,0,0,0,0],"id":8,"left_children":[1,3,-1,5,-1,7,-1,-1,-1],"loss_changes":[1.3185686E2,4.246474E1,0E0,2.5794945E1,0E0,8.754059E0,0E0,0E0,0E0],"parents":[2147483647,0,0,1,1,3,3,5,5],"right_children":[2,4,-1,6,-1,8,-1,-1,-1],"split_conditions":[5.019E-1,8.2E1,-6.1741516E-2,3.85E0,-5.8849983E-2,2.763E-1,-5.2508064E-2,5.870585E-2,1.3811877E-3],"split_indices":[10,27,0,25,0,12,0,0,0],"split_type":[0,0,0,0,0,0,0,0,0],"sum_hessian":[9.5040565E1,6.0540607E1,3.4499958E1,5.4565598E1,5.9750066E0,5.1462654E1,3.1029465E0,4.6410145E1,5.0525074E0],"tree_param":{"num_deleted":"0","num_feature":"32","num_nodes":"9","size_leaf_vector":"1"}},{"base_weights":[1.4481518E-1,9.2910504E-1,-6.034715E-2,1.2583876E0,-7.63929E-1,5.620836E-2,2.948022E-1,-5.7631027E-2,3.3868175E-2,-4.894128E-2,5.432846E-2],"categories":[],"categories_nodes":[],"categories_segments":[],"categories_sizes":[],"default_left":[0,0,0,0,0,0,0,0,0,0,0],"id":9,"left_children":[1,3,-1,5,7,-1,9,-1,-1,-1,-1],"loss_changes":[1.3633357E2,4.082864E1,0E0,7.7620697E0,1.45715E1,0E0,1.687417E1,0E0,0E0,0E0,0E0],"parents":[2147483647,0,0,1,1,3,3,4,4,6,6],"right_children":[2,4,-1,6,8,-1,10,-1,-1,-1,-1],"split_conditions":[5.019E-1,2.763E-1,-6.034715E-2,4.014E-1,4.714E-1,5.620836E-2,2E0,-5.7631027E-2,3.3868175E-2,-4.894128E-2,5.432846E-2],"split_indices":[10,12,0,10,12,0,22,0,0,0,0],"split_type":[0,0,0,0,0,0,0,0,0,0,0],"sum_hessian":[1.0313774E2,7.0335205E1,3.280254E1,5.9196735E1,1.1138469E1,5.0791733E1,8.405003E0,8.0043745E0,3.1340945E0,3.3224974E0,5.0825057E0],"tree_param":{"num_deleted":"0","num_feature":"32","num_nodes":"11","size_leaf_vector":"1"}},{"base_weights":[1.390462E-2,1.2408043E0,-1.1975218E0,1.3884779E0,2.695298E-1,3.655454E-2,-6.0164437E-2,5.7540998E-2,2.0107808E-2,2.14969E-2,-0E0],"categories":[],"categories_nodes":[],"categories_segments":[],"categories_sizes":[],"default_left":[0,0,0,0,0,0,0,0,0,0,0],"id":10,"left_children":[1,3,5,7,9,-1,-1,-1,-1,-1,-1],"loss_changes":[1.5098602E2,6.5437546E0,3.4529526E1,8.1495667E-1,5.862234E-1,0E0,0E0,0E0,0E0,0E0,0E0],"parents":[2147483647,0,0,1,1,2,2,3,3,4,4],"right_children":[2,4,6,8,10,-1,-1,-1,-1,-1,-1],"split_conditions":[3.419E-1,2.452E-1,-2.545E-1,9E0,3.21E0,3.655454E-2,-6.0164437E-2,5.7540998E-2,2.0107808E-2,2.14969E-2,-0E0],"split_indices":[10,12,12,15,25,0,0,0,0,0,0],"split_type":[0,0,0,0,0,0,0,0,0,0,0],"sum_hessian":[9.957969E1,4.954386E1,5.003583E1,4.24537E1,7.0901613E0,6.0104733E0,4.402536E1,3.937897E1,3.0747294E0,3.0645795E0,4.025582E0],"tree_param":{"num_deleted":"0","num_feature":"32","num_nodes":"11","size_leaf_vector":"1"}},{"base_weights":[1.3432877E-2,1.2673216E0,-9.1550636E-1,1.3879821E0,2.8302611E-3,3.800404E-2,-1.1786579E0,3.0881995E-2,5.8420543E-2,2.0316858E-2,-1.3252845E0,-5.9307907E-2,1.7686829E-2],"categories":[],"categories_nodes":[],"categories_segments":[],"categories_sizes":[],"default_left":[0,0,0,0,0,0,0,0,0,0,0,0,0],"id":11,"left_children":[1,3,5,7,-1,-1,9,-1,-1,-1,11,-1,-1],"loss_changes":[1.06796104E2,5.2524147E0,2.6964458E1,2.6855469E-3,0E0,0E0,1.2359291E1,0E0,0E0,0E0,1.28978195E1,0E0,0E0],"parents":[2147483647,0,0,1,1,2,2,3,3,6,6,10,10],"right_children":[2,4,6,8,-1,-1,10,-1,-1,-1,12,-1,-1],"split_conditions":[2.972E-1,2.452E-1,7E0,5.4E-1,2.8302611E-3,3.800404E-2,-2.545E-1,3.0881995E-2,5.8420543E-2,2.0316858E-2,4.5E1,-5.9307907E-2,1.7686829E-2],"split_indices":[10,12,27,0,0,0,12,0,0,0,16,0,0],"split_type":[0,0,0,0,0,0,0,0,0,0,0,0,0],"sum_hessian":[8.963078E1,3.8080494E1,5.1550285E1,3.429509E1,3.7854035E0,5.955858E0,4.559443E1,5.130341E0,2.9164751E1,3.3406277E0,4.22538E1,3.905018E1,3.203623E0],"tree_param":{"num_deleted":"0","num_feature":"32","num_nodes":"13","size_leaf_vector":"1"}},{"base_weights":[-1.6752054E-1,4.516669E-1,-5.7040717E-2,8.27939E-1,-7.661784E-1,1.1117667E0,-4.3747348E-1,-5.4186165E-2,3.5512928E-2,4.964302E-2,1.4558201E-2,-4.874138E-2,2.7116533E-2],"categories":[],"categories_nodes":[],"categories_segments":[],"categories_sizes":[],"default_left":[0,0,0,0,0,0,0,0,0,0,0,0,0],"id":12,"left_children":[1,3,-1,5,7,9,11,-1,-1,-1,-1,-1,-1],"loss_changes":[6.512004E1,2.6281582E1,0E0,1.618847E1,1.4531843E1,2.6904907E0,8.364752E0,0E0,0E0,0E0,0E0,0E0,0E0],"parents":[2147483647,0,0,1,1,3,3,4,4,5,5,6,6],"right_children":[2,4,-1,6,8,10,12,-1,-1,-1,-1,-1,-1],"split_conditions":[3.5E1,2.763E-1,-5.7040717E-2,4.266E-1,1E1,1E0,6.6E1,-5.4186165E-2,3.5512928E-2,4.964302E-2,1.4558201E-2,-4.874138E-2,2.7116533E-2],"split_indices":[13,12,0,11,15,8,29,0,0,0,0,0,0],"split_type":[0,0,0,0,0,0,0,0,0,0,0,0,0],"sum_hessian":[8.149142E1,5.4941895E1,2.6549519E1,4.234358E1,1.2598317E1,3.4814316E1,7.529262E0,9.514916E0,3.0834007E0,2.8891457E1,5.92286E0,4.47937E0,3.049892E0],"tree_param":{"num_deleted":"0","num_feature":"32","num_nodes":"13","size_leaf_vector":"1"}},{"base_weights":[5.5968378E-2,7.602781E-1,-5.590217E-2,1.0899072E0,-6.998982E-1,1.2181739E0,-2.3930115E-3,-5.4544583E-2,3.420904E-2,5.1161356E-2,1.0867494E-2],"categories":[],"categories_nodes":[],"categories_segments":[],"categories_sizes":[],"default_left":[0,0,0,0,0,0,0,0,0,0,0],"id":13,"left_children":[1,3,-1,5,7,9,-1,-1,-1,-1,-1],"loss_changes":[9.415173E1,3.0718987E1,0E0,7.847191E0,1.3581299E1,2.0045624E0,0E0,0E0,0E0,0E0,0E0],"parents":[2147483647,0,0,1,1,3,3,4,4,5,5],"right_children":[2,4,-1,6,8,10,-1,-1,-1,-1,-1],"split_conditions":[5.019E-1,2.72E-1,-5.590217E-2,4.2E1,4.696E-1,2.452E-1,-2.3930115E-3,-5.4544583E-2,3.420904E-2,5.1161356E-2,1.0867494E-2],"split_indices":[10,12,0,20,10,12,0,0,0,0,0],"split_type":[0,0,0,0,0,0,0,0,0,0,0],"sum_hessian":[9.005591E1,6.1075893E1,2.8980011E1,5.0146145E1,1.0929748E1,4.5216156E1,4.9299884E0,7.836807E0,3.092941E0,4.1955704E1,3.2604551E0],"tree_param":{"num_deleted":"0","num_feature":"32","num_nodes":"11","size_leaf_vector":"1"}},{"base_weights":[7.976138E-2,8.3117485E-1,-5.529598E-2,9.7388744E-1,-4.5752898E-2,1.2595146E0,4.3864903E-1,5.3620604E-3,5.4116543E-2,-2.3696112E-2,4.882525E-2],"categories":[],"categories_nodes":[],"categories_segments":[],"categories_sizes":[],"default_left":[0,0,0,0,0,0,0,0,0,0,0],"id":14,"left_children":[1,3,-1,5,-1,7,9,-1,-1,-1,-1],"loss_changes":[1.0164061E2,1.832899E1,0E0,7.930237E0,0E0,3.3948326E0,1.8472145E1,0E0,0E0,0E0,0E0],"parents":[2147483647,0,0,1,1,3,3,5,5,6,6],"right_children":[2,4,-1,6,-1,8,10,-1,-1,-1,-1],"split_conditions":[4.744E-1,5.6E1,-5.529598E-2,2.731E-1,-4.5752898E-2,5.4E-1,2.34E0,5.3620604E-3,5.4116543E-2,-2.3696112E-2,4.882525E-2],"split_indices":[10,20,0,10,0,0,0,0,0,0,0],"split_type":[0,0,0,0,0,0,0,0,0,0,0],"sum_hessian":[9.0565475E1,6.0197792E1,3.0367683E1,5.6708233E1,3.4895592E0,3.5850143E1,2.085809E1,3.097825E0,3.275232E1,8.990583E0,1.1867505E1],"tree_param":{"num_deleted":"0","num_feature":"32","num_nodes":"11","size_leaf_vector":"1"}},{"base_weights":[6.2186234E-2,8.064097E-1,-1.1282511E0,1.1938844E0,9.507305E-2,3.3960983E-2,-5.4476216E-2,8.156886E-1,5.444747E-2,7.088966E-1,-5.1414855E-2,-1.140489E-3,4.4944372E-2,-4.391871E-3,4.3328293E-2],"categories":[],"categories_nodes":[],"categories_segments":[],"categories_sizes":[],"default_left":[0,0,0,0,0,0,0,0,0,0,0,0,0,0,0],"id":15,"left_children":[1,3,5,7,9,-1,-1,11,-1,13,-1,-1,-1,-1,-1],"loss_changes":[7.7865166E1,1.4561821E1,1.685379E1,6.56559E-1,1.8059597E1,0E0,0E0,3.7698622E0,0E0,4.863619E0,0E0,0E0,0E0,0E0,0E0],"parents":[2147483647,0,0,1,1,2,2,3,3,4,4,7,7,9,9],"right_children":[2,4,6,8,10,-1,-1,12,-1,14,-1,-1,-1,-1,-1],"split_conditions":[4.2E1,2.6E1,6E0,3E0,6.92E0,3.3960983E-2,-5.4476216E-2,1E0,5.444747E-2,1E0,-5.1414855E-2,-1.140489E-3,4.4944372E-2,-4.391871E-3,4.3328293E-2],"split_indices":[20,20,27,9,28,0,0,22,0,22,0,0,0,0,0],"split_type":[0,0,0,0,0,0,0,0,0,0,0,0,0,0,0],"sum_hessian":[8.5934456E1,5.3179146E1,3.275531E1,3.3805378E1,1.9373768E1,3.0928388E0,2.966247E1,1.2536637E1,2.126874E1,1.3847668E1,5.526101E0,3.4195156E0,9.117121E0,4.3988495E0,9.448818E0],"tree_param":{"num_deleted":"0","num_feature":"32","num_nodes":"15","size_leaf_vector":"1"}},{"base_weights":[1.1163642E-2,7.119702E-1,-5.340427E-2,9.0691733E-1,-4.6398845E-2,1.221232E0,3.2051542E-1,5.2785594E-2,2.2628156E-2,-5.0862577E-2,3.1567656E-2],"categories":[],"categories_nodes":[],"categories_segments":[],"categories_sizes":[],"default_left":[0,0,0,0,0,0,0,0,0,0,0],"id":16,"left_children":[1,3,-1,5,-1,7,9,-1,-1,-1,-1],"loss_changes":[7.6918846E1,2.0631287E1,0E0,8.400841E0,0E0,9.127922E-1,1.4940958E1,0E0,0E0,0E0,0E0],"parents":[2147483647,0,0,1,1,3,3,5,5,6,6],"right_children":[2,4,-1,6,-1,8,10,-1,-1,-1,-1],"split_conditions":[4.744E-1,3.5E1,-5.340427E-2,2.731E-1,-4.6398845E-2,1.342E1,1.4E1,5.2785594E-2,2.2628156E-2,-5.0862577E-2,3.1567656E-2],"split_indices":[10,13,0,10,0,28,16,0,0,0,0],"split_type":[0,0,0,0,0,0,0,0,0,0,0],"sum_hessian":[7.965173E1,5.2790916E1,2.6860815E1,4.8375385E1,4.415533E0,3.0567427E1,1.7807957E1,2.5431461E1,5.1359663E0,3.563388E0,1.4244569E1],"tree_param":{"num_deleted":"0","num_feature":"32","num_nodes":"11","size_leaf_vector":"1"}},{"base_weights":[5.9972413E-2,8.870396E-1,-1.0306106E0,1.1017535E0,-4.5601044E-2,-1.1945485E0,2.1928057E-2,1.1586738E0,9.931577E-3,6.949493E-3,-5.3980984E-2,5.0804876E-2,1.5347257E-2],"categories":[],"categories_nodes":[],"categories_segments":[],"categories_sizes":[],"default_left":[0,0,0,0,0,0,0,0,0,0,0,0,0],"id":17,"left_children":[1,3,5,7,-1,9,-1,11,-1,-1,-1,-1,-1],"loss_changes":[7.6570564E1,2.2297276E1,1.0243668E1,1.5843239E0,0E0,7.581642E0,0E0,2.7286339E0,0E0,0E0,0E0,0E0,0E0],"parents":[2147483647,0,0,1,1,2,2,3,3,5,5,7,7],"right_children":[2,4,6,8,-1,10,-1,12,-1,-1,-1,-1,-1],"split_conditions":[3.6E1,2.763E-1,2.36E0,2.1E1,-4.5601044E-2,2.581E-1,2.1928057E-2,7E1,9.931577E-3,6.949493E-3,-5.3980984E-2,5.0804876E-2,1.5347257E-2],"split_indices":[20,12,18,14,0,19,0,27,0,0,0,0,0],"split_type":[0,0,0,0,0,0,0,0,0,0,0,0,0],"sum_hessian":[8.290943E1,4.7361694E1,3.554774E1,4.3327446E1,4.0342503E0,3.253907E1,3.0086691E0,4.0063522E1,3.2639203E0,3.1669014E0,2.937217E1,3.4242336E1,5.821188E0],"tree_param":{"num_deleted":"0","num_feature":"32","num_nodes":"13","size_leaf_vector":"1"}},{"base_weights":[-1.5269808E-1,6.310775E-1,-5.211113E-2,9.2227674E-1,-4.82306E-2,7.6601714E-2,1.1900406E0,-6.409055E-2,4.2048816E-2,5.2972104E-2,1.1249573E-2],"categories":[],"categories_nodes":[],"categories_segments":[],"categories_sizes":[],"default_left":[0,0,0,0,0,0,0,0,0,0,0],"id":18,"left_children":[1,3,-1,5,-1,7,9,-1,-1,-1,-1],"loss_changes":[6.793095E1,2.499536E1,0E0,8.553108E0,0E0,1.9078428E1,2.9176064E0,0E0,0E0,0E0,0E0],"parents":[2147483647,0,0,1,1,3,3,5,5,6,6],"right_children":[2,4,-1,6,-1,8,10,-1,-1,-1,-1],"split_conditions":[4.2E1,2.763E-1,-5.211113E-2,8.33E-2,-4.82306E-2,3E0,4.468E-1,-6.409055E-2,4.2048816E-2,5.2972104E-2,1.1249573E-2],"split_indices":[20,12,0,26,0,9,10,0,0,0,0],"split_type":[0,0,0,0,0,0,0,0,0,0,0],"sum_hessian":[7.330009E1,4.3757126E1,2.9542955E1,3.8293198E1,5.463931E0,9.697793E0,2.8595404E1,3.2500682E0,6.447725E0,2.432454E1,4.2708645E0],"tree_param":{"num_deleted":"0","num_feature":"32","num_nodes":"11","size_leaf_vector":"1"}},{"base_weights":[4.2078624E-4,8.9941E-1,-1.1806843E0,1.0952497E0,-4.3998256E-2,6.604581E-3,-5.28448E-2,1.2408177E0,6.090314E-1,5.3488683E-2,2.3749728E-2,4.32415E-2,-9.066234E-3],"categories":[],"categories_nodes":[],"categories_segments":[],"categories_sizes":[],"default_left":[0,0,0,0,0,0,0,0,0,0,0,0,0],"id":19,"left_children":[1,3,5,7,-1,-1,-1,9,11,-1,-1,-1,-1],"loss_changes":[8.685727E1,1.9440136E1,7.117302E0,1.9185791E0,0E0,0E0,0E0,8.047447E-1,5.2245016E0,0E0,0E0,0E0,0E0],"parents":[2147483647,0,0,1,1,2,2,3,3,7,7,8,8],"right_children":[2,4,6,8,-1,-1,-1,10,12,-1,-1,-1,-1],"split_conditions":[3.6E1,2.763E-1,1.961E-1,6E0,-4.3998256E-2,6.604581E-3,-5.28448E-2,2.452E-1,-1.148E-1,5.3488683E-2,2.3749728E-2,4.32415E-2,-9.066234E-3],"split_indices":[20,12,19,14,0,0,0,12,12,0,0,0,0],"split_type":[0,0,0,0,0,0,0,0,0,0,0,0,0],"sum_hessian":[7.985473E1,4.5574146E1,3.4280582E1,4.2011333E1,3.562812E0,3.088031E0,3.119255E1,3.082067E1,1.1190663E1,2.5627165E1,5.193505E0,7.116763E0,4.0739007E0],"tree_param":{"num_deleted":"0","num_feature":"32","num_nodes":"13","size_leaf_vector":"1"}},{"base_weights":[3.976326E-2,7.5928277E-1,-5.08129E-2,9.530921E-1,-4.407298E-2,1.1260359E0,-1.0179528E-1,4.769355E-2,1.0516884E-2,-4.2835683E-2,3.831125E-2],"categories":[],"categories_nodes":[],"categories_segments":[],"categories_sizes":[],"default_left":[0,0,0,0,0,0,0,0,0,0,0],"id":20,"left_children":[1,3,-1,5,-1,7,9,-1,-1,-1,-1],"loss_changes":[7.643924E1,1.9948978E1,0E0,9.105877E0,0E0,1.7774467E0,8.788464E0,0E0,0E0,0E0,0E0],"parents":[2147483647,0,0,1,1,3,3,5,5,6,6],"right_children":[2,4,-1,6,-1,8,10,-1,-1,-1,-1],"split_conditions":[4.744E-1,3.5E1,-5.08129E-2,2.763E-1,-4.407298E-2,4.014E-1,2.4E1,4.769355E-2,1.0516884E-2,-4.2835683E-2,3.831125E-2],"split_indices":[10,13,0,12,0,10,13,0,0,0,0],"split_type":[0,0,0,0,0,0,0,0,0,0,0],"sum_hessian":[7.917645E1,5.1477375E1,2.7699081E1,4.716149E1,4.3158827E0,4.062359E1,6.537902E0,3.7156162E1,3.4674275E0,3.5077565E0,3.0301456E0],"tree_param":{"num_deleted":"0","num_feature":"32","num_nodes":"11","size_leaf_vector":"1"}},{"base_weights":[9.9278405E-2,5.749664E-1,-4.9439915E-2,1.037997E0,1.3187037E-1,4.8699215E-2,8.98149E-3,-9.078533E-1,8.542492E-1,-5.0286174E-2,6.346471E-3,4.523157E-2,-2.4812118E-4],"categories":[],"categories_nodes":[],"categories_segments":[],"categories_sizes":[],"default_left":[0,0,0,0,0,0,0,0,0,0,0,0,0],"id":21,"left_children":[1,3,-1,5,7,-1,-1,9,11,-1,-1,-1,-1],"loss_changes":[5.0359257E1,1.1647814E1,0E0,3.5670815E0,2.4273878E1,0E0,0E0,5.3377533E0,4.7761784E0,0E0,0E0,0E0,0E0],"parents":[2147483647,0,0,1,1,3,3,4,4,7,7,8,8],"right_children":[2,4,-1,6,8,-1,-1,10,12,-1,-1,-1,-1],"split_conditions":[5.6E1,2.6E1,-4.9439915E-2,4E0,8.29E2,4.8699215E-2,8.98149E-3,2.4E1,3.52E0,-5.0286174E-2,6.346471E-3,4.523157E-2,-2.4812118E-4],"split_indices":[20,20,0,15,1,0,0,14,25,0,0,0,0],"split_type":[0,0,0,0,0,0,0,0,0,0,0,0,0],"sum_hessian":[7.737339E1,5.7579914E1,1.9793478E1,2.727933E1,3.0300583E1,2.174003E1,5.539299E0,1.220305E1,1.8097534E1,9.199004E0,3.004046E0,1.3633977E1,4.463557E0],"tree_param":{"num_deleted":"0","num_feature":"32","num_nodes":"13","size_leaf_vector":"1"}},{"base_weights":[6.613617E-2,5.3406286E-1,-4.8869032E-2,8.9067936E-1,-4.7787902E-1,1.204875E0,-2.0033695E-1,-5.2670922E-2,4.6032097E-2,2.6469393E-2,5.247593E-2,3.429285E-2,-4.572182E-2],"categories":[],"categories_nodes":[],"categories_segments":[],"categories_sizes":[],"default_left":[0,0,0,0,0,0,0,0,0,0,0,0,0],"id":22,"left_children":[1,3,-1,5,7,9,11,-1,-1,-1,-1,-1,-1],"loss_changes":[4.816658E1,2.1731163E1,0E0,1.5518478E1,2.3175844E1,7.386093E-1,1.1554965E1,0E0,0E0,0E0,0E0,0E0,0E0],"parents":[2147483647,0,0,1,1,3,3,4,4,5,5,6,6],"right_children":[2,4,-1,6,8,10,12,-1,-1,-1,-1,-1,-1],"split_conditions":[3.5E1,2.452E-1,-4.8869032E-2,4.266E-1,4.286E-1,5.54E2,-2.545E-1,-5.2670922E-2,4.6032097E-2,2.6469393E-2,5.247593E-2,3.429285E-2,-4.572182E-2],"split_indices":[13,12,0,11,26,1,12,0,0,0,0,0,0],"split_type":[0,0,0,0,0,0,0,0,0,0,0,0,0],"sum_hessian":[7.807345E1,5.7809704E1,2.0263744E1,4.29805E1,1.4829205E1,3.343166E1,9.548841E0,9.99522E0,4.833985E0,6.9931955E0,2.6438463E1,4.442766E0,5.106075E0],"tree_param":{"num_deleted":"0","num_feature":"32","num_nodes":"13","size_leaf_vector":"1"}},{"base_weights":[6.9443665E-2,7.2462505E-1,-4.9000844E-2,8.921355E-1,-4.157646E-2,1.0652261E0,-1.4605722E-1,4.8541427E-2,2.3712017E-2,3.473418E-2,-4.2176057E-2],"categories":[],"categories_nodes":[],"categories_segments":[],"categories_sizes":[],"default_left":[0,0,0,0,0,0,0,0,0,0,0],"id":23,"left_children":[1,3,-1,5,-1,7,9,-1,-1,-1,-1],"loss_changes":[6.640625E1,1.629339E1,0E0,9.005383E0,0E0,1.8353767E0,7.960755E0,0E0,0E0,0E0,0E0],"parents":[2147483647,0,0,1,1,3,3,5,5,6,6],"right_children":[2,4,-1,6,-1,8,10,-1,-1,-1,-1],"split_conditions":[4.744E-1,3.5E1,-4.9000844E-2,2.763E-1,-4.157646E-2,1.038E1,3.06E0,4.8541427E-2,2.3712017E-2,3.473418E-2,-4.2176057E-2],"split_indices":[10,13,0,12,0,28,25,0,0,0,0],"split_type":[0,0,0,0,0,0,0,0,0,0,0],"sum_hessian":[7.637051E1,5.1100952E1,2.5269556E1,4.7224243E1,3.8767068E0,4.0618767E1,6.6054754E0,2.9397776E1,1.1220993E1,3.0373251E0,3.5681505E0],"tree_param":{"num_deleted":"0","num_feature":"32","num_nodes":"11","size_leaf_vector":"1"}},{"base_weights":[1.0292984E-2,6.3253236E-1,-4.8322726E-2,9.814557E-1,-3.7909696E-1,4.5222424E-2,-0E0,-5.2816007E-2,4.776061E-2],"categories":[],"categories_nodes":[],"categories_segments":[],"categories_sizes":[],"default_left":[0,0,0,0,0,0,0,0,0],"id":24,"left_children":[1,3,-1,5,7,-1,-1,-1,-1],"loss_changes":[5.7950184E1,1.842286E1,0E0,5.5068207E0,2.1742733E1,0E0,0E0,0E0,0E0],"parents":[2147483647,0,0,1,1,3,3,4,4],"right_children":[2,4,-1,6,8,-1,-1,-1,-1],"split_conditions":[5.019E-1,2.452E-1,-4.8322726E-2,4.014E-1,4.286E-1,4.5222424E-2,-0E0,-5.2816007E-2,4.776061E-2],"split_indices":[10,12,0,10,26,0,0,0,0],"split_type":[0,0,0,0,0,0,0,0,0],"sum_hessian":[7.458399E1,4.979683E1,2.4787167E1,3.719526E1,1.2601572E1,3.209317E1,5.1020875E0,8.064061E0,4.537512E0],"tree_param":{"num_deleted":"0","num_feature":"32","num_nodes":"9","size_leaf_vector":"1"}},{"base_weights":[1.1945098E-1,6.8173784E-1,-4.7425017E-2,8.2500815E-1,-4.0026657E-2,4.751182E-2,4.8474944E-1,3.1376824E-2,-1.9754559E-2],"categories":[],"categories_nodes":[],"categories_segments":[],"categories_sizes":[],"default_left":[0,0,0,0,0,0,0,0,0],"id":25,"left_children":[1,3,-1,5,-1,-1,7,-1,-1],"loss_changes":[5.6186726E1,1.3705198E1,0E0,5.265812E0,0E0,0E0,8.595833E0,0E0,0E0],"parents":[2147483647,0,0,1,1,3,3,6,6],"right_children":[2,4,-1,6,-1,-1,8,-1,-1],"split_conditions":[5.019E-1,3.5E1,-4.7425017E-2,2.49E-1,-4.0026657E-2,4.751182E-2,7.7E1,3.1376824E-2,-1.9754559E-2],"split_indices":[10,13,0,10,0,0,27,0,0],"split_type":[0,0,0,0,0,0,0,0,0],"sum_hessian":[7.460255E1,5.2579678E1,2.2022867E1,4.9032654E1,3.5470235E0,2.2240723E1,2.6791933E1,2.0819414E1,5.9725175E0],"tree_param":{"num_deleted":"0","num_feature":"32","num_nodes":"9","size_leaf_vector":"1"}},{"base_weights":[1.5346599E-1,9.788602E-1,-6.9950116E-1,1.093237E0,-2.5244579E-3,3.6471903E-2,-1.0027914E0,4.7677707E-2,1.5744502E-2,2.3345785E-2,-4.897125E-2],"categories":[],"categories_nodes":[],"categories_segments":[],"categories_sizes":[],"default_left":[0,0,0,0,0,0,0,0,0,0,0],"id":26,"left_children":[1,3,5,7,-1,-1,9,-1,-1,-1,-1],"loss_changes":[5.374496E1,4.8988266E0,1.9253069E1,1.6436768E0,0E0,0E0,1.2132862E1,0E0,0E0,0E0,0E0],"parents":[2147483647,0,0,1,1,2,2,3,3,6,6],"right_children":[2,4,6,8,-1,-1,10,-1,-1,-1,-1],"split_conditions":[3.419E-1,9.6E1,-2.545E-1,2.415E-1,-2.5244579E-3,3.6471903E-2,6E0,4.7677707E-2,1.5744502E-2,2.3345785E-2,-4.897125E-2],"split_indices":[10,27,12,12,0,0,27,0,0,0,0],"split_type":[0,0,0,0,0,0,0,0,0,0,0],"sum_hessian":[7.428666E1,3.779769E1,3.6488964E1,3.4187668E1,3.610024E0,5.357933E0,3.1131033E1,2.909349E1,5.094176E0,3.5029404E0,2.7628092E1],"tree_param":{"num_deleted":"0","num_feature":"32","num_nodes":"11","size_leaf_vector":"1"}},{"base_weights":[2.1957876E-2,9.1381174E-1,-7.342681E-1,4.452771E-2,8.818449E-3,-1.0664297E0,3.170501E-2,7.2289584E-3,-4.3408796E-3,-4.9541682E-2,1.3362788E-2],"categories":[],"categories_nodes":[],"categories_segments":[],"categories_sizes":[],"default_left":[0,0,0,0,0,0,0,0,0,0,0],"id":27,"left_children":[1,3,5,-1,7,9,-1,-1,-1,-1,-1],"loss_changes":[4.9094822E1,5.808174E0,2.0810593E1,0E0,1.7998937E-1,8.495434E0,0E0,0E0,0E0,0E0,0E0],"parents":[2147483647,0,0,1,1,2,2,4,4,5,5],"right_children":[2,4,6,-1,8,10,-1,-1,-1,-1,-1],"split_conditions":[3.149E-1,2.415E-1,3E0,4.452771E-2,8.21E2,2E0,3.170501E-2,7.2289584E-3,-4.3408796E-3,-4.9541682E-2,1.3362788E-2],"split_indices":[10,12,22,0,1,2,0,0,0,0,0],"split_type":[0,0,0,0,0,0,0,0,0,0,0],"sum_hessian":[7.074501E1,3.2487278E1,3.8257732E1,2.6252485E1,6.234794E0,3.1777403E1,6.4803286E0,3.0016322E0,3.233162E0,2.8529732E1,3.2476707E0],"tree_param":{"num_deleted":"0","num_feature":"32","num_nodes":"11","size_leaf_vector":"1"}},{"base_weights":[2.1019755E-2,6.499325E-1,-7.895548E-1,9.937979E-1,1.7167321E-1,-4.8074417E-2,3.1990132E-1,4.541284E-2,2.9053818E-3,6.9469565E-1,-6.080752E-1,5.0555613E-2,-3.6505125E-2,1.115859E-3,3.653778E-2,-5.1960427E-2,8.094345E-3],"categories":[],"categories_nodes":[],"categories_segments":[],"categories_sizes":[],"default_left":[0,0,0,0,0,0,0,0,0,0,0,0,0,0,0,0,0],"id":28,"left_children":[1,3,5,7,9,-1,11,-1,-1,13,15,-1,-1,-1,-1,-1,-1],"loss_changes":[3.4713177E1,5.9271183E0,1.4122515E1,2.536436E0,7.5984464E0,0E0,1.1335583E1,0E0,0E0,1.4091749E0,4.640912E0,0E0,0E0,0E0,0E0,0E0,0E0],"parents":[2147483647,0,0,1,1,2,2,3,3,4,4,6,6,9,9,10,10],"right_children":[2,4,6,8,10,-1,12,-1,-1,14,16,-1,-1,-1,-1,-1,-1],"split_conditions":[3.4E1,1E1,2E0,2.452E-1,8.12E0,-4.8074417E-2,7.5E-1,4.541284E-2,2.9053818E-3,2E0,6.207E-1,5.0555613E-2,-3.6505125E-2,1.115859E-3,3.653778E-2,-5.1960427E-2,8.094345E-3],"split_indices":[20,13,24,12,28,0,0,0,0,4,19,0,0,0,0,0,0],"split_type":[0,0,0,0,0,0,0,0,0,0,0,0,0,0,0,0,0],"sum_hessian":[6.614249E1,3.7495335E1,2.8647154E1,2.0942024E1,1.655331E1,2.0956207E1,7.6909475E0,1.7763346E1,3.1786783E0,1.0126471E1,6.4268403E0,4.432748E0,3.2581997E0,3.005822E0,7.120649E0,3.2769763E0,3.1498642E0],"tree_param":{"num_deleted":"0","num_feature":"32","num_nodes":"17","size_leaf_vector":"1"}},{"base_weights":[1.0626623E-1,5.119489E-1,-4.563029E-2,1.0101082E0,1.3958627E-1,1.3481388E-2,4.4341803E-2,1.0297749E0,-2.6952744E-1,5.5479374E-2,1.9173246E-2,3.269185E-2,-3.0028252E-2],"categories":[],"categories_nodes":[],"categories_segments":[],"categories_sizes":[],"default_left":[0,0,0,0,0,0,0,0,0,0,0,0,0],"id":29,"left_children":[1,3,-1,5,7,-1,-1,9,11,-1,-1,-1,-1],"loss_changes":[3.684389E1,9.846137E0,0E0,8.724041E-1,1.241493E1,0E0,0E0,1.070447E0,1.2725498E1,0E0,0E0,0E0,0E0],"parents":[2147483647,0,0,1,1,3,3,4,4,7,7,8,8],"right_children":[2,4,-1,6,8,-1,-1,10,12,-1,-1,-1,-1],"split_conditions":[3.5E1,1E1,-4.563029E-2,5.6E-1,1E1,1.3481388E-2,4.4341803E-2,1E0,2.273E-1,5.5479374E-2,1.9173246E-2,3.269185E-2,-3.0028252E-2],"split_indices":[13,13,0,0,27,0,0,9,19,0,0,0,0],"split_type":[0,0,0,0,0,0,0,0,0,0,0,0,0],"sum_hessian":[7.09232E1,5.4079773E1,1.6843428E1,2.2170078E1,3.1909695E1,3.6523461E0,1.8517733E1,9.723704E0,2.218599E1,4.7549124E0,4.968792E0,6.466387E0,1.5719603E1],"tree_param":{"num_deleted":"0","num_feature":"32","num_nodes":"13","size_leaf_vector":"1"}},{"base_weights":[4.8672814E-2,4.658608E-1,-4.5315538E-2,6.4331335E-1,-6.362999E-1,8.488312E-1,-2.2769975E-2,-4.8803397E-2,2.8723637E-3,3.791339E-2,-5.1252698E-3],"categories":[],"categories_nodes":[],"categories_segments":[],"categories_sizes":[],"default_left":[0,0,0,0,0,0,0,0,0,0,0],"id":30,"left_children":[1,3,-1,5,7,9,-1,-1,-1,-1,-1],"loss_changes":[3.2897648E1,1.0104884E1,0E0,1.1341011E1,3.3019238E0,3.9227715E0,0E0,0E0,0E0,0E0,0E0],"parents":[2147483647,0,0,1,1,3,3,4,4,5,5],"right_children":[2,4,-1,6,8,10,-1,-1,-1,-1,-1],"split_conditions":[3.5E1,3.83E0,-4.5315538E-2,8.2E1,1.395E1,2E0,-2.2769975E-2,-4.8803397E-2,2.8723637E-3,3.791339E-2,-5.1252698E-3],"split_indices":[13,25,0,27,28,30,0,0,0,0,0],"split_type":[0,0,0,0,0,0,0,0,0,0,0],"sum_hessian":[6.493852E1,4.8565804E1,1.6372719E1,4.2345737E1,6.220065E0,3.660624E1,5.7394996E0,3.1678357E0,3.0522294E0,3.3450916E1,3.155321E0],"tree_param":{"num_deleted":"0","num_feature":"32","num_nodes":"11","size_leaf_vector":"1"}},{"base_weights":[6.465289E-2,6.3414544E-1,-4.57303E-2,7.754124E-1,-3.684762E-2,1.0329274E0,3.587643E-1,4.5967054E-2,1.3635348E-2,-1.5310234E-2,3.6127727E-2],"categories":[],"categories_nodes":[],"categories_segments":[],"categories_sizes":[],"default_left":[0,0,0,0,0,0,0,0,0,0,0],"id":31,"left_children":[1,3,-1,5,-1,7,9,-1,-1,-1,-1],"loss_changes":[4.6766933E1,1.086742E1,0E0,3.9802132E0,0E0,1.3887043E0,7.8412724E0,0E0,0E0,0E0,0E0],"parents":[2147483647,0,0,1,1,3,3,5,5,6,6],"right_children":[2,4,-1,6,-1,8,10,-1,-1,-1,-1],"split_conditions":[4.744E-1,3.5E1,-4.57303E-2,2.731E-1,-3.684762E-2,6E0,5.2E1,4.5967054E-2,1.3635348E-2,-1.5310234E-2,3.6127727E-2],"split_indices":[10,13,0,10,0,15,29,0,0,0,0],"split_type":[0,0,0,0,0,0,0,0,0,0,0],"sum_hessian":[6.607957E1,4.5342537E1,2.0737028E1,4.2144688E1,3.1978483E0,2.4835571E1,1.7309116E1,2.0450722E1,4.3848505E0,7.2983117E0,1.0010805E1],"tree_param":{"num_deleted":"0","num_feature":"32","num_nodes":"11","size_leaf_vector":"1"}},{"base_weights":[1.13321245E-1,7.5918025E-1,-9.729371E-1,9.744619E-1,8.8893294E-2,1.048834E-2,-4.6626084E-2,6.181467E-1,4.6957683E-2,-4.2622786E-2,3.5276353E-2,3.6682107E-2,-5.509318E-3],"categories":[],"categories_nodes":[],"categories_segments":[],"categories_sizes":[],"default_left":[0,0,0,0,0,0,0,0,0,0,0,0,0],"id":32,"left_children":[1,3,5,7,9,-1,-1,11,-1,-1,-1,-1,-1],"loss_changes":[4.8044895E1,5.905924E0,6.553278E0,1.2061844E0,1.1687696E1,0E0,0E0,3.453609E0,0E0,0E0,0E0,0E0,0E0],"parents":[2147483647,0,0,1,1,2,2,3,3,4,4,7,7],"right_children":[2,4,6,8,10,-1,-1,12,-1,-1,-1,-1,-1],"split_conditions":[3.6E1,3.149E-1,7.895E-1,1E0,5.6E1,1.048834E-2,-4.6626084E-2,2.45E-1,4.6957683E-2,-4.2622786E-2,3.5276353E-2,3.6682107E-2,-5.509318E-3],"split_indices":[20,10,21,22,29,0,0,10,0,0,0,0,0],"split_type":[0,0,0,0,0,0,0,0,0,0,0,0,0],"sum_hessian":[6.6490105E1,4.2002064E1,2.4488035E1,3.1222042E1,1.0780023E1,3.116355E0,2.1371681E1,1.3036822E1,1.818522E1,4.146989E0,6.6330338E0,9.379248E0,3.6575744E0],"tree_param":{"num_deleted":"0","num_feature":"32","num_nodes":"13","size_leaf_vector":"1"}},{"base_weights":[1.1653891E-1,5.374883E-1,-4.4203863E-2,8.290683E-1,-3.1550744E-1,4.4987693E-2,2.4848965E-1,-4.829214E-2,3.4144558E-2,3.2010343E-2,-4.420809E-2],"categories":[],"categories_nodes":[],"categories_segments":[],"categories_sizes":[],"default_left":[0,0,0,0,0,0,0,0,0,0,0],"id":33,"left_children":[1,3,-1,5,7,-1,9,-1,-1,-1,-1],"loss_changes":[3.3650475E1,1.24933405E1,0E0,5.7609024E0,1.4627049E1,0E0,1.1224965E1,0E0,0E0,0E0,0E0],"parents":[2147483647,0,0,1,1,3,3,4,4,6,6],"right_children":[2,4,-1,6,8,-1,10,-1,-1,-1,-1],"split_conditions":[3.5E1,2.452E-1,-4.4203863E-2,2.694E-1,1E0,4.4987693E-2,-1.148E-1,-4.829214E-2,3.4144558E-2,3.2010343E-2,-4.420809E-2],"split_indices":[13,12,0,11,23,0,12,0,0,0,0],"split_type":[0,0,0,0,0,0,0,0,0,0,0],"sum_hessian":[6.3502155E1,4.7766563E1,1.5735593E1,3.57937E1,1.1972863E1,2.2867935E1,1.2925767E1,6.8705072E0,5.102356E0,9.578228E0,3.3475385E0],"tree_param":{"num_deleted":"0","num_feature":"32","num_nodes":"11","size_leaf_vector":"1"}},{"base_weights":[5.1243585E-2,5.8479863E-1,-4.412086E-2,4.421815E-2,4.1423645E-2,-8.179906E-1,9.90244E-1,-5.0771393E-2,1.222253E-2,1.8880438E-2,5.3236846E-2],"categories":[],"categories_nodes":[],"categories_segments":[],"categories_sizes":[],"default_left":[0,0,0,0,0,0,0,0,0,0,0],"id":34,"left_children":[1,3,-1,-1,5,7,9,-1,-1,-1,-1],"loss_changes":[3.6864033E1,1.1354191E1,0E0,0E0,1.8246603E1,6.480235E0,9.013357E-1,0E0,0E0,0E0,0E0],"parents":[2147483647,0,0,1,1,4,4,5,5,6,6],"right_children":[2,4,-1,-1,6,8,10,-1,-1,-1,-1],"split_conditions":[5.019E-1,2.45E-1,-4.412086E-2,4.421815E-2,2E0,2.13E0,4.605E-1,-5.0771393E-2,1.222253E-2,1.8880438E-2,5.3236846E-2],"split_indices":[10,10,0,0,22,18,10,0,0,0,0],"split_type":[0,0,0,0,0,0,0,0,0,0,0],"sum_hessian":[5.797834E1,4.0106075E1,1.7872265E1,1.9765005E1,2.034107E1,1.0635153E1,9.705917E0,7.6219645E0,3.0131886E0,5.0287824E0,4.6771355E0],"tree_param":{"num_deleted":"0","num_feature":"32","num_nodes":"11","size_leaf_vector":"1"}},{"base_weights":[6.687535E-2,5.7222563E-1,-4.385233E-2,1.0029005E0,5.9881233E-2,4.3755267E-2,1.4511752E-2,-7.5741935E-1,8.714222E-1,1.0560236E-2,-4.8667807E-2,6.525906E-3,4.4578314E-2],"categories":[],"categories_nodes":[],"categories_segments":[],"categories_sizes":[],"default_left":[0,0,0,0,0,0,0,0,0,0,0,0,0],"id":35,"left_children":[1,3,-1,5,7,-1,-1,9,11,-1,-1,-1,-1],"loss_changes":[3.6240982E1,9.2459135E0,0E0,6.606693E-1,1.4595998E1,0E0,0E0,5.6079416E0,1.4756298E0,0E0,0E0,0E0,0E0],"parents":[2147483647,0,0,1,1,3,3,4,4,7,7,8,8],"right_children":[2,4,-1,6,8,-1,-1,10,12,-1,-1,-1,-1],"split_conditions":[5.019E-1,2.731E-1,-4.385233E-2,1.342E1,2E0,4.3755267E-2,1.4511752E-2,2.6E2,3E0,1.0560236E-2,-4.8667807E-2,6.525906E-3,4.4578314E-2],"split_indices":[10,10,0,28,22,0,0,1,22,0,0,0,0],"split_type":[0,0,0,0,0,0,0,0,0,0,0,0,0],"sum_hessian":[5.9764786E1,4.2137817E1,1.7626966E1,2.2161285E1,1.9976534E1,1.8509144E1,3.6521425E0,9.863388E0,1.0113145E1,3.056178E0,6.80721E0,3.2208612E0,6.892284E0],"tree_param":{"num_deleted":"0","num_feature":"32","num_nodes":"13","size_leaf_vector":"1"}},{"base_weights":[8.2148015E-2,5.600579E-1,-4.3515973E-2,8.8439393E-1,-3.3919793E-1,1.0118635E0,3.269345E-1,-4.9608868E-2,4.0632185E-2,4.288371E-2,1.8998904E-2,2.3916017E-2,-0E0],"categories":[],"categories_nodes":[],"categories_segments":[],"categories_sizes":[],"default_left":[0,0,0,0,0,0,0,0,0,0,0,0,0],"id":36,"left_children":[1,3,-1,5,7,9,11,-1,-1,-1,-1,-1,-1],"loss_changes":[3.467303E1,1.3290815E1,0E0,1.739294E0,1.62809E1,2.2384644E-2,6.136289E-1,0E0,0E0,0E0,0E0,0E0,0E0],"parents":[2147483647,0,0,1,1,3,3,4,4,5,5,6,6],"right_children":[2,4,-1,6,8,10,12,-1,-1,-1,-1,-1,-1],"split_conditions":[5.019E-1,2.452E-1,-4.3515973E-2,4.014E-1,1E0,8.2E1,7E0,-4.9608868E-2,4.0632185E-2,4.288371E-2,1.8998904E-2,2.3916017E-2,-0E0],"split_indices":[10,12,0,10,23,27,16,0,0,0,0,0,0],"split_type":[0,0,0,0,0,0,0,0,0,0,0,0,0],"sum_hessian":[6.010642E1,4.3166985E1,1.6939432E1,3.190036E1,1.12666235E1,2.5008072E1,6.8922896E0,6.9064283E0,4.3601947E0,2.1254354E1,3.7537172E0,3.0762703E0,3.8160193E0],"tree_param":{"num_deleted":"0","num_feature":"32","num_nodes":"13","size_leaf_vector":"1"}},{"base_weights":[1.6952805E-1,6.294007E-1,-4.284169E-2,8.6976385E-1,-3.835629E-1,4.4366114E-2,5.262772E-1,-4.0662516E-2,2.4349846E-2,-3.924794E-3,3.794767E-2],"categories":[],"categories_nodes":[],"categories_segments":[],"categories_sizes":[],"default_left":[0,0,0,0,0,0,0,0,0,0,0],"id":37,"left_children":[1,3,-1,5,7,-1,9,-1,-1,-1,-1],"loss_changes":[3.446422E1,1.1161215E1,0E0,2.056324E0,6.34499E0,0E0,4.764464E0,0E0,0E0,0E0,0E0],"parents":[2147483647,0,0,1,1,3,3,4,4,6,6],"right_children":[2,4,-1,6,8,-1,10,-1,-1,-1,-1],"split_conditions":[5.019E-1,2.763E-1,-4.284169E-2,4E0,2E0,4.4366114E-2,8.48E2,-4.0662516E-2,2.4349846E-2,-3.924794E-3,3.794767E-2],"split_indices":[10,12,0,15,24,0,1,0,0,0,0],"split_type":[0,0,0,0,0,0,0,0,0,0,0],"sum_hessian":[5.8383297E1,4.3070988E1,1.5312311E1,3.508466E1,7.986328E0,1.9018541E1,1.6066118E1,4.9840684E0,3.0022595E0,6.601815E0,9.464303E0],"tree_param":{"num_deleted":"0","num_feature":"32","num_nodes":"11","size_leaf_vector":"1"}},{"base_weights":[-3.1053621E-2,5.85815E-1,-8.542529E-1,8.3111995E-1,-3.752046E-2,2.2636805E-2,-4.4496313E-2,-0E0,9.991648E-1,4.6824563E-2,2.272876E-2],"categories":[],"categories_nodes":[],"categories_segments":[],"categories_sizes":[],"default_left":[0,0,0,0,0,0,0,0,0,0,0],"id":38,"left_children":[1,3,5,7,-1,-1,-1,-1,9,-1,-1],"loss_changes":[2.7188118E1,1.2135386E1,9.175913E0,3.9335575E0,0E0,0E0,0E0,0E0,6.5130234E-1,0E0,0E0],"parents":[2147483647,0,0,1,1,2,2,3,3,8,8],"right_children":[2,4,6,8,-1,-1,-1,-1,10,-1,-1],"split_conditions":[4.468E-1,2.763E-1,9.6E1,5.47E2,-3.752046E-2,2.2636805E-2,-4.4496313E-2,-0E0,8.901E-1,4.6824563E-2,2.272876E-2],"split_indices":[10,12,1,1,0,0,0,0,21,0,0],"split_type":[0,0,0,0,0,0,0,0,0,0,0],"sum_hessian":[5.1449177E1,2.9436325E1,2.201285E1,2.5859333E1,3.5769916E0,3.083403E0,1.8929447E1,4.334803E0,2.152453E1,1.383849E1,7.6860404E0],"tree_param":{"num_deleted":"0","num_feature":"32","num_nodes":"11","size_leaf_vector":"1"}},{"base_weights":[1.7918211E-1,5.892483E-1,-4.185709E-2,8.4063524E-1,-2.11392E-1,1.0456072E-1,1.0014211E0,-4.659325E-2,3.1149024E-2,-1.2028917E-2,2.1827003E-2,4.5108035E-2,1.3071989E-2],"categories":[],"categories_nodes":[],"categories_segments":[],"categories_sizes":[],"default_left":[0,0,0,0,0,0,0,0,0,0,0,0,0],"id":39,"left_children":[1,3,-1,5,7,9,11,-1,-1,-1,-1,-1,-1],"loss_changes":[2.8511938E1,8.855042E0,0E0,3.5472279E0,1.1143395E1,1.5014546E0,1.5997849E0,0E0,0E0,0E0,0E0,0E0,0E0],"parents":[2147483647,0,0,1,1,3,3,4,4,5,5,6,6],"right_children":[2,4,-1,6,8,10,12,-1,-1,-1,-1,-1,-1],"split_conditions":[5.019E-1,2.452E-1,-4.185709E-2,5.42E2,2E0,5.795E-1,1.388E1,-4.659325E-2,3.1149024E-2,-1.2028917E-2,2.1827003E-2,4.5108035E-2,1.3071989E-2],"split_indices":[10,12,0,1,22,19,28,0,0,0,0,0,0],"split_type":[0,0,0,0,0,0,0,0,0,0,0,0,0],"sum_hessian":[5.4686096E1,4.148754E1,1.3198557E1,3.1725985E1,9.761555E0,6.2065816E0,2.5519403E1,4.9858966E0,4.775658E0,3.164237E0,3.0423448E0,2.0680273E1,4.83913E0],"tree_param":{"num_deleted":"0","num_feature":"32","num_nodes":"13","size_leaf_vector":"1"}},{"base_weights":[-6.4813145E-2,7.4615496E-1,-9.3298006E-1,9.5272154E-1,-1.3187376E-2,-4.507121E-2,1.1361811E-2,4.346471E-2,8.587165E-3],"categories":[],"categories_nodes":[],"categories_segments":[],"categories_sizes":[],"default_left":[0,0,0,0,0,0,0,0,0],"id":40,"left_children":[1,3,5,7,-1,-1,-1,-1,-1],"loss_changes":[3.5653248E1,6.234586E0,6.271345E0,1.7094193E0,0E0,0E0,0E0,0E0,0E0],"parents":[2147483647,0,0,1,1,2,2,3,3],"right_children":[2,4,6,8,-1,-1,-1,-1,-1],"split_conditions":[3.419E-1,2.452E-1,5.61E0,5E0,-1.3187376E-2,-4.507121E-2,1.1361811E-2,4.346471E-2,8.587165E-3],"split_indices":[10,12,0,15,0,0,0,0,0],"split_type":[0,0,0,0,0,0,0,0,0],"sum_hessian":[4.859797E1,2.5080269E1,2.3517698E1,2.1292368E1,3.7879012E0,2.049288E1,3.0248184E0,1.7393538E1,3.8988318E0],"tree_param":{"num_deleted":"0","num_feature":"32","num_nodes":"9","size_leaf_vector":"1"}},{"base_weights":[7.946124E-3,6.645696E-1,-8.4565926E-1,8.81227E-1,-1.6594328E-2,2.1460485E-2,-4.4442076E-2,4.3872723E-1,4.2332433E-2,3.7232548E-2,-8.923161E-3],"categories":[],"categories_nodes":[],"categories_segments":[],"categories_sizes":[],"default_left":[0,0,0,0,0,0,0,0,0,0,0],"id":41,"left_children":[1,3,5,7,-1,-1,-1,9,-1,-1,-1],"loss_changes":[2.9700975E1,7.5013113E0,9.125494E0,1.2386646E0,0E0,0E0,0E0,3.3891048E0,0E0,0E0,0E0],"parents":[2147483647,0,0,1,1,2,2,3,3,7,7],"right_children":[2,4,6,8,-1,-1,-1,10,-1,-1,-1],"split_conditions":[4.014E-1,2.452E-1,8E0,1E0,-1.6594328E-2,2.1460485E-2,-4.4442076E-2,2E0,4.2332433E-2,3.7232548E-2,-8.923161E-3],"split_indices":[10,12,27,30,0,0,0,4,0,0,0],"split_type":[0,0,0,0,0,0,0,0,0,0,0],"sum_hessian":[5.1052338E1,2.9113194E1,2.1939144E1,2.455378E1,4.559413E0,3.2480483E0,1.8691095E1,8.334451E0,1.621933E1,4.7203555E0,3.614095E0],"tree_param":{"num_deleted":"0","num_feature":"32","num_nodes":"11","size_leaf_vector":"1"}},{"base_weights":[4.398569E-2,7.778559E-1,-4.7846553E-1,4.154922E-2,-1.7828874E-2,-8.096314E-1,2.7806014E-2,-1.039881E0,1.3043713E-2,-4.6144534E-2,-8.895912E-3],"categories":[],"categories_nodes":[],"categories_segments":[],"categories_sizes":[],"default_left":[0,0,0,0,0,0,0,0,0,0,0],"id":42,"left_children":[1,3,5,-1,-1,7,-1,9,-1,-1,-1],"loss_changes":[2.0971527E1,7.8650007E0,1.2926742E1,0E0,0E0,7.113373E0,0E0,1.4643974E0,0E0,0E0,0E0],"parents":[2147483647,0,0,1,1,2,2,5,5,7,7],"right_children":[2,4,6,-1,-1,8,-1,10,-1,-1,-1],"split_conditions":[2.6E1,2.374E-1,4E-1,4.154922E-2,-1.7828874E-2,9.6E-1,2.7806014E-2,9.09E2,1.3043713E-2,-4.6144534E-2,-8.895912E-3],"split_indices":[20,12,26,0,0,21,0,1,0,0,0],"split_type":[0,0,0,0,0,0,0,0,0,0,0],"sum_hessian":[5.2570328E1,2.1817688E1,3.0752642E1,1.8242744E1,3.5749433E0,2.4359528E1,6.3931136E0,2.0470047E1,3.8894806E0,1.7394243E1,3.0758035E0],"tree_param":{"num_deleted":"0","num_feature":"32","num_nodes":"11","size_leaf_vector":"1"}},{"base_weights":[1.3437864E-1,5.442454E-1,-4.090935E-2,7.499805E-1,-2.720664E-1,4.159528E-2,2.9580316E-1,2.3876624E-2,-3.7929017E-2,-2.961822E-2,3.465776E-2],"categories":[],"categories_nodes":[],"categories_segments":[],"categories_sizes":[],"default_left":[0,0,0,0,0,0,0,0,0,0,0],"id":43,"left_children":[1,3,-1,5,7,-1,9,-1,-1,-1,-1],"loss_changes":[2.4170486E1,6.630538E0,0E0,3.450346E0,5.4110584E0,0E0,8.695177E0,0E0,0E0,0E0,0E0],"parents":[2147483647,0,0,1,1,3,3,4,4,6,6],"right_children":[2,4,-1,6,8,-1,10,-1,-1,-1,-1],"split_conditions":[5.019E-1,2.763E-1,-4.090935E-2,4E0,1.54E0,4.159528E-2,1E0,2.3876624E-2,-3.7929017E-2,-2.961822E-2,3.465776E-2],"split_indices":[10,12,0,15,18,0,24,0,0,0,0],"split_type":[0,0,0,0,0,0,0,0,0,0,0],"sum_hessian":[4.8992554E1,3.6696568E1,1.2295984E1,2.9570242E1,7.1263266E0,1.6993399E1,1.2576843E1,3.0403523E0,4.0859737E0,4.236137E0,8.340706E0],"tree_param":{"num_deleted":"0","num_feature":"32","num_nodes":"11","size_leaf_vector":"1"}},{"base_weights":[1.3914792E-1,6.609344E-1,-4.294803E-2,9.064152E-1,-2.5144553E-1,4.3428414E-2,4.575377E-1,-4.6369452E-2,2.6967645E-2,-1.3855782E-2,4.076588E-2],"categories":[],"categories_nodes":[],"categories_segments":[],"categories_sizes":[],"default_left":[0,0,0,0,0,0,0,0,0,0,0],"id":44,"left_children":[1,3,-1,5,7,-1,9,-1,-1,-1,-1],"loss_changes":[3.3703712E1,8.708265E0,0E0,1.5901318E0,8.03243E0,0E0,5.247414E0,0E0,0E0,0E0,0E0],"parents":[2147483647,0,0,1,1,3,3,4,4,6,6],"right_children":[2,4,-1,6,8,-1,10,-1,-1,-1,-1],"split_conditions":[4.468E-1,2.452E-1,-4.294803E-2,1.038E1,2E0,4.3428414E-2,3.8E1,-4.6369452E-2,2.6967645E-2,-1.3855782E-2,4.076588E-2],"split_indices":[10,12,0,28,22,0,16,0,0,0,0],"split_type":[0,0,0,0,0,0,0,0,0,0,0],"sum_hessian":[5.126629E1,3.6278618E1,1.4987671E1,2.8764986E1,7.5136337E0,1.9222614E1,9.542371E0,3.7750583E0,3.7385757E0,3.9356537E0,5.606717E0],"tree_param":{"num_deleted":"0","num_feature":"32","num_nodes":"11","size_leaf_vector":"1"}},{"base_weights":[1.9632918E-1,5.8683413E-1,-4.047961E-2,8.8788795E-1,-0E0,1.0046688E0,-0E0,-7.7298224E-1,3.4883834E-2,2.2232091E-2,4.462902E-2,-5.0889235E-2,-0E0],"categories":[],"categories_nodes":[],"categories_segments":[],"categories_sizes":[],"default_left":[0,0,0,0,0,0,0,0,0,0,0,0,0],"id":45,"left_children":[1,3,-1,5,7,9,-1,11,-1,-1,-1,-1,-1],"loss_changes":[2.458048E1,7.046994E0,0E0,2.6311913E0,1.0235716E1,1.92173E-1,0E0,3.3641734E0,0E0,0E0,0E0,0E0,0E0],"parents":[2147483647,0,0,1,1,3,3,4,4,5,5,7,7],"right_children":[2,4,-1,6,8,10,-1,12,-1,-1,-1,-1,-1],"split_conditions":[5.019E-1,5E0,-4.047961E-2,2.452E-1,2E0,8.043E-1,-0E0,1.3E1,3.4883834E-2,2.2232091E-2,4.462902E-2,-5.0889235E-2,-0E0],"split_indices":[10,15,0,12,22,21,0,15,0,0,0,0,0],"split_type":[0,0,0,0,0,0,0,0,0,0,0,0,0],"sum_hessian":[5.0014946E1,3.831285E1,1.1702097E1,2.511208E1,1.320077E1,2.2001238E1,3.1108408E0,7.1278863E0,6.0728836E0,5.91196E0,1.608928E1,4.078922E0,3.0489647E0],"tree_param":{"num_deleted":"0","num_feature":"32","num_nodes":"13","size_leaf_vector":"1"}},{"base_weights":[1.0113377E-1,4.8089057E-1,-4.0361457E-2,8.071528E-1,-7.0359117E-1,8.9521116E-1,-0E0,-0E0,-4.5066517E-2,3.925605E-2,1.7842373E-2],"categories":[],"categories_nodes":[],"categories_segments":[],"categories_sizes":[],"default_left":[0,0,0,0,0,0,0,0,0,0,0],"id":46,"left_children":[1,3,-1,5,7,9,-1,-1,-1,-1,-1],"loss_changes":[2.1896425E1,1.5598331E1,0E0,2.1656666E0,2.8035398E0,3.5853386E-1,0E0,0E0,0E0,0E0,0E0],"parents":[2147483647,0,0,1,1,3,3,4,4,5,5],"right_children":[2,4,-1,6,8,10,-1,-1,-1,-1,-1],"split_conditions":[5.019E-1,2.452E-1,-4.0361457E-2,4.2E1,3.3E0,4.014E-1,-0E0,-0E0,-4.5066517E-2,3.925605E-2,1.7842373E-2],"split_indices":[10,12,0,20,25,10,0,0,0,0,0],"split_type":[0,0,0,0,0,0,0,0,0,0,0],"sum_hessian":[5.0036736E1,3.783982E1,1.2196914E1,3.0050034E1,7.7897882E0,2.6944277E1,3.1057563E0,3.1532564E0,4.636532E0,2.1238428E1,5.705848E0],"tree_param":{"num_deleted":"0","num_feature":"32","num_nodes":"11","size_leaf_vector":"1"}},{"base_weights":[1.0227254E-1,5.256117E-1,-4.0189955E-2,6.8624824E-1,-2.1080352E-2,4.1470446E-2,2.7860734E-1,4.3004084E-2,-1.3255884E-2],"categories":[],"categories_nodes":[],"categories_segments":[],"categories_sizes":[],"default_left":[0,0,0,0,0,0,0,0,0],"id":47,"left_children":[1,3,-1,5,-1,-1,7,-1,-1],"loss_changes":[2.1936466E1,6.1391277E0,0E0,3.7460194E0,0E0,0E0,8.054412E0,0E0,0E0],"parents":[2147483647,0,0,1,1,3,3,6,6],"right_children":[2,4,-1,6,-1,-1,8,-1,-1],"split_conditions":[5.019E-1,1.03E2,-4.0189955E-2,2.731E-1,-2.1080352E-2,4.1470446E-2,1E1,4.3004084E-2,-1.3255884E-2],"split_indices":[10,27,0,10,0,0,27,0,0],"split_type":[0,0,0,0,0,0,0,0,0],"sum_hessian":[4.4885826E1,3.2979797E1,1.1906029E1,2.9080055E1,3.8997416E0,1.4542035E1,1.4538019E1,6.1167173E0,8.421302E0],"tree_param":{"num_deleted":"0","num_feature":"32","num_nodes":"9","size_leaf_vector":"1"}},{"base_weights":[1.0006191E-1,4.4807303E-1,-4.007262E-2,6.107276E-1,-2.8030442E-2,1.6486183E-1,9.685206E-1,2.5235368E-2,-4.1340724E-2,4.225195E-2,1.6979095E-2],"categories":[],"categories_nodes":[],"categories_segments":[],"categories_sizes":[],"default_left":[0,0,0,0,0,0,0,0,0,0,0],"id":48,"left_children":[1,3,-1,5,-1,7,9,-1,-1,-1,-1],"loss_changes":[1.778933E1,7.0276613E0,0E0,4.6721535E0,0E0,9.26754E0,7.3905945E-2,0E0,0E0,0E0,0E0],"parents":[2147483647,0,0,1,1,3,3,5,5,6,6],"right_children":[2,4,-1,6,-1,8,10,-1,-1,-1,-1],"split_conditions":[3.5E1,1.388E1,-4.007262E-2,2E-1,-2.8030442E-2,2.415E-1,2.763E-1,2.5235368E-2,-4.1340724E-2,4.225195E-2,1.6979095E-2],"split_indices":[13,28,0,26,0,12,12,0,0,0,0],"split_type":[0,0,0,0,0,0,0,0,0,0,0],"sum_hessian":[4.4509144E1,3.441466E1,1.00944805E1,3.0709259E1,3.7054043E0,1.4571125E1,1.6138134E1,1.0952424E1,3.6187015E0,1.2768778E1,3.369355E0],"tree_param":{"num_deleted":"0","num_feature":"32","num_nodes":"11","size_leaf_vector":"1"}},{"base_weights":[1.194015E-1,4.2298636E-1,-3.9404843E-2,6.962329E-1,-1.4524744E-1,8.9357334E-1,1.9588439E-1,-4.4238657E-2,3.1441696E-2,4.0403113E-2,1.1427227E-2,-2.4671726E-2,3.7663765E-2],"categories":[],"categories_nodes":[],"categories_segments":[],"categories_sizes":[],"default_left":[0,0,0,0,0,0,0,0,0,0,0,0,0],"id":49,"left_children":[1,3,-1,5,7,9,11,-1,-1,-1,-1,-1,-1],"loss_changes":[1.6421232E1,6.195954E0,0E0,2.2175503E0,1.2659131E1,7.549038E-1,6.1274495E0,0E0,0E0,0E0,0E0,0E0,0E0],"parents":[2147483647,0,0,1,1,3,3,4,4,5,5,6,6],"right_children":[2,4,-1,6,8,10,12,-1,-1,-1,-1,-1,-1],"split_conditions":[5.6E1,2.452E-1,-3.9404843E-2,3.496E-1,2E0,2.246E-1,2E0,-4.4238657E-2,3.1441696E-2,4.0403113E-2,1.1427227E-2,-2.4671726E-2,3.7663765E-2],"split_indices":[20,12,0,11,22,12,22,0,0,0,0,0,0],"split_type":[0,0,0,0,0,0,0,0,0,0,0,0,0],"sum_hessian":[4.7064964E1,3.7543903E1,9.521059E0,2.5438166E1,1.210574E1,1.7392742E1,8.045423E0,5.9721055E0,6.133634E0,1.3764182E1,3.6285603E0,3.804232E0,4.241191E0],"tree_param":{"num_deleted":"0","num_feature":"32","num_nodes":"13","size_leaf_vector":"1"}},{"base_weights":[1.2408709E-1,7.7260584E-1,-4.8291743E-1,4.063066E-2,1.3778614E-3,-8.84029E-1,2.8251383E-2,-4.4719614E-2,7.1367375E-3],"categories":[],"categories_nodes":[],"categories_segments":[],"categories_sizes":[],"default_left":[0,0,0,0,0,0,0,0,0],"id":50,"left_children":[1,3,5,-1,-1,7,-1,-1,-1],"loss_changes":[1.8416012E1,3.817257E0,1.2134241E1,0E0,0E0,5.000304E0,0E0,0E0,0E0],"parents":[2147483647,0,0,1,1,2,2,5,5],"right_children":[2,4,6,-1,-1,8,-1,-1,-1],"split_conditions":[3.149E-1,2.246E-1,3E0,4.063066E-2,1.3778614E-3,4.62E0,2.8251383E-2,-4.4719614E-2,7.1367375E-3],"split_indices":[10,12,22,0,0,0,0,0,0],"split_type":[0,0,0,0,0,0,0,0,0],"sum_hessian":[4.468727E1,2.1632235E1,2.3055037E1,1.5785298E1,5.846937E0,1.7557713E1,5.4973235E0,1.4500522E1,3.0571916E0],"tree_param":{"num_deleted":"0","num_feature":"32","num_nodes":"9","size_leaf_vector":"1"}},{"base_weights":[1.2184024E-1,4.6260637E-1,-3.9122105E-2,-7.6076865E-2,8.246396E-1,-8.5482204E-1,5.8048564E-1,9.705614E-1,4.2007014E-1,-5.873946E-2,5.4058497E-4,2.9843438E-3,3.5767198E-2,1.5873937E-2,4.4213966E-2,3.291857E-2,-0E0],"categories":[],"categories_nodes":[],"categories_segments":[],"categories_sizes":[],"default_left":[0,0,0,0,0,0,0,0,0,0,0,0,0,0,0,0,0],"id":51,"left_children":[1,3,-1,5,7,9,11,13,15,-1,-1,-1,-1,-1,-1,-1,-1],"loss_changes":[1.8078821E1,7.414954E0,0E0,8.495513E0,6.3621426E-1,4.388007E0,1.1497345E0,4.4648266E-1,1.3824908E0,0E0,0E0,0E0,0E0,0E0,0E0,0E0,0E0],"parents":[2147483647,0,0,1,1,3,3,4,4,5,5,6,6,7,7,8,8],"right_children":[2,4,-1,6,8,10,12,14,16,-1,-1,-1,-1,-1,-1,-1,-1],"split_conditions":[5.019E-1,7.69E-2,-3.9122105E-2,7.561E-1,1.038E1,3E0,8E0,1E0,2.49E-1,-5.873946E-2,5.4058497E-4,2.9843438E-3,3.5767198E-2,1.5873937E-2,4.4213966E-2,3.291857E-2,-0E0],"split_indices":[10,26,0,19,28,9,31,24,10,0,0,0,0,0,0,0,0],"split_type":[0,0,0,0,0,0,0,0,0,0,0,0,0,0,0,0,0],"sum_hessian":[4.6302994E1,3.5931904E1,1.0371091E1,1.4537871E1,2.1394032E1,6.6513696E0,7.886502E0,1.4331528E1,7.062504E0,3.6271753E0,3.024194E0,3.7364085E0,4.150093E0,3.759136E0,1.05723915E1,3.1419098E0,3.920594E0],"tree_param":{"num_deleted":"0","num_feature":"32","num_nodes":"17","size_leaf_vector":"1"}},{"base_weights":[6.574826E-2,4.3091065E-1,-3.9097413E-2,7.169483E-1,-2.379671E-1,2.6195404E-1,4.0693473E-2,-4.2740904E-2,3.651399E-2,3.199429E-2,-1.953072E-2],"categories":[],"categories_nodes":[],"categories_segments":[],"categories_sizes":[],"default_left":[0,0,0,0,0,0,0,0,0,0,0],"id":52,"left_children":[1,3,-1,5,7,9,-1,-1,-1,-1,-1],"loss_changes":[1.6747171E1,6.5407333E0,0E0,2.6798887E0,1.0913211E1,4.8630886E0,0E0,0E0,0E0,0E0,0E0],"parents":[2147483647,0,0,1,1,3,3,4,4,5,5],"right_children":[2,4,-1,6,8,10,-1,-1,-1,-1,-1],"split_conditions":[4.744E-1,1.038E1,-3.9097413E-2,1E0,5E1,2.45E-1,4.0693473E-2,-4.2740904E-2,3.651399E-2,3.199429E-2,-1.953072E-2],"split_indices":[10,28,0,24,16,10,0,0,0,0,0],"split_type":[0,0,0,0,0,0,0,0,0,0,0],"sum_hessian":[4.2145008E1,3.1794214E1,1.0350793E1,2.2429602E1,9.364613E0,9.9286585E0,1.2500942E1,5.58161E0,3.7830024E0,5.89932E0,4.029339E0],"tree_param":{"num_deleted":"0","num_feature":"32","num_nodes":"11","size_leaf_vector":"1"}},{"base_weights":[9.9608086E-2,7.508351E-1,-4.502788E-1,9.0367E-1,-0E0,5.4842556E-1,-8.511591E-1,4.2254627E-2,6.6422042E-3,3.399885E-2,1.5367551E-3,-4.2861905E-2,4.632508E-3],"categories":[],"categories_nodes":[],"categories_segments":[],"categories_sizes":[],"default_left":[0,0,0,0,0,0,0,0,0,0,0,0,0],"id":53,"left_children":[1,3,5,7,-1,9,11,-1,-1,-1,-1,-1,-1],"loss_changes":[1.6070957E1,2.4370918E0,1.0211302E1,1.5162821E0,0E0,9.2669916E-1,4.10746E0,0E0,0E0,0E0,0E0,0E0,0E0],"parents":[2147483647,0,0,1,1,2,2,3,3,5,5,6,6],"right_children":[2,4,6,8,-1,10,12,-1,-1,-1,-1,-1,-1],"split_conditions":[2.6E1,2.22E0,2.731E-1,2.246E-1,-0E0,1.96E-1,4.99E0,4.2254627E-2,6.6422042E-3,3.399885E-2,1.5367551E-3,-4.2861905E-2,4.632508E-3],"split_indices":[20,18,10,12,0,10,0,0,0,0,0,0,0],"split_type":[0,0,0,0,0,0,0,0,0,0,0,0,0],"sum_hessian":[4.276629E1,1.957822E1,2.3188068E1,1.6190542E1,3.3876774E0,6.3933935E0,1.6794676E1,1.2831066E1,3.3594766E0,3.3524747E0,3.0409193E0,1.3757746E1,3.0369296E0],"tree_param":{"num_deleted":"0","num_feature":"32","num_nodes":"13","size_leaf_vector":"1"}},{"base_weights":[1.5723199E-1,6.948455E-1,-3.24645E-1,-1.9600715E-3,8.335607E-1,3.0602114E-2,-7.510816E-1,6.674134E-3,9.44543E-1,-4.7457136E-2,2.4346245E-2,4.1665502E-2,1.5423133E-2],"categories":[],"categories_nodes":[],"categories_segments":[],"categories_sizes":[],"default_left":[0,0,0,0,0,0,0,0,0,0,0,0,0],"id":54,"left_children":[1,3,5,-1,7,-1,9,-1,11,-1,-1,-1,-1],"loss_changes":[1.1760156E1,2.4084005E0,1.1637795E1,0E0,9.770918E-1,0E0,1.1346307E1,0E0,1.406002E-1,0E0,0E0,0E0,0E0],"parents":[2147483647,0,0,1,1,2,2,4,4,6,6,8,8],"right_children":[2,4,6,-1,8,-1,10,-1,12,-1,-1,-1,-1],"split_conditions":[5E0,5.286E-1,2.273E-1,-1.9600715E-3,5.9E1,3.0602114E-2,4E-1,6.674134E-3,2E0,-4.7457136E-2,2.4346245E-2,4.1665502E-2,1.5423133E-2],"split_indices":[15,19,19,0,17,0,26,0,30,0,0,0,0],"split_type":[0,0,0,0,0,0,0,0,0,0,0,0,0],"sum_hessian":[4.3238316E1,2.0424496E1,2.2813818E1,3.085222E0,1.7339273E1,6.061488E0,1.675233E1,3.0888774E0,1.4250397E1,1.28974905E1,3.8548398E0,1.11008215E1,3.1495755E0],"tree_param":{"num_deleted":"0","num_feature":"32","num_nodes":"13","size_leaf_vector":"1"}},{"base_weights":[1.7943557E-1,4.381092E-1,-3.729652E-2,8.169277E-1,6.15109E-2,3.9093614E-2,1.05591435E-2,7.2034425E-1,-5.908914E-1,7.341918E-3,4.215641E-2,1.5511821E-3,-4.3338995E-2],"categories":[],"categories_nodes":[],"categories_segments":[],"categories_sizes":[],"default_left":[0,0,0,0,0,0,0,0,0,0,0,0,0],"id":55,"left_children":[1,3,-1,5,7,-1,-1,9,11,-1,-1,-1,-1],"loss_changes":[1.2622681E1,4.846858E0,0E0,1.0353985E0,8.694477E0,0E0,0E0,1.3755751E0,3.3627205E0,0E0,0E0,0E0,0E0],"parents":[2147483647,0,0,1,1,3,3,4,4,7,7,8,8],"right_children":[2,4,-1,6,8,-1,-1,10,12,-1,-1,-1,-1],"split_conditions":[3.5E1,4E0,-3.729652E-2,1.7E1,3.8E1,3.9093614E-2,1.05591435E-2,2E0,5E0,7.341918E-3,4.215641E-2,1.5511821E-3,-4.3338995E-2],"split_indices":[13,15,0,20,17,0,0,24,15,0,0,0,0],"split_type":[0,0,0,0,0,0,0,0,0,0,0,0,0],"sum_hessian":[4.1812202E1,3.455805E1,7.254151E0,1.638059E1,1.817746E1,1.182183E1,4.5587616E0,9.144866E0,9.032593E0,4.328692E0,4.8161736E0,4.190769E0,4.8418236E0],"tree_param":{"num_deleted":"0","num_feature":"32","num_nodes":"13","size_leaf_vector":"1"}},{"base_weights":[8.456475E-2,7.43478E-1,-6.912806E-1,3.635538E-2,1.3882364E-4,-4.7586773E-2,2.684483E-2],"categories":[],"categories_nodes":[],"categories_segments":[],"categories_sizes":[],"default_left":[0,0,0,0,0,0,0],"id":56,"left_children":[1,3,5,-1,-1,-1,-1],"loss_changes":[1.9097544E1,2.295146E0,1.2488669E1,0E0,0E0,0E0,0E0],"parents":[2147483647,0,0,1,1,2,2],"right_children":[2,4,6,-1,-1,-1,-1],"split_conditions":[5E0,4.014E-1,4.286E-1,3.635538E-2,1.3882364E-4,-4.7586773E-2,2.684483E-2],"split_indices":[15,10,26,0,0,0,0],"split_type":[0,0,0,0,0,0,0],"sum_hessian":[3.53314E1,1.9267403E1,1.6064E1,1.5340104E1,3.927299E0,1.1961772E1,4.1022277E0],"tree_param":{"num_deleted":"0","num_feature":"32","num_nodes":"7","size_leaf_vector":"1"}},{"base_weights":[1.8382135E-1,-2.2363287E-1,6.0169786E-1,4.054034E-1,-8.2216614E-1,1.529803E-1,8.442892E-1,3.0048946E-2,-9.436826E-3,-6.065769E-3,-4.0520012E-2,2.4522785E-2,-1.3467585E-2,3.9624315E-2,1.4210167E-2],"categories":[],"categories_nodes":[],"categories_segments":[],"categories_sizes":[],"default_left":[0,0,0,0,0,0,0,0,0,0,0,0,0,0,0],"id":57,"left_children":[1,3,5,7,9,11,13,-1,-1,-1,-1,-1,-1,-1,-1],"loss_changes":[7.5063553E0,8.768606E0,2.0301228E0,2.7914941E0,1.1310902E0,2.3151045E0,3.4877682E-1,0E0,0E0,0E0,0E0,0E0,0E0,0E0,0E0],"parents":[2147483647,0,0,1,1,2,2,3,3,4,4,5,5,6,6],"right_children":[2,4,6,8,10,12,14,-1,-1,-1,-1,-1,-1,-1,-1],"split_conditions":[8.3E2,5E0,1E0,3.6E0,4.074E-1,5.085E-1,1.038E1,3.0048946E-2,-9.436826E-3,-6.065769E-3,-4.0520012E-2,2.4522785E-2,-1.3467585E-2,3.9624315E-2,1.4210167E-2],"split_indices":[1,15,24,25,19,19,28,0,0,0,0,0,0,0,0],"split_type":[0,0,0,0,0,0,0,0,0,0,0,0,0,0,0],"sum_hessian":[4.1851784E1,2.118317E1,2.0668613E1,1.0322806E1,1.0860365E1,8.114459E0,1.2554155E1,6.797754E0,3.525052E0,3.0359194E0,7.8244457E0,4.2642455E0,3.8502138E0,8.558773E0,3.9953818E0],"tree_param":{"num_deleted":"0","num_feature":"32","num_nodes":"15","size_leaf_vector":"1"}},{"base_weights":[2.4729711E-1,5.721505E-1,-3.7389603E-2,7.0116264E-1,-1.6615262E-2,8.1056905E-1,-4.1410695E-3,4.198417E-2,1.4322645E-2],"categories":[],"categories_nodes":[],"categories_segments":[],"categories_sizes":[],"default_left":[0,0,0,0,0,0,0,0,0],"id":58,"left_children":[1,3,-1,5,-1,7,-1,-1,-1],"loss_changes":[1.6241217E1,4.551017E0,0E0,2.842372E0,0E0,2.2090359E0,0E0,0E0,0E0],"parents":[2147483647,0,0,1,1,3,3,5,5],"right_children":[2,4,-1,6,-1,8,-1,-1,-1],"split_conditions":[5.019E-1,1.03E2,-3.7389603E-2,3.83E0,-1.6615262E-2,2.731E-1,-4.1410695E-3,4.198417E-2,1.4322645E-2],"split_indices":[10,27,0,25,0,10,0,0,0],"split_type":[0,0,0,0,0,0,0,0,0],"sum_hessian":[4.0092144E1,3.198659E1,8.105554E0,2.8726273E1,3.260317E0,2.550044E1,3.2258315E0,1.5533376E1,9.967066E0],"tree_param":{"num_deleted":"0","num_feature":"32","num_nodes":"9","size_leaf_vector":"1"}},{"base_weights":[1.1555737E-1,3.813461E-1,-3.6759887E-2,6.537105E-1,-1.9203147E-1,2.3068492E-1,8.455926E-1,-4.5947816E-2,1.984484E-2,3.2248728E-2,-9.697719E-3,1.7047023E-2,3.851117E-2],"categories":[],"categories_nodes":[],"categories_segments":[],"categories_sizes":[],"default_left":[0,0,0,0,0,0,0,0,0,0,0,0,0],"id":59,"left_children":[1,3,-1,5,7,9,11,-1,-1,-1,-1,-1,-1],"loss_changes":[1.1076585E1,5.247471E0,0E0,1.399643E0,7.881665E0,2.6659474E0,3.1433105E-2,0E0,0E0,0E0,0E0,0E0,0E0],"parents":[2147483647,0,0,1,1,3,3,4,4,5,5,6,6],"right_children":[2,4,-1,6,8,10,12,-1,-1,-1,-1,-1,-1],"split_conditions":[3.5E1,2.374E-1,-3.6759887E-2,1.86E0,2.222E-1,1.2E1,6.053E-1,-4.5947816E-2,1.984484E-2,3.2248728E-2,-9.697719E-3,1.7047023E-2,3.851117E-2],"split_indices":[13,12,0,18,26,13,19,0,0,0,0,0,0],"split_type":[0,0,0,0,0,0,0,0,0,0,0,0,0],"sum_hessian":[3.8399E1,3.1206427E1,7.1925726E0,2.1298143E1,9.908284E0,7.658549E0,1.3639594E1,3.9869902E0,5.921294E0,3.328418E0,4.3301306E0,4.364003E0,9.275591E0],"tree_param":{"num_deleted":"0","num_feature":"32","num_nodes":"13","size_leaf_vector":"1"}},{"base_weights":[1.475031E-1,4.5326585E-1,-3.7332222E-2,-5.416341E-2,7.587134E-1,3.989363E-1,-4.4874348E-2,3.7641097E-2,-3.9200853E-3,3.25464E-2,-5.172634E-3],"categories":[],"categories_nodes":[],"categories_segments":[],"categories_sizes":[],"default_left":[0,0,0,0,0,0,0,0,0,0,0],"id":60,"left_children":[1,3,-1,5,7,9,-1,-1,-1,-1,-1],"loss_changes":[1.3827608E1,5.244262E0,0E0,6.8618927E0,3.494154E0,2.3682504E0,0E0,0E0,0E0,0E0,0E0],"parents":[2147483647,0,0,1,1,3,3,4,4,5,5],"right_children":[2,4,-1,6,8,10,-1,-1,-1,-1,-1],"split_conditions":[5.019E-1,1E0,-3.7332222E-2,2.415E-1,2E0,2E1,-4.4874348E-2,3.7641097E-2,-3.9200853E-3,3.25464E-2,-5.172634E-3],"split_indices":[10,22,0,12,8,29,0,0,0,0,0],"split_type":[0,0,0,0,0,0,0,0,0,0,0],"sum_hessian":[3.985254E1,3.1661198E1,8.191341E0,1.196014E1,1.970106E1,8.705015E0,3.2551243E0,1.6355541E1,3.3455174E0,4.785949E0,3.919066E0],"tree_param":{"num_deleted":"0","num_feature":"32","num_nodes":"11","size_leaf_vector":"1"}},{"base_weights":[1.7300859E-1,4.577991E-1,-3.6936037E-2,6.6126746E-1,-1.966671E-1,8.494283E-1,2.1386397E-1,2.464128E-2,-4.091908E-2,3.8424913E-2,1.2958433E-2,3.4446586E-2,-1.1328284E-2],"categories":[],"categories_nodes":[],"categories_segments":[],"categories_sizes":[],"default_left":[0,0,0,0,0,0,0,0,0,0,0,0,0],"id":61,"left_children":[1,3,-1,5,7,9,11,-1,-1,-1,-1,-1,-1],"loss_changes":[1.3292845E1,4.71977E0,0E0,1.8132105E0,6.450804E0,4.7239876E-1,3.388638E0,0E0,0E0,0E0,0E0,0E0,0E0],"parents":[2147483647,0,0,1,1,3,3,4,4,5,5,6,6],"right_children":[2,4,-1,6,8,10,12,-1,-1,-1,-1,-1,-1],"split_conditions":[5.019E-1,2.452E-1,-3.6936037E-2,5E0,3.2E0,3.419E-1,1.926E-1,2.464128E-2,-4.091908E-2,3.8424913E-2,1.2958433E-2,3.4446586E-2,-1.1328284E-2],"split_indices":[10,12,0,15,25,10,10,0,0,0,0,0,0],"split_type":[0,0,0,0,0,0,0,0,0,0,0,0,0],"sum_hessian":[4.051595E1,3.2769104E1,7.7468486E0,2.522275E1,7.546352E0,1.6808247E1,8.414503E0,3.8107803E0,3.7355716E0,1.2875011E1,3.9332354E0,3.5115445E0,4.902959E0],"tree_param":{"num_deleted":"0","num_feature":"32","num_nodes":"13","size_leaf_vector":"1"}},{"base_weights":[1.8584713E-1,4.6185818E-1,-3.6183268E-2,-9.065255E-2,7.7040863E-1,4.8481125E-1,-3.6262553E-2,8.897149E-1,4.801375E-3,3.3174656E-2,-0E0,4.054504E-2,1.7631246E-2],"categories":[],"categories_nodes":[],"categories_segments":[],"categories_sizes":[],"default_left":[0,0,0,0,0,0,0,0,0,0,0,0,0],"id":62,"left_children":[1,3,-1,5,7,9,-1,11,-1,-1,-1,-1,-1],"loss_changes":[1.1740515E1,5.501628E0,0E0,6.061521E0,1.2641277E0,1.1506661E0,0E0,1.9202614E-1,0E0,0E0,0E0,0E0,0E0],"parents":[2147483647,0,0,1,1,3,3,4,4,5,5,7,7],"right_children":[2,4,-1,6,8,10,-1,12,-1,-1,-1,-1,-1],"split_conditions":[5.019E-1,1E0,-3.6183268E-2,1.872E-1,2.763E-1,6.9E-1,-3.6262553E-2,4.014E-1,4.801375E-3,3.3174656E-2,-0E0,4.054504E-2,1.7631246E-2],"split_indices":[10,22,0,12,12,0,0,10,0,0,0,0,0],"split_type":[0,0,0,0,0,0,0,0,0,0,0,0,0],"sum_hessian":[3.6914925E1,3.0064745E1,6.850178E0,1.0794109E1,1.9270638E1,6.4239583E0,4.3701506E0,1.5712734E1,3.5579026E0,3.2096586E0,3.2143E0,1.0979035E1,4.733699E0],"tree_param":{"num_deleted":"0","num_feature":"32","num_nodes":"13","size_leaf_vector":"1"}},{"base_weights":[-1.7911201E-2,5.371038E-1,-5.324893E-1,3.174668E-2,2.1131351E-4,2.2508033E-2,-9.7516024E-1,-1.049158E-2,-4.701965E-2],"categories":[],"categories_nodes":[],"categories_segments":[],"categories_sizes":[],"default_left":[0,0,0,0,0,0,0,0,0],"id":63,"left_children":[1,3,5,-1,-1,-1,7,-1,-1],"loss_changes":[9.445574E0,1.9839339E0,9.034315E0,0E0,0E0,0E0,1.2377415E0,0E0,0E0],"parents":[2147483647,0,0,1,1,2,2,6,6],"right_children":[2,4,6,-1,-1,-1,8,-1,-1],"split_conditions":[5E0,3.149E-1,7.941E-1,3.174668E-2,2.1131351E-4,2.2508033E-2,4.46E2,-1.049158E-2,-4.701965E-2],"split_indices":[15,10,21,0,0,0,1,0,0],"split_type":[0,0,0,0,0,0,0,0,0],"sum_hessian":[3.1074722E1,1.4741911E1,1.6332811E1,9.358648E0,5.383263E0,4.4932737E0,1.1839537E1,3.3228652E0,8.516671E0],"tree_param":{"num_deleted":"0","num_feature":"32","num_nodes":"9","size_leaf_vector":"1"}},{"base_weights":[1.655174E-1,7.665502E-1,-3.8056827E-1,3.800019E-2,7.864187E-3,-9.088791E-1,3.005431E-2,-4.192487E-2,-1.063707E-2],"categories":[],"categories_nodes":[],"categories_segments":[],"categories_sizes":[],"default_left":[0,0,0,0,0,0,0,0,0],"id":64,"left_children":[1,3,5,-1,-1,7,-1,-1,-1],"loss_changes":[1.231145E1,1.4479609E0,1.2410535E1,0E0,0E0,7.0357513E-1,0E0,0E0,0E0],"parents":[2147483647,0,0,1,1,2,2,5,5],"right_children":[2,4,6,-1,-1,8,-1,-1,-1],"split_conditions":[3.149E-1,2.246E-1,3E0,3.800019E-2,7.864187E-3,8.46E2,3.005431E-2,-4.192487E-2,-1.063707E-2],"split_indices":[10,12,22,0,0,1,0,0,0],"split_type":[0,0,0,0,0,0,0,0,0],"sum_hessian":[3.5386257E1,1.6827785E1,1.8558472E1,1.1960261E1,4.8675237E0,1.2907715E1,5.6507564E0,9.836263E0,3.0714526E0],"tree_param":{"num_deleted":"0","num_feature":"32","num_nodes":"9","size_leaf_vector":"1"}},{"base_weights":[1.1538243E-1,3.9703032E-1,-3.590614E-2,-0E0,6.2435097E-1,5.14837E-1,-4.230283E-2,7.804238E-1,1.2350093E-3,3.100851E-3,3.367075E-2,3.855164E-2,1.5353721E-2],"categories":[],"categories_nodes":[],"categories_segments":[],"categories_sizes":[],"default_left":[0,0,0,0,0,0,0,0,0,0,0,0,0],"id":65,"left_children":[1,3,-1,5,7,9,-1,11,-1,-1,-1,-1,-1],"loss_changes":[1.0178677E1,2.5801206E0,0E0,6.6261683E0,1.4776926E0,9.068668E-1,0E0,3.725376E-1,0E0,0E0,0E0,0E0,0E0],"parents":[2147483647,0,0,1,1,3,3,4,4,5,5,7,7],"right_children":[2,4,-1,6,8,10,-1,12,-1,-1,-1,-1,-1],"split_conditions":[5.019E-1,7.69E-2,-3.590614E-2,5E0,2E0,2.34E0,-4.230283E-2,2.7E1,1.2350093E-3,3.100851E-3,3.367075E-2,3.855164E-2,1.5353721E-2],"split_indices":[10,26,0,15,9,0,0,27,0,0,0,0,0],"split_type":[0,0,0,0,0,0,0,0,0,0,0,0,0],"sum_hessian":[3.377648E1,2.7058958E1,6.7175236E0,1.0093623E1,1.6965336E1,7.0853357E0,3.008287E0,1.2916529E1,4.048806E0,3.821896E0,3.26344E0,7.5097027E0,5.406826E0],"tree_param":{"num_deleted":"0","num_feature":"32","num_nodes":"13","size_leaf_vector":"1"}},{"base_weights":[9.67098E-2,3.5595012E-1,-3.608325E-2,6.337736E-1,-4.3858024E-1,2.8757438E-1,3.5330165E-2,-4.280763E-2,1.0391939E-2,3.6829904E-2,-2.5203365E-3],"categories":[],"categories_nodes":[],"categories_segments":[],"categories_sizes":[],"default_left":[0,0,0,0,0,0,0,0,0,0,0],"id":66,"left_children":[1,3,-1,5,7,9,-1,-1,-1,-1,-1],"loss_changes":[9.302872E0,6.66352E0,0E0,1.4031544E0,3.904238E0,2.6690567E0,0E0,0E0,0E0,0E0,0E0],"parents":[2147483647,0,0,1,1,3,3,4,4,5,5],"right_children":[2,4,-1,6,8,10,-1,-1,-1,-1,-1],"split_conditions":[3.2E1,2.374E-1,-3.608325E-2,7.95E2,2E-1,7.4E1,3.5330165E-2,-4.280763E-2,1.0391939E-2,3.6829904E-2,-2.5203365E-3],"split_indices":[13,12,0,1,26,1,0,0,0,0,0],"split_type":[0,0,0,0,0,0,0,0,0,0,0],"sum_hessian":[3.4110294E1,2.7751215E1,6.35908E0,2.0897896E1,6.8533187E0,9.989718E0,1.0908177E1,3.4695017E0,3.383817E0,3.183776E0,6.805943E0],"tree_param":{"num_deleted":"0","num_feature":"32","num_nodes":"11","size_leaf_vector":"1"}},{"base_weights":[2.1557164E-1,4.414616E-1,-3.5225235E-2,7.601893E-1,8.74314E-2,1.3627159E-2,3.677643E-2,-3.7093516E-2,4.4180173E-1,3.4708455E-2,-9.0225395E-3],"categories":[],"categories_nodes":[],"categories_segments":[],"categories_sizes":[],"default_left":[0,0,0,0,0,0,0,0,0,0,0],"id":67,"left_children":[1,3,-1,5,7,-1,-1,-1,9,-1,-1],"loss_changes":[9.577805E0,3.361364E0,0E0,5.268154E-1,6.2571945E0,0E0,0E0,0E0,4.0407524E0,0E0,0E0],"parents":[2147483647,0,0,1,1,3,3,4,4,8,8],"right_children":[2,4,-1,6,8,-1,-1,-1,10,-1,-1],"split_conditions":[5.6E1,2.6E1,-3.5225235E-2,1E0,2E0,1.3627159E-2,3.677643E-2,-3.7093516E-2,3.52E0,3.4708455E-2,-9.0225395E-3],"split_indices":[20,20,0,22,4,0,0,0,25,0,0],"split_type":[0,0,0,0,0,0,0,0,0,0,0],"sum_hessian":[3.6463985E1,3.0880331E1,5.583654E0,1.5349371E1,1.553096E1,5.432308E0,9.917062E0,3.4552677E0,1.2075692E1,7.37102E0,4.7046723E0],"tree_param":{"num_deleted":"0","num_feature":"32","num_nodes":"11","size_leaf_vector":"1"}},{"base_weights":[1.6774881E-1,4.3309602E-1,-3.529121E-2,7.209024E-1,-1.1188992E-1,8.409283E-1,1.198791E-3,-4.4561353E-2,4.5568413E-1,3.77416E-2,1.0096064E-2,2.5433432E-2,5.5207466E-3],"categories":[],"categories_nodes":[],"categories_segments":[],"categories_sizes":[],"default_left":[0,0,0,0,0,0,0,0,0,0,0,0,0],"id":68,"left_children":[1,3,-1,5,7,9,-1,-1,11,-1,-1,-1,-1],"loss_changes":[1.0109732E1,4.7433643E0,0E0,1.4028187E0,6.6858783E0,4.9958038E-1,0E0,0E0,1.7918932E-1,0E0,0E0,0E0,0E0],"parents":[2147483647,0,0,1,1,3,3,4,4,5,5,8,8],"right_children":[2,4,-1,6,8,10,-1,-1,12,-1,-1,-1,-1],"split_conditions":[5.019E-1,2.246E-1,-3.529121E-2,4.468E-1,1.667E-1,8E0,1.198791E-3,-4.4561353E-2,3.52E-1,3.77416E-2,1.0096064E-2,2.5433432E-2,5.5207466E-3],"split_indices":[10,12,0,10,26,15,0,0,10,0,0,0,0],"split_type":[0,0,0,0,0,0,0,0,0,0,0,0,0],"sum_hessian":[3.4235718E1,2.7950506E1,6.2852125E0,1.8319954E1,9.630552E0,1.5176926E1,3.1430275E0,3.2614727E0,6.3690796E0,1.21206E1,3.0563262E0,3.0233316E0,3.3457482E0],"tree_param":{"num_deleted":"0","num_feature":"32","num_nodes":"13","size_leaf_vector":"1"}},{"base_weights":[6.2245034E-2,6.352087E-1,-6.041506E-1,8.0992526E-1,-3.876557E-4,-4.222828E-2,6.981125E-3,1.6831508E-2,3.749946E-2],"categories":[],"categories_nodes":[],"categories_segments":[],"categories_sizes":[],"default_left":[0,0,0,0,0,0,0,0,0],"id":69,"left_children":[1,3,5,7,-1,-1,-1,-1,-1],"loss_changes":[1.2257403E1,2.124041E0,5.5363584E0,2.4637222E-2,0E0,0E0,0E0,0E0,0E0],"parents":[2147483647,0,0,1,1,2,2,3,3],"right_children":[2,4,6,8,-1,-1,-1,-1,-1],"split_conditions":[3.149E-1,8.84E2,8.29E2,3E0,-3.876557E-4,-4.222828E-2,6.981125E-3,1.6831508E-2,3.749946E-2],"split_indices":[10,1,1,9,0,0,0,0,0],"split_type":[0,0,0,0,0,0,0,0,0],"sum_hessian":[3.0081173E1,1.6360992E1,1.37201805E1,1.2916016E1,3.4449773E0,8.621591E0,5.09859E0,4.637002E0,8.279015E0],"tree_param":{"num_deleted":"0","num_feature":"32","num_nodes":"9","size_leaf_vector":"1"}},{"base_weights":[1.2598184E-1,7.513781E-1,-4.0078056E-1,1.1674268E-2,3.765427E-2,-9.3954563E-1,2.7856532E-2,-4.412093E-2,-1.0393474E-2],"categories":[],"categories_nodes":[],"categories_segments":[],"categories_sizes":[],"default_left":[0,0,0,0,0,0,0,0,0],"id":70,"left_children":[1,3,5,-1,-1,7,-1,-1,-1],"loss_changes":[1.1042267E1,8.16988E-1,1.1379316E1,0E0,0E0,8.476715E-1,0E0,0E0,0E0],"parents":[2147483647,0,0,1,1,2,2,5,5],"right_children":[2,4,6,-1,-1,8,-1,-1,-1],"split_conditions":[2.972E-1,1E0,3E0,1.1674268E-2,3.765427E-2,8.125E-1,2.7856532E-2,-4.412093E-2,-1.0393474E-2],"split_indices":[10,22,22,0,0,19,0,0,0],"split_type":[0,0,0,0,0,0,0,0,0],"sum_hessian":[3.1391827E1,1.4330854E1,1.7060972E1,5.2415557E0,9.089298E0,1.1660954E1,5.4000177E0,8.660883E0,3.0000713E0],"tree_param":{"num_deleted":"0","num_feature":"32","num_nodes":"9","size_leaf_vector":"1"}},{"base_weights":[1.2315488E-1,7.3776037E-1,-3.758159E-1,6.3097584E-3,3.6534443E-2,-4.009425E-2,1.1408397E-1,-2.5838682E-2,5.998453E-1,7.6720533E-3,3.181462E-2],"categories":[],"categories_nodes":[],"categories_segments":[],"categories_sizes":[],"default_left":[0,0,0,0,0,0,0,0,0,0,0],"id":71,"left_children":[1,3,5,-1,-1,-1,7,-1,9,-1,-1],"loss_changes":[1.0269039E1,1.1705332E0,5.9198E0,0E0,0E0,0E0,4.44252E0,0E0,2.3999214E-1,0E0,0E0],"parents":[2147483647,0,0,1,1,2,2,6,6,8,8],"right_children":[2,4,6,-1,-1,-1,8,-1,10,-1,-1],"split_conditions":[2.731E-1,3.3E1,1.4E1,6.3097584E-3,3.6534443E-2,-4.009425E-2,1E0,-2.5838682E-2,5.7E1,7.6720533E-3,3.181462E-2],"split_indices":[10,17,16,0,0,0,24,0,29,0,0],"split_type":[0,0,0,0,0,0,0,0,0,0,0],"sum_hessian":[3.1345457E1,1.4010425E1,1.7335032E1,3.961776E0,1.0048649E1,7.326834E0,1.0008197E1,3.6132162E0,6.394981E0,3.0446963E0,3.3502846E0],"tree_param":{"num_deleted":"0","num_feature":"32","num_nodes":"11","size_leaf_vector":"1"}},{"base_weights":[2.1166626E-1,4.618082E-1,-3.444367E-2,7.5781846E-1,-1.1589459E-1,8.6792976E-1,5.526902E-3,2.1063032E-2,-3.549212E-2,3.814218E-2,1.4609011E-2],"categories":[],"categories_nodes":[],"categories_segments":[],"categories_sizes":[],"default_left":[0,0,0,0,0,0,0,0,0,0,0],"id":72,"left_children":[1,3,-1,5,7,9,-1,-1,-1,-1,-1],"loss_changes":[9.405444E0,5.0496016E0,0E0,9.786444E-1,5.601666E0,6.430149E-2,0E0,0E0,0E0,0E0,0E0],"parents":[2147483647,0,0,1,1,3,3,4,4,5,5],"right_children":[2,4,-1,6,8,10,-1,-1,-1,-1,-1],"split_conditions":[5.019E-1,2.192E-1,-3.444367E-2,8E0,3.3E0,8.4E1,5.526902E-3,2.1063032E-2,-3.549212E-2,3.814218E-2,1.4609011E-2],"split_indices":[10,12,0,15,25,17,0,0,0,0,0],"split_type":[0,0,0,0,0,0,0,0,0,0,0],"sum_hessian":[3.2865925E1,2.7264444E1,5.6014795E0,1.8050125E1,9.214319E0,1.4712294E1,3.3378317E0,5.0590158E0,4.155303E0,1.1464817E1,3.2474768E0],"tree_param":{"num_deleted":"0","num_feature":"32","num_nodes":"11","size_leaf_vector":"1"}},{"base_weights":[5.3279825E-2,6.3999695E-1,-5.873074E-1,-0E0,8.072999E-1,1.6642613E-2,-4.2443745E-2,3.6624238E-2,1.4013451E-2],"categories":[],"categories_nodes":[],"categories_segments":[],"categories_sizes":[],"default_left":[0,0,0,0,0,0,0,0,0],"id":73,"left_children":[1,3,5,-1,7,-1,-1,-1,-1],"loss_changes":[1.1529435E1,1.6076136E0,7.4787064E0,0E0,4.9404144E-2,0E0,0E0,0E0,0E0],"parents":[2147483647,0,0,1,1,2,2,4,4],"right_children":[2,4,6,-1,8,-1,-1,-1,-1],"split_conditions":[2.6E1,5.085E-1,3E0,-0E0,2.374E-1,1.6642613E-2,-4.2443745E-2,3.6624238E-2,1.4013451E-2],"split_indices":[20,19,31,0,12,0,0,0,0],"split_type":[0,0,0,0,0,0,0,0,0],"sum_hessian":[2.8648039E1,1.5116184E1,1.3531856E1,3.5209384E0,1.1595245E1,4.2439094E0,9.287946E0,8.208406E0,3.3868392E0],"tree_param":{"num_deleted":"0","num_feature":"32","num_nodes":"9","size_leaf_vector":"1"}},{"base_weights":[1.6389659E-2,3.487732E-1,-3.57245E-2,6.055721E-1,-1.2168353E-2,3.5765387E-2,4.5153922E-3],"categories":[],"categories_nodes":[],"categories_segments":[],"categories_sizes":[],"default_left":[0,0,0,0,0,0,0],"id":74,"left_children":[1,3,-1,5,-1,-1,-1],"loss_changes":[8.292417E0,3.6784158E0,0E0,1.866096E0,0E0,0E0,0E0],"parents":[2147483647,0,0,1,1,3,3],"right_children":[2,4,-1,6,-1,-1,-1],"split_conditions":[4.2E1,2.374E-1,-3.57245E-2,3.496E-1,-1.2168353E-2,3.5765387E-2,4.5153922E-3],"split_indices":[20,12,0,11,0,0,0],"split_type":[0,0,0,0,0,0,0],"sum_hessian":[2.576049E1,1.9478403E1,6.2820873E0,1.4252285E1,5.226118E0,8.218206E0,6.0340796E0],"tree_param":{"num_deleted":"0","num_feature":"32","num_nodes":"7","size_leaf_vector":"1"}},{"base_weights":[3.1731836E-2,5.855399E-1,-5.1404244E-1,3.419649E-2,-6.6146897E-3,-8.831165E-1,2.2004044E-2,-4.1448183E-2,-1.1525156E-2],"categories":[],"categories_nodes":[],"categories_segments":[],"categories_sizes":[],"default_left":[0,0,0,0,0,0,0,0,0],"id":75,"left_children":[1,3,5,-1,-1,7,-1,-1,-1],"loss_changes":[9.002198E0,3.2961102E0,6.3752127E0,0E0,0E0,4.8691082E-1,0E0,0E0,0E0],"parents":[2147483647,0,0,1,1,2,2,5,5],"right_children":[2,4,6,-1,-1,8,-1,-1,-1],"split_conditions":[3.149E-1,2.415E-1,3E0,3.419649E-2,-6.6146897E-3,7.692E-1,2.2004044E-2,-4.1448183E-2,-1.1525156E-2],"split_indices":[10,12,22,0,0,19,0,0,0],"split_type":[0,0,0,0,0,0,0,0,0],"sum_hessian":[2.7740404E1,1.3914586E1,1.3825817E1,1.0334969E1,3.5796177E0,1.0531325E1,3.2944913E0,7.5190125E0,3.012313E0],"tree_param":{"num_deleted":"0","num_feature":"32","num_nodes":"9","size_leaf_vector":"1"}},{"base_weights":[1.4554232E-1,5.814441E-1,-3.0606365E-1,-3.3772625E-3,3.127981E-2,1.7105304E-1,-4.337956E-2,-8.354104E-3,3.1055309E-2],"categories":[],"categories_nodes":[],"categories_segments":[],"categories_sizes":[],"default_left":[0,0,0,0,0,0,0,0,0],"id":76,"left_children":[1,3,5,-1,-1,7,-1,-1,-1],"loss_changes":[6.2065163E0,2.343668E0,6.0630674E0,0E0,0E0,2.6238918E0,0E0,0E0,0E0],"parents":[2147483647,0,0,1,1,2,2,5,5],"right_children":[2,4,6,-1,-1,8,-1,-1,-1],"split_conditions":[5E0,5.286E-1,1.029E1,-3.3772625E-3,3.127981E-2,2E0,-4.337956E-2,-8.354104E-3,3.1055309E-2],"split_indices":[15,19,28,0,0,24,0,0,0],"split_type":[0,0,0,0,0,0,0,0,0],"sum_hessian":[2.9344446E1,1.5010899E1,1.4333547E1,3.3777509E0,1.1633148E1,9.211136E0,5.122411E0,5.8587537E0,3.3523824E0],"tree_param":{"num_deleted":"0","num_feature":"32","num_nodes":"9","size_leaf_vector":"1"}},{"base_weights":[1.11817345E-1,3.4539136E-1,-3.3469256E-2,8.62305E-1,-0E0,1.5745243E-2,4.045119E-2,2.9855756E-2,-2.5474438E-1,1.3311903E-2,-4.632347E-2],"categories":[],"categories_nodes":[],"categories_segments":[],"categories_sizes":[],"default_left":[0,0,0,0,0,0,0,0,0,0,0],"id":77,"left_children":[1,3,-1,5,7,-1,-1,-1,9,-1,-1],"loss_changes":[6.7828965E0,4.5642214E0,0E0,2.6786804E-2,3.0816855E0,0E0,0E0,0E0,7.2251053E0,0E0,0E0],"parents":[2147483647,0,0,1,1,3,3,4,4,8,8],"right_children":[2,4,-1,6,8,-1,-1,-1,10,-1,-1],"split_conditions":[5.019E-1,6.3E0,-3.3469256E-2,1E0,2.43E2,1.5745243E-2,4.045119E-2,2.9855756E-2,2.972E-1,1.3311903E-2,-4.632347E-2],"split_indices":[10,28,0,24,1,0,0,0,10,0,0],"split_type":[0,0,0,0,0,0,0,0,0,0,0],"sum_hessian":[2.8753899E1,2.3751875E1,5.0020237E0,9.109341E0,1.4642535E1,3.3994548E0,5.7098856E0,3.0667124E0,1.1575823E1,7.2624526E0,4.31337E0],"tree_param":{"num_deleted":"0","num_feature":"32","num_nodes":"11","size_leaf_vector":"1"}},{"base_weights":[8.0459386E-2,6.2987715E-1,-4.9732924E-1,2.29347E-1,3.539181E-2,1.837393E-2,-4.063925E-2,1.2005485E-3,1.288002E-2],"categories":[],"categories_nodes":[],"categories_segments":[],"categories_sizes":[],"default_left":[0,0,0,0,0,0,0,0,0],"id":78,"left_children":[1,3,5,7,-1,-1,-1,-1,-1],"loss_changes":[8.640768E0,1.0059595E0,7.0913587E0,5.122152E-2,0E0,0E0,0E0,0E0,0E0],"parents":[2147483647,0,0,1,1,2,2,3,3],"right_children":[2,4,6,8,-1,-1,-1,-1,-1],"split_conditions":[3.149E-1,7.69E-2,1.4E1,1E1,3.539181E-2,1.837393E-2,-4.063925E-2,1.2005485E-3,1.288002E-2],"split_indices":[10,26,13,13,0,0,0,0,0],"split_type":[0,0,0,0,0,0,0,0,0],"sum_hessian":[2.5149225E1,1.3022325E1,1.2126901E1,6.108631E0,6.9136934E0,4.167846E0,7.959055E0,3.0434709E0,3.0651605E0],"tree_param":{"num_deleted":"0","num_feature":"32","num_nodes":"9","size_leaf_vector":"1"}},{"base_weights":[2.0568664E-1,4.251116E-1,-3.2716166E-2,5.6215036E-1,-1.2353609E-2,3.211627E-2,1.9129337E-1,2.6595775E-2,-1.7696418E-2],"categories":[],"categories_nodes":[],"categories_segments":[],"categories_sizes":[],"default_left":[0,0,0,0,0,0,0,0,0],"id":79,"left_children":[1,3,-1,5,-1,-1,7,-1,-1],"loss_changes":[7.1143374E0,2.830903E0,0E0,1.6496029E0,0E0,0E0,3.4798155E0,0E0,0E0],"parents":[2147483647,0,0,1,1,3,3,6,6],"right_children":[2,4,-1,6,-1,-1,8,-1,-1],"split_conditions":[5.019E-1,1.03E2,-3.2716166E-2,1.872E-1,-1.2353609E-2,3.211627E-2,3.43E0,2.6595775E-2,-1.7696418E-2],"split_indices":[10,27,0,12,0,0,25,0,0],"split_type":[0,0,0,0,0,0,0,0,0],"sum_hessian":[2.9477087E1,2.491598E1,4.5611076E0,2.1422653E1,3.4933267E0,1.1956394E1,9.466259E0,5.569933E0,3.8963258E0],"tree_param":{"num_deleted":"0","num_feature":"32","num_nodes":"9","size_leaf_vector":"1"}},{"base_weights":[1.1359334E-1,3.1581908E-1,-3.2855045E-2,6.3549477E-1,-2.2719845E-1,3.8255665E-2,2.4120982E-1,2.2497395E-2,-3.2278918E-2,2.6580555E-2,-9.144523E-3],"categories":[],"categories_nodes":[],"categories_segments":[],"categories_sizes":[],"default_left":[0,0,0,0,0,0,0,0,0,0,0],"id":80,"left_children":[1,3,-1,5,7,-1,9,-1,-1,-1,-1],"loss_changes":[5.521347E0,4.430172E0,0E0,1.521236E0,4.8424506E0,0E0,1.9651895E0,0E0,0E0,0E0,0E0],"parents":[2147483647,0,0,1,1,3,3,4,4,6,6],"right_children":[2,4,-1,6,8,-1,10,-1,-1,-1,-1],"split_conditions":[3.5E1,3.63E0,-3.2855045E-2,1E0,2E1,3.8255665E-2,1.51E0,2.2497395E-2,-3.2278918E-2,2.6580555E-2,-9.144523E-3],"split_indices":[13,25,0,9,29,0,18,0,0,0,0],"split_type":[0,0,0,0,0,0,0,0,0,0,0],"sum_hessian":[2.7364697E1,2.3218798E1,4.1458983E0,1.4739582E1,8.479217E0,7.060426E0,7.679156E0,3.4565105E0,5.022706E0,4.045508E0,3.633648E0],"tree_param":{"num_deleted":"0","num_feature":"32","num_nodes":"11","size_leaf_vector":"1"}},{"base_weights":[1.8617564E-1,4.1500804E-1,-3.2887366E-2,6.64878E-1,-1.1086463E-1,8.965677E-3,8.165259E-1,-3.535321E-2,3.2441325E-2,3.984581E-2,1.0612811E-2],"categories":[],"categories_nodes":[],"categories_segments":[],"categories_sizes":[],"default_left":[0,0,0,0,0,0,0,0,0,0,0],"id":81,"left_children":[1,3,-1,5,7,-1,9,-1,-1,-1,-1],"loss_changes":[7.034899E0,3.4376178E0,0E0,7.573433E-1,6.840953E0,0E0,6.782961E-1,0E0,0E0,0E0,0E0],"parents":[2147483647,0,0,1,1,3,3,4,4,6,6],"right_children":[2,4,-1,6,8,-1,10,-1,-1,-1,-1],"split_conditions":[4.744E-1,1.038E1,-3.2887366E-2,1.4E1,5E1,8.965677E-3,6.38E0,-3.535321E-2,3.2441325E-2,3.984581E-2,1.0612811E-2],"split_indices":[10,28,0,16,16,0,28,0,0,0,0],"split_type":[0,0,0,0,0,0,0,0,0,0,0],"sum_hessian":[2.836189E1,2.3757298E1,4.6045938E0,1.61836E1,7.5736985E0,5.1149225E0,1.1068677E1,4.260074E0,3.3136246E0,7.4657784E0,3.602898E0],"tree_param":{"num_deleted":"0","num_feature":"32","num_nodes":"11","size_leaf_vector":"1"}},{"base_weights":[1.884451E-1,3.9306298E-1,-3.1990614E-2,7.9829717E-1,4.5728E-2,1.4716813E-2,3.82482E-2,4.0086442E-1,-2.603435E-2,-1.0440403E-2,3.128053E-2],"categories":[],"categories_nodes":[],"categories_segments":[],"categories_sizes":[],"default_left":[0,0,0,0,0,0,0,0,0,0,0],"id":82,"left_children":[1,3,-1,5,7,-1,-1,9,-1,-1,-1],"loss_changes":[6.1574564E0,3.329153E0,0E0,1.4880943E-1,3.8840866E0,0E0,0E0,2.993343E0,0E0,0E0,0E0],"parents":[2147483647,0,0,1,1,3,3,4,4,7,7],"right_children":[2,4,-1,6,8,-1,-1,10,-1,-1,-1],"split_conditions":[5.019E-1,6.38E0,-3.1990614E-2,1E0,5E0,1.4716813E-2,3.82482E-2,1.306E1,-2.603435E-2,-1.0440403E-2,3.128053E-2],"split_indices":[10,28,0,24,15,0,0,28,0,0,0],"split_type":[0,0,0,0,0,0,0,0,0,0,0],"sum_hessian":[2.8299097E1,2.4111275E1,4.187823E0,1.0263145E1,1.3848128E1,3.988647E0,6.2744985E0,9.64336E0,4.204768E0,3.4473765E0,6.195984E0],"tree_param":{"num_deleted":"0","num_feature":"32","num_nodes":"11","size_leaf_vector":"1"}},{"base_weights":[1.1598128E-1,5.2173597E-1,-3.4455135E-1,6.349366E-2,3.5885073E-2,-7.4908435E-1,2.9565578E-2,-2.2148745E-2,2.522646E-2,-4.0251516E-2,-5.3985335E-4],"categories":[],"categories_nodes":[],"categories_segments":[],"categories_sizes":[],"default_left":[0,0,0,0,0,0,0,0,0,0,0],"id":83,"left_children":[1,3,5,7,-1,9,-1,-1,-1,-1,-1],"loss_changes":[5.7251916E0,2.5555701E0,6.7731147E0,3.3954415E0,0E0,1.855751E0,0E0,0E0,0E0,0E0,0E0],"parents":[2147483647,0,0,1,1,2,2,3,3,5,5],"right_children":[2,4,6,8,-1,10,-1,-1,-1,-1,-1],"split_conditions":[3.149E-1,7.69E-2,5.61E0,7.222E-1,3.5885073E-2,8.3E2,2.9565578E-2,-2.2148745E-2,2.522646E-2,-4.0251516E-2,-5.3985335E-4],"split_indices":[10,26,0,19,0,1,0,0,0,0,0],"split_type":[0,0,0,0,0,0,0,0,0,0,0],"sum_hessian":[2.8486746E1,1.5304245E1,1.3182501E1,7.6579957E0,7.64625E0,9.958423E0,3.224078E0,3.5096996E0,4.148296E0,6.9043655E0,3.0540576E0],"tree_param":{"num_deleted":"0","num_feature":"32","num_nodes":"11","size_leaf_vector":"1"}},{"base_weights":[1.5840551E-1,3.5699594E-1,-3.2050464E-2,-1.3008928E-1,6.471873E-1,-2.49502E-2,1.5481452E-2,3.614915E-2,3.4035096E-1,3.6899883E-2,-1.133325E-2],"categories":[],"categories_nodes":[],"categories_segments":[],"categories_sizes":[],"default_left":[0,0,0,0,0,0,0,0,0,0,0],"id":84,"left_children":[1,3,-1,5,7,-1,-1,-1,9,-1,-1],"loss_changes":[5.450205E0,3.537806E0,0E0,2.6946445E0,6.461892E-1,0E0,0E0,0E0,3.626357E0,0E0,0E0],"parents":[2147483647,0,0,1,1,3,3,4,4,8,8],"right_children":[2,4,-1,6,8,-1,-1,-1,10,-1,-1],"split_conditions":[3.5E1,1E0,-3.2050464E-2,7.391E-1,2.972E-1,-2.49502E-2,1.5481452E-2,3.614915E-2,1E1,3.6899883E-2,-1.133325E-2],"split_indices":[13,22,0,19,10,0,0,0,27,0,0],"split_type":[0,0,0,0,0,0,0,0,0,0,0],"sum_hessian":[2.6563183E1,2.270176E1,3.8614233E0,8.424229E0,1.427753E1,4.402249E0,4.0219803E0,6.361578E0,7.915952E0,4.0123653E0,3.9035869E0],"tree_param":{"num_deleted":"0","num_feature":"32","num_nodes":"11","size_leaf_vector":"1"}},{"base_weights":[1.8273047E-1,3.4287634E-1,-2.978194E-2,5.778469E-1,-6.61071E-2,4.21962E-3,7.516508E-1,2.2375802E-2,-1.9274868E-2,1.2226729E-2,3.6990326E-2],"categories":[],"categories_nodes":[],"categories_segments":[],"categories_sizes":[],"default_left":[0,0,0,0,0,0,0,0,0,0,0],"id":85,"left_children":[1,3,-1,5,7,-1,9,-1,-1,-1,-1],"loss_changes":[4.2128344E0,2.452238E0,0E0,1.0374746E0,2.6893277E0,0E0,3.203001E-1,0E0,0E0,0E0,0E0],"parents":[2147483647,0,0,1,1,3,3,4,4,6,6],"right_children":[2,4,-1,6,8,-1,10,-1,-1,-1,-1],"split_conditions":[3.5E1,1.029E1,-2.978194E-2,2E0,2.46E2,4.21962E-3,1E0,2.2375802E-2,-1.9274868E-2,1.2226729E-2,3.6990326E-2],"split_indices":[13,28,0,4,1,0,24,0,0,0,0],"split_type":[0,0,0,0,0,0,0,0,0,0,0],"sum_hessian":[2.6191133E1,2.3055285E1,3.1358488E0,1.469106E1,8.364224E0,4.693353E0,9.997707E0,3.0097167E0,5.354508E0,3.8919256E0,6.1057816E0],"tree_param":{"num_deleted":"0","num_feature":"32","num_nodes":"11","size_leaf_vector":"1"}},{"base_weights":[1.7916735E-1,3.629068E-1,-3.1343136E-2,1.3005385E-1,3.5405148E-2,4.7322392E-1,-2.921118E-2,2.9148249E-2,2.9272642E-3],"categories":[],"categories_nodes":[],"categories_segments":[],"categories_sizes":[],"default_left":[0,0,0,0,0,0,0,0,0],"id":86,"left_children":[1,3,-1,5,-1,7,-1,-1,-1],"loss_changes":[5.149528E0,2.6431656E0,0E0,5.691134E0,0E0,1.2008429E0,0E0,0E0,0E0],"parents":[2147483647,0,0,1,1,3,3,5,5],"right_children":[2,4,-1,6,-1,8,-1,-1,-1],"split_conditions":[5.6E1,1E0,-3.1343136E-2,2.415E-1,3.5405148E-2,1E1,-2.921118E-2,2.9148249E-2,2.9272642E-3],"split_indices":[20,23,0,12,0,14,0,0,0],"split_type":[0,0,0,0,0,0,0,0,0],"sum_hessian":[2.6978819E1,2.3352749E1,3.6260693E0,1.7279865E1,6.072883E0,1.2840474E1,4.439392E0,7.0295897E0,5.810884E0],"tree_param":{"num_deleted":"0","num_feature":"32","num_nodes":"9","size_leaf_vector":"1"}},{"base_weights":[1.1135096E-1,3.4866485E-1,-3.312974E-2,5.9210396E-1,-1.6519392E-1,2.2472079E-1,3.345589E-2,-2.8749948E-2,1.9105216E-2,2.5126748E-2,-1.1069828E-2],"categories":[],"categories_nodes":[],"categories_segments":[],"categories_sizes":[],"default_left":[0,0,0,0,0,0,0,0,0,0,0],"id":87,"left_children":[1,3,-1,5,7,9,-1,-1,-1,-1,-1],"loss_changes":[6.288444E0,3.0226157E0,0E0,1.0254049E0,3.1721663E0,1.8703792E0,0E0,0E0,0E0,0E0,0E0],"parents":[2147483647,0,0,1,1,3,3,4,4,5,5],"right_children":[2,4,-1,6,8,10,-1,-1,-1,-1,-1],"split_conditions":[4.744E-1,1.038E1,-3.312974E-2,1E0,3.4E1,2.415E-1,3.345589E-2,-2.8749948E-2,1.9105216E-2,2.5126748E-2,-1.1069828E-2],"split_indices":[10,28,0,24,16,10,0,0,0,0,0],"split_type":[0,0,0,0,0,0,0,0,0,0,0],"sum_hessian":[2.6337038E1,2.1698431E1,4.638607E0,1.4884083E1,6.814349E0,7.038191E0,7.8458915E0,3.765115E0,3.0492344E0,3.981277E0,3.056914E0],"tree_param":{"num_deleted":"0","num_feature":"32","num_nodes":"11","size_leaf_vector":"1"}},{"base_weights":[8.068767E-2,5.56421E-1,-4.1141313E-1,3.6485918E-2,1.9368032E-3,-3.5325404E-2,2.6349494E-2],"categories":[],"categories_nodes":[],"categories_segments":[],"categories_sizes":[],"default_left":[0,0,0,0,0,0,0],"id":88,"left_children":[1,3,5,-1,-1,-1,-1],"loss_changes":[5.8750334E0,2.0824804E0,6.76627E0,0E0,0E0,0E0,0E0],"parents":[2147483647,0,0,1,1,2,2],"right_children":[2,4,6,-1,-1,-1,-1],"split_conditions":[3.149E-1,1.978E-1,5.61E0,3.6485918E-2,1.9368032E-3,-3.5325404E-2,2.6349494E-2],"split_indices":[10,12,0,0,0,0,0],"split_type":[0,0,0,0,0,0,0],"sum_hessian":[2.2993607E1,1.183142E1,1.1162187E1,6.2591767E0,5.572243E0,7.9982195E0,3.163967E0],"tree_param":{"num_deleted":"0","num_feature":"32","num_nodes":"7","size_leaf_vector":"1"}},{"base_weights":[2.1188038E-3,4.567033E-1,-4.7620705E-1,2.9726557E-2,-1.6746367E-4,2.0199567E-2,-9.2560965E-1,-1.4604552E-2,-4.55122E-2],"categories":[],"categories_nodes":[],"categories_segments":[],"categories_sizes":[],"default_left":[0,0,0,0,0,0,0,0,0],"id":89,"left_children":[1,3,5,-1,-1,-1,7,-1,-1],"loss_changes":[5.4102445E0,1.8644307E0,5.8080163E0,0E0,0E0,0E0,3.1500816E-1,0E0,0E0],"parents":[2147483647,0,0,1,1,2,2,6,6],"right_children":[2,4,6,-1,-1,-1,8,-1,-1],"split_conditions":[5E0,2.972E-1,7.941E-1,2.9726557E-2,-1.6746367E-4,2.0199567E-2,1.65E0,-1.4604552E-2,-4.55122E-2],"split_indices":[15,10,21,0,0,0,18,0,0],"split_type":[0,0,0,0,0,0,0,0,0],"sum_hessian":[2.2899332E1,1.1978605E1,1.0920727E1,7.2770996E0,4.7015057E0,3.251936E0,7.6687903E0,3.1119688E0,4.5568213E0],"tree_param":{"num_deleted":"0","num_feature":"32","num_nodes":"9","size_leaf_vector":"1"}},{"base_weights":[2.2199602E-1,4.1854212E-1,-3.0183062E-2,-0E0,7.079209E-1,2.430123E-2,-2.5958983E-2,1.003359E-2,3.44429E-2],"categories":[],"categories_nodes":[],"categories_segments":[],"categories_sizes":[],"default_left":[0,0,0,0,0,0,0,0,0],"id":90,"left_children":[1,3,-1,5,7,-1,-1,-1,-1],"loss_changes":[5.09374E0,2.5768871E0,0E0,4.3550034E0,4.5567417E-1,0E0,0E0,0E0,0E0],"parents":[2147483647,0,0,1,1,3,3,4,4],"right_children":[2,4,-1,6,8,-1,-1,-1,-1],"split_conditions":[5.019E-1,7.69E-2,-3.0183062E-2,1.872E-1,1E0,2.430123E-2,-2.5958983E-2,1.003359E-2,3.44429E-2],"split_indices":[10,26,0,12,24,0,0,0,0],"split_type":[0,0,0,0,0,0,0,0,0],"sum_hessian":[2.4242712E1,2.0827217E1,3.415494E0,9.055594E0,1.1771623E1,4.7851815E0,4.2704134E0,3.9441252E0,7.8274975E0],"tree_param":{"num_deleted":"0","num_feature":"32","num_nodes":"9","size_leaf_vector":"1"}},{"base_weights":[1.6389342E-1,3.0471347E-2,-2.4086323E-1,-6.024302E-1,2.3505894E-2,2.204925E-3,-3.8210485E-2],"categories":[],"categories_nodes":[],"categories_segments":[],"categories_sizes":[],"default_left":[0,0,0,0,0,0,0],"id":91,"left_children":[1,-1,3,5,-1,-1,-1],"loss_changes":[6.022313E0,0E0,4.7578473E0,2.759105E0,0E0,0E0,0E0],"parents":[2147483647,0,0,2,2,3,3],"right_children":[2,-1,4,6,-1,-1,-1],"split_conditions":[2.731E-1,3.0471347E-2,3E0,3.419E-1,2.3505894E-2,2.204925E-3,-3.8210485E-2],"split_indices":[10,0,22,10,0,0,0],"split_type":[0,0,0,0,0,0,0],"sum_hessian":[2.2696865E1,9.005842E0,1.3691024E1,9.889471E0,3.8015523E0,3.5501602E0,6.339311E0],"tree_param":{"num_deleted":"0","num_feature":"32","num_nodes":"7","size_leaf_vector":"1"}},{"base_weights":[8.486273E-2,3.0575499E-2,-1.8910001E-1,-5.603141E-1,2.7749619E-2,-4.3953564E-2,5.7785395E-3],"categories":[],"categories_nodes":[],"categories_segments":[],"categories_sizes":[],"default_left":[0,0,0,0,0,0,0],"id":92,"left_children":[1,-1,3,5,-1,-1,-1],"loss_changes":[4.729315E0,0E0,6.163648E0,5.3501663E0,0E0,0E0,0E0],"parents":[2147483647,0,0,2,2,3,3],"right_children":[2,-1,4,6,-1,-1,-1],"split_conditions":[2.399E-1,3.0575499E-2,1E0,3.2E0,2.7749619E-2,-4.3953564E-2,5.7785395E-3],"split_indices":[10,0,23,0,0,0,0],"split_type":[0,0,0,0,0,0,0],"sum_hessian":[2.3009481E1,6.306654E0,1.6702827E1,1.2175274E1,4.527553E0,6.745581E0,5.4296927E0],"tree_param":{"num_deleted":"0","num_feature":"32","num_nodes":"7","size_leaf_vector":"1"}},{"base_weights":[2.2025202E-1,6.8959236E-1,-5.5853408E-2,3.3327784E-2,1.0877589E-2,-4.0935367E-1,2.4547683E-2,1.293963E-2,-7.831568E-1,-3.8629673E-2,-1.3394243E-2],"categories":[],"categories_nodes":[],"categories_segments":[],"categories_sizes":[],"default_left":[0,0,0,0,0,0,0,0,0,0,0],"id":93,"left_children":[1,3,5,-1,-1,7,-1,-1,9,-1,-1],"loss_changes":[3.114423E0,7.8537464E-2,3.757184E0,0E0,0E0,3.2498071E0,0E0,0E0,2.9937744E-2,0E0,0E0],"parents":[2147483647,0,0,1,1,2,2,5,5,8,8],"right_children":[2,4,6,-1,-1,8,-1,-1,10,-1,-1],"split_conditions":[2.731E-1,4E0,3E0,3.3327784E-2,1.0877589E-2,-1.148E-1,2.4547683E-2,1.293963E-2,7.83E2,-3.8629673E-2,-1.3394243E-2],"split_indices":[10,15,22,0,0,12,0,0,1,0,0],"split_type":[0,0,0,0,0,0,0,0,0,0,0],"sum_hessian":[2.175807E1,7.7725763E0,1.3985494E1,4.687166E0,3.0854099E0,9.602812E0,4.3826814E0,3.1083732E0,6.4944386E0,3.4776828E0,3.0167558E0],"tree_param":{"num_deleted":"0","num_feature":"32","num_nodes":"11","size_leaf_vector":"1"}},{"base_weights":[1.6620031E-1,-1.703297E-2,2.9719185E-2,2.6852602E-1,-2.9373216E-2,5.8089983E-1,-1.3091642E-2,2.496307E-3,3.1678308E-2],"categories":[],"categories_nodes":[],"categories_segments":[],"categories_sizes":[],"default_left":[0,0,0,0,0,0,0,0,0],"id":94,"left_children":[1,3,-1,5,-1,7,-1,-1,-1],"loss_changes":[2.840453E0,4.382415E0,0E0,2.999484E0,0E0,9.0734935E-1,0E0,0E0,0E0],"parents":[2147483647,0,0,1,1,3,3,5,5],"right_children":[2,4,-1,6,-1,8,-1,-1,-1],"split_conditions":[1E0,2.374E-1,2.9719185E-2,4.014E-1,-2.9373216E-2,5.459E-1,-1.3091642E-2,2.496307E-3,3.1678308E-2],"split_indices":[23,12,0,10,0,19,0,0,0],"split_type":[0,0,0,0,0,0,0,0,0],"sum_hessian":[2.4383017E1,1.8977798E1,5.4052176E0,1.3822016E1,5.155782E0,9.304553E0,4.517463E0,3.340778E0,5.9637747E0],"tree_param":{"num_deleted":"0","num_feature":"32","num_nodes":"9","size_leaf_vector":"1"}},{"base_weights":[1.5274769E-1,-0E0,2.9534098E-2,2.4673233E-2,-3.2222503E-1,7.465792E-2,-3.3717234E-2,-6.4142104E-3,1.2660751E-2],"categories":[],"categories_nodes":[],"categories_segments":[],"categories_sizes":[],"default_left":[0,0,0,0,0,0,0,0,0],"id":95,"left_children":[1,3,-1,-1,5,7,-1,-1,-1],"loss_changes":[2.171502E0,3.936472E0,0E0,0E0,2.9701362E0,5.51589E-1,0E0,0E0,0E0],"parents":[2147483647,0,0,1,1,4,4,5,5],"right_children":[2,4,-1,-1,6,8,-1,-1,-1],"split_conditions":[5E1,1E1,2.9534098E-2,2.4673233E-2,9.67E0,8.934E-1,-3.3717234E-2,-6.4142104E-3,1.2660751E-2],"split_indices":[16,27,0,0,28,21,0,0,0],"split_type":[0,0,0,0,0,0,0,0,0],"sum_hessian":[2.2001795E1,1.8034163E1,3.9676328E0,5.710054E0,1.2324108E1,7.261731E0,5.0623775E0,3.4345214E0,3.8272097E0],"tree_param":{"num_deleted":"0","num_feature":"32","num_nodes":"9","size_leaf_vector":"1"}},{"base_weights":[7.899489E-2,3.2666185E-1,-5.133107E-1,5.242968E-1,-9.746057E-3,-3.700574E-2,6.818157E-4,-5.155901E-4,3.3400673E-2],"categories":[],"categories_nodes":[],"categories_segments":[],"categories_sizes":[],"default_left":[0,0,0,0,0,0,0,0,0],"id":96,"left_children":[1,3,5,7,-1,-1,-1,-1,-1],"loss_changes":[3.765679E0,2.249237E0,1.8262829E0,2.543023E0,0E0,0E0,0E0,0E0,0E0],"parents":[2147483647,0,0,1,1,2,2,3,3],"right_children":[2,4,6,8,-1,-1,-1,-1,-1],"split_conditions":[2.452E-1,4.468E-1,3.3E1,1E0,-9.746057E-3,-3.700574E-2,6.818157E-4,-5.155901E-4,3.3400673E-2],"split_indices":[12,10,13,30,0,0,0,0,0],"split_type":[0,0,0,0,0,0,0,0,0],"sum_hessian":[2.3781633E1,1.7323944E1,6.457689E0,1.31859045E1,4.1380396E0,3.4282794E0,3.0294094E0,4.947426E0,8.238479E0],"tree_param":{"num_deleted":"0","num_feature":"32","num_nodes":"9","size_leaf_vector":"1"}},{"base_weights":[1.22111104E-1,2.965573E-1,-2.9720651E-2,6.1337614E-1,-1.3113655E-1,3.3303585E-2,-0E0,